{"learner":{"attributes":{"scikit_learn":"{\"_estimator_type\": \"classifier\"}"},"feature_names":[],"feature_types":[],"gradient_booster":{"model":{"cats":{"enc":[],"feature_segments":[],"sorted_idx":[]},"gbtree_model_param":{"num_parallel_tree":"1","num_trees":"300"},"iteration_indptr":[0,3,6,9,12,15,18,21,24,27,30,33,36,39,42,45,48,51,54,57,60,63,66,69,72,75,78,81,84,87,90,93,96,99,102,105,108,111,114,117,120,123,126,129,132,135,138,141,144,147,150,153,156,159,162,165,168,171,174,177,180,183,186,189,192,195,198,201,204,207,210,213,216,219,222,225,228,231,234,237,240,243,246,249,252,255,258,261,264,267,270,273,276,279,282,285,288,291,294,297,300],"tree_info":[0,1,2,0,1,2,0,1,2,0,1,2,0,1,2,0,1,2,0,1,2,0,1,2,0,1,2,0,1,2,0,1,2,0,1,2,0,1,2,0,1,2,0,1,2,0,1,2,0,1,2,0,1,2,0,1,2,0,1,2,0,1,2,0,1,2,0,1,2,0,1,2,0,1,2,0,1,2,0,1,2,0,1,2,0,1,2,0,1,2,0,1,2,0,1,2,0,1,2,0,1,2,0,1,2,0,1,2,0,1,2,0,1,2,0,1,2,0,1,2,0,1,2,0,1,2,0,1,2,0,1,2,0,1,2,0,1,2,0,1,2,0,1,2,0,1,2,0,1,2,0,1,2,0,1,2,0,1,2,0,1,2,0,1,2,0,1,2,0,1,2,0,1,2,0,1,2,0,1,2,0,1,2,0,1,2,0,1,2,0,1,2,0,1,2,0,1,2,0,1,2,0,1,2,0,1,2,0,1,2,0,1,2,0,1,2,0,1,2,0,1,2,0,1,2,0,1,2,0,1,2,0,1,2,0,1,2,0,1,2,0,1,2,0,1,2,0,1,2,0,1,2,0,1,2,0,1,2,0,1,2,0,1,2,0,1,2,0,1,2,0,1,2,0,1,2,0,1,2,0,1,2,0,1,2,0,1,2,0,1,2,0,1,2,0,1,2,0,1,2],"trees":[{"base_weights":[-5.234317E-1,-6.241891E-1,1.7751234E-2,-6.328332E-3,1.5417002E-3],"categories":[],"categories_nodes":[],"categories_segments":[],"categories_sizes":[],"default_left":[0,0,0,0,0],"id":0,"left_children":[1,3,-1,-1,-1],"loss_changes":[2.846518E1,8.639374E-1,0E0,0E0,0E0],"parents":[2147483647,0,0,1,1],"right_children":[2,4,-1,-1,-1],"split_conditions":[2.9093454E1,2.0791151E1,1.7751234E-2,-6.328332E-3,1.5417002E-3],"split_indices":[2,19,0,0,0],"split_type":[0,0,0,0,0],"sum_hessian":[1.171244E2,1.129037E2,4.2206993E0,1.11848526E2,1.0551748E0],"tree_param":{"num_deleted":"0","num_feature":"25","num_nodes":"5","size_leaf_vector":"1"}},{"base_weights":[7.639856E-1,8.4345865E-1,-9.695512E-3,-8.61002E-3,8.857785E-1,8.918603E-3,1.4165033E-3],"categories":[],"categories_nodes":[],"categories_segments":[],"categories_sizes":[],"default_left":[0,0,0,0,0,0,0],"id":1,"left_children":[1,3,-1,-1,5,-1,-1],"loss_changes":[2.4284966E1,1.2549446E1,0E0,0E0,5.974884E-1,0E0,0E0],"parents":[2147483647,0,0,1,1,4,4],"right_children":[2,4,-1,-1,6,-1,-1],"split_conditions":[2.9093454E1,-1.5284747E1,-9.695512E-3,-8.61002E-3,2.0854101E1,8.918603E-3,1.4165033E-3],"split_indices":[2,2,0,0,19,0,0],"split_type":[0,0,0,0,0,0,0],"sum_hessian":[1.6933662E2,1.6240471E2,6.9319086E0,3.4659543E0,1.5893877E2,1.5745335E2,1.485409E0],"tree_param":{"num_deleted":"0","num_feature":"25","num_nodes":"7","size_leaf_vector":"1"}},{"base_weights":[-5.52835E-1,1.697991E-2,-6.290969E-1,-2.4443379E-1,-6.3768732E-3,1.6233942E-3,-4.344892E-3],"categories":[],"categories_nodes":[],"categories_segments":[],"categories_sizes":[],"default_left":[0,0,0,0,0,0,0],"id":2,"left_children":[1,-1,3,5,-1,-1,-1],"loss_changes":[2.1224712E1,0E0,2.2184372E-1,3.8893872E-1,0E0,0E0,0E0],"parents":[2147483647,0,0,2,2,3,3],"right_children":[2,-1,4,6,-1,-1,-1],"split_conditions":[-1.5284747E1,1.697991E-2,9.672672E-1,9.8138726E-1,-6.3768732E-3,1.6233942E-3,-4.344892E-3],"split_indices":[2,0,14,4,0,0,0],"split_type":[0,0,0,0,0,0,0],"sum_hessian":[1.1642635E2,3.1185632E0,1.1330779E2,3.1185632E0,1.1018923E2,1.039521E0,2.079042E0],"tree_param":{"num_deleted":"0","num_feature":"25","num_nodes":"7","size_leaf_vector":"1"}},{"base_weights":[-5.197785E-1,-6.320409E-1,1.792517E-2,-6.403669E-3,3.6310218E-4],"categories":[],"categories_nodes":[],"categories_segments":[],"categories_sizes":[],"default_left":[0,0,0,0,0],"id":3,"left_children":[1,3,-1,-1,-1],"loss_changes":[3.328161E1,6.846199E-1,0E0,0E0,0E0],"parents":[2147483647,0,0,1,1],"right_children":[2,4,-1,-1,-1],"split_conditions":[2.9093454E1,2.0854101E1,1.792517E-2,-6.403669E-3,3.6310218E-4],"split_indices":[2,19,0,0,0],"split_type":[0,0,0,0,0],"sum_hessian":[1.22846855E2,1.1785179E2,4.9950705E0,1.1644308E2,1.4087144E0],"tree_param":{"num_deleted":"0","num_feature":"25","num_nodes":"5","size_leaf_vector":"1"}},{"base_weights":[7.733122E-1,8.3670473E-1,-9.295744E-3,-8.54735E-3,8.793441E-1,8.853923E-3,2.6813832E-3],"categories":[],"categories_nodes":[],"categories_segments":[],"categories_sizes":[],"default_left":[0,0,0,0,0,0,0],"id":4,"left_children":[1,3,-1,-1,5,-1,-1],"loss_changes":[1.8766792E1,1.2376732E1,0E0,0E0,3.4562683E-1,0E0,0E0],"parents":[2147483647,0,0,1,1,4,4],"right_children":[2,4,-1,-1,6,-1,-1],"split_conditions":[2.9093454E1,-1.5284747E1,-9.295744E-3,-8.54735E-3,2.0837286E1,8.853923E-3,2.6813832E-3],"split_indices":[2,2,0,0,19,0,0],"split_type":[0,0,0,0,0,0,0],"sum_hessian":[1.6564159E2,1.6018703E2,5.454549E0,3.470537E0,1.5671649E2,1.547367E2,1.9797992E0],"tree_param":{"num_deleted":"0","num_feature":"25","num_nodes":"7","size_leaf_vector":"1"}},{"base_weights":[-5.6215155E-1,1.622309E-2,-6.280445E-1,-2.4254894E-1,-6.3637285E-3,-4.3329597E-3,1.6439323E-3],"categories":[],"categories_nodes":[],"categories_segments":[],"categories_sizes":[],"default_left":[0,0,0,0,0,0,0],"id":5,"left_children":[1,-1,3,5,-1,-1,-1],"loss_changes":[1.8377617E1,0E0,2.2380447E-1,3.9000988E-1,0E0,0E0,0E0],"parents":[2147483647,0,0,2,2,3,3],"right_children":[2,-1,4,6,-1,-1,-1],"split_conditions":[-1.5284747E1,1.622309E-2,9.672672E-1,9.649382E-1,-6.3637285E-3,-4.3329597E-3,1.6439323E-3],"split_indices":[2,0,14,14,0,0,0],"split_type":[0,0,0,0,0,0,0],"sum_hessian":[1.1959653E2,2.8102934E0,1.1678624E2,3.106759E0,1.1367948E2,2.0711727E0,1.0355864E0],"tree_param":{"num_deleted":"0","num_feature":"25","num_nodes":"7","size_leaf_vector":"1"}},{"base_weights":[-4.8874474E-1,-6.210544E-1,1.7978368E-2,-6.2968587E-3,1.5337877E-3],"categories":[],"categories_nodes":[],"categories_segments":[],"categories_sizes":[],"default_left":[0,0,0,0,0],"id":6,"left_children":[1,3,-1,-1,-1],"loss_changes":[3.7246758E1,8.5617447E-1,0E0,0E0,0E0],"parents":[2147483647,0,0,1,1],"right_children":[2,4,-1,-1,-1],"split_conditions":[2.9093454E1,2.0854101E1,1.7978368E-2,-6.2968587E-3,1.5337877E-3],"split_indices":[2,19,0,0,0],"split_type":[0,0,0,0,0],"sum_hessian":[1.18424164E2,1.1263509E2,5.789071E0,1.1157841E2,1.0566912E0],"tree_param":{"num_deleted":"0","num_feature":"25","num_nodes":"5","size_leaf_vector":"1"}},{"base_weights":[7.4676985E-1,8.31295E-1,-9.616922E-3,-8.730792E-3,8.7967306E-1,8.858109E-3,1.3891798E-3],"categories":[],"categories_nodes":[],"categories_segments":[],"categories_sizes":[],"default_left":[0,0,0,0,0,0,0],"id":7,"left_children":[1,3,-1,-1,5,-1,-1],"loss_changes":[2.5257599E1,1.4119072E1,0E0,0E0,5.950775E-1,0E0,0E0],"parents":[2147483647,0,0,1,1,4,4],"right_children":[2,4,-1,-1,6,-1,-1],"split_conditions":[2.9093454E1,-1.5284747E1,-9.616922E-3,-8.730792E-3,2.0854101E1,8.858109E-3,1.3891798E-3],"split_indices":[2,2,0,0,19,0,0],"split_type":[0,0,0,0,0,0,0],"sum_hessian":[1.6836842E2,1.6092041E2,7.448018E0,3.9710755E0,1.5694933E2,1.5546533E2,1.4839982E0],"tree_param":{"num_deleted":"0","num_feature":"25","num_nodes":"7","size_leaf_vector":"1"}},{"base_weights":[-5.608557E-1,1.6453717E-2,-6.3504E-3],"categories":[],"categories_nodes":[],"categories_segments":[],"categories_sizes":[],"default_left":[0,0,0],"id":8,"left_children":[1,-1,-1],"loss_changes":[2.0790337E1,0E0,0E0],"parents":[2147483647,0,0],"right_children":[2,-1,-1],"split_conditions":[-1.5284747E1,1.6453717E-2,-6.3504E-3],"split_indices":[2,0,0],"split_type":[0,0,0],"sum_hessian":[1.1964374E2,3.2031503E0,1.1644058E2],"tree_param":{"num_deleted":"0","num_feature":"25","num_nodes":"3","size_leaf_vector":"1"}},{"base_weights":[-5.1409334E-1,-6.2859952E-3,1.729396E-2],"categories":[],"categories_nodes":[],"categories_segments":[],"categories_sizes":[],"default_left":[0,0,0],"id":9,"left_children":[1,-1,-1],"loss_changes":[3.213836E1,0E0,0E0],"parents":[2147483647,0,0],"right_children":[2,-1,-1],"split_conditions":[2.9093454E1,-6.2859952E-3,1.729396E-2],"split_indices":[2,0,0],"split_type":[0,0,0],"sum_hessian":[1.1987219E2,1.1473596E2,5.1362324E0],"tree_param":{"num_deleted":"0","num_feature":"25","num_nodes":"3","size_leaf_vector":"1"}},{"base_weights":[7.513079E-1,8.3336365E-1,-9.536041E-3,-8.122696E-3,8.683242E-1,8.740647E-3,2.6520407E-3],"categories":[],"categories_nodes":[],"categories_segments":[],"categories_sizes":[],"default_left":[0,0,0,0,0,0,0],"id":10,"left_children":[1,3,-1,-1,5,-1,-1],"loss_changes":[2.5140495E1,1.0288353E1,0E0,0E0,3.345642E-1,0E0,0E0],"parents":[2147483647,0,0,1,1,4,4],"right_children":[2,4,-1,-1,6,-1,-1],"split_conditions":[2.9093454E1,-1.5284747E1,-9.536041E-3,-8.122696E-3,2.0854101E1,8.740647E-3,2.6520407E-3],"split_indices":[2,2,0,0,19,0,0],"split_type":[0,0,0,0,0,0,0],"sum_hessian":[1.7302551E2,1.6556807E2,7.457431E0,2.981713E0,1.6258636E2,1.6060846E2,1.9778976E0],"tree_param":{"num_deleted":"0","num_feature":"25","num_nodes":"7","size_leaf_vector":"1"}},{"base_weights":[-5.6832653E-1,1.5176558E-2,-6.252604E-1,-1.5667728E-1,-6.335234E-3,-3.6972202E-3,1.6971683E-3],"categories":[],"categories_nodes":[],"categories_segments":[],"categories_sizes":[],"default_left":[0,0,0,0,0,0,0],"id":11,"left_children":[1,-1,3,5,-1,-1,-1],"loss_changes":[1.539727E1,0E0,3.6200714E-1,2.9868317E-1,0E0,0E0,0E0],"parents":[2147483647,0,0,2,2,3,3],"right_children":[2,-1,4,6,-1,-1,-1],"split_conditions":[-1.5284747E1,1.5176558E-2,9.672672E-1,1.4838153E3,-6.335234E-3,-3.6972202E-3,1.6971683E-3],"split_indices":[2,0,14,0,0,0,0],"split_type":[0,0,0,0,0,0,0],"sum_hessian":[1.2065694E2,2.5240092E0,1.1813293E2,2.3929653E0,1.1573997E2,1.3675727E0,1.0253928E0],"tree_param":{"num_deleted":"0","num_feature":"25","num_nodes":"7","size_leaf_vector":"1"}},{"base_weights":[-5.052288E-1,-6.3570994E-3,1.7344678E-2],"categories":[],"categories_nodes":[],"categories_segments":[],"categories_sizes":[],"default_left":[0,0,0],"id":12,"left_children":[1,-1,-1],"loss_changes":[3.656328E1,0E0,0E0],"parents":[2147483647,0,0],"right_children":[2,-1,-1],"split_conditions":[1.5E1,-6.3570994E-3,1.7344678E-2],"split_indices":[2,0,0],"split_type":[0,0,0],"sum_hessian":[1.20341644E2,1.14393425E2,5.948215E0],"tree_param":{"num_deleted":"0","num_feature":"25","num_nodes":"3","size_leaf_vector":"1"}},{"base_weights":[7.356841E-1,8.1376517E-1,-9.378599E-3,-8.608741E-3,8.615792E-1,8.676163E-3,1.352414E-3],"categories":[],"categories_nodes":[],"categories_segments":[],"categories_sizes":[],"default_left":[0,0,0,0,0,0,0],"id":13,"left_children":[1,3,-1,-1,5,-1,-1],"loss_changes":[2.275904E1,1.3662056E1,0E0,0E0,5.727768E-1,0E0,0E0],"parents":[2147483647,0,0,1,1,4,4],"right_children":[2,4,-1,-1,6,-1,-1],"split_conditions":[2.9093454E1,-1.5284747E1,-9.378599E-3,-8.608741E-3,2.0854101E1,8.676163E-3,1.352414E-3],"split_indices":[2,2,0,0,19,0,0],"split_type":[0,0,0,0,0,0,0],"sum_hessian":[1.673286E2,1.6036055E2,6.9680505E0,3.9794533E0,1.5638109E2,1.548991E2,1.4819968E0],"tree_param":{"num_deleted":"0","num_feature":"25","num_nodes":"7","size_leaf_vector":"1"}},{"base_weights":[-5.6681556E-1,1.496599E-2,-6.2379E-1,-2.3587786E-1,-6.320267E-3,1.7110293E-3,-4.28938E-3],"categories":[],"categories_nodes":[],"categories_segments":[],"categories_sizes":[],"default_left":[0,0,0,0,0,0,0],"id":14,"left_children":[1,-1,3,5,-1,-1,-1],"loss_changes":[1.5197281E1,0E0,2.3041916E-1,3.9278603E-1,0E0,0E0,0E0],"parents":[2147483647,0,0,2,2,3,3],"right_children":[2,-1,4,6,-1,-1,-1],"split_conditions":[-1.5284747E1,1.496599E-2,9.672672E-1,1.4748641E0,-6.320267E-3,1.7110293E-3,-4.28938E-3],"split_indices":[2,0,14,17,0,0,0],"split_type":[0,0,0,0,0,0,0],"sum_hessian":[1.2032935E2,2.5542858E0,1.1777506E2,3.0649912E0,1.14710075E2,1.0227381E0,2.0422533E0],"tree_param":{"num_deleted":"0","num_feature":"25","num_nodes":"7","size_leaf_vector":"1"}},{"base_weights":[-4.7691318E-1,-6.1648285E-1,1.7187005E-2,-6.250652E-3,3.9148572E-4],"categories":[],"categories_nodes":[],"categories_segments":[],"categories_sizes":[],"default_left":[0,0,0,0,0],"id":15,"left_children":[1,3,-1,-1,-1],"loss_changes":[3.7659294E1,6.604881E-1,0E0,0E0,0E0],"parents":[2147483647,0,0,1,1],"right_children":[2,4,-1,-1,-1],"split_conditions":[1.5144517E1,2.0854101E1,1.7187005E-2,-6.250652E-3,3.9148572E-4],"split_indices":[2,19,0,0,0],"split_type":[0,0,0,0,0],"sum_hessian":[1.1843485E2,1.12032455E2,6.4024005E0,1.1063089E2,1.4015626E0],"tree_param":{"num_deleted":"0","num_feature":"25","num_nodes":"5","size_leaf_vector":"1"}},{"base_weights":[7.2429276E-1,8.104142E-1,-9.450124E-3,-8.744162E-3,8.627366E-1,8.685846E-3,2.5999227E-3],"categories":[],"categories_nodes":[],"categories_segments":[],"categories_sizes":[],"default_left":[0,0,0,0,0,0,0],"id":16,"left_children":[1,3,-1,-1,5,-1,-1],"loss_changes":[2.5702377E1,1.5342567E1,0E0,0E0,3.4168243E-1,0E0,0E0],"parents":[2147483647,0,0,1,1,4,4],"right_children":[2,4,-1,-1,6,-1,-1],"split_conditions":[2.9093454E1,-1.5284747E1,-9.450124E-3,-8.744162E-3,2.0854101E1,8.685846E-3,2.5999227E-3],"split_indices":[2,2,0,0,19,0,0],"split_type":[0,0,0,0,0,0,0],"sum_hessian":[1.7245587E2,1.6448445E2,7.9714265E0,4.4809685E0,1.6000348E2,1.5802917E2,1.9743025E0],"tree_param":{"num_deleted":"0","num_feature":"25","num_nodes":"7","size_leaf_vector":"1"}},{"base_weights":[-5.5686945E-1,1.5290345E-2,-6.222011E-1,-9.8755315E-2,-6.305625E-3,-3.2189782E-3,1.7320567E-3],"categories":[],"categories_nodes":[],"categories_segments":[],"categories_sizes":[],"default_left":[0,0,0,0,0,0,0],"id":17,"left_children":[1,-1,3,5,-1,-1,-1],"loss_changes":[1.739561E1,0E0,4.5293808E-1,2.4002782E-1,0E0,0E0,0E0],"parents":[2147483647,0,0,2,2,3,3],"right_children":[2,-1,4,6,-1,-1,-1],"split_conditions":[-1.5284747E1,1.5290345E-2,9.672672E-1,6.895973E0,-6.305625E-3,-3.2189782E-3,1.7320567E-3],"split_indices":[2,0,14,22,0,0,0],"split_type":[0,0,0,0,0,0,0],"sum_hessian":[1.19669106E2,2.9538727E0,1.1671523E2,2.0365007E0,1.14678734E2,1.0177909E0,1.0187097E0],"tree_param":{"num_deleted":"0","num_feature":"25","num_nodes":"7","size_leaf_vector":"1"}},{"base_weights":[-4.7860685E-1,-6.141818E-1,1.674923E-2,-6.2303147E-3,3.9063353E-4],"categories":[],"categories_nodes":[],"categories_segments":[],"categories_sizes":[],"default_left":[0,0,0,0,0],"id":18,"left_children":[1,3,-1,-1,-1],"loss_changes":[3.471894E1,6.561432E-1,0E0,0E0,0E0],"parents":[2147483647,0,0,1,1],"right_children":[2,4,-1,-1,-1],"split_conditions":[1.5144517E1,2.0837286E1,1.674923E-2,-6.2303147E-3,3.9063353E-4],"split_indices":[2,19,0,0,0],"split_type":[0,0,0,0,0],"sum_hessian":[1.1439149E2,1.0828899E2,6.1025043E0,1.0688721E2,1.4017774E0],"tree_param":{"num_deleted":"0","num_feature":"25","num_nodes":"5","size_leaf_vector":"1"}},{"base_weights":[7.472506E-1,8.147472E-1,-9.037103E-3,-8.251797E-3,8.5663444E-1,8.62612E-3,2.5828234E-3],"categories":[],"categories_nodes":[],"categories_segments":[],"categories_sizes":[],"default_left":[0,0,0,0,0,0,0],"id":19,"left_children":[1,3,-1,-1,5,-1,-1],"loss_changes":[1.9205078E1,1.1680656E1,0E0,0E0,3.3611298E-1,0E0,0E0],"parents":[2147483647,0,0,1,1,4,4],"right_children":[2,4,-1,-1,6,-1,-1],"split_conditions":[1.5E1,-1.5284747E1,-9.037103E-3,-8.251797E-3,2.0854101E1,8.62612E-3,2.5828234E-3],"split_indices":[2,2,0,0,19,0,0],"split_type":[0,0,0,0,0,0,0],"sum_hessian":[1.6473714E2,1.587533E2,5.983842E0,3.488163E0,1.5526512E2,1.5329207E2,1.9730624E0],"tree_param":{"num_deleted":"0","num_feature":"25","num_nodes":"7","size_leaf_vector":"1"}},{"base_weights":[-5.541689E-1,1.5069016E-2,-6.206159E-1,-2.287326E-1,-6.2911287E-3,1.7789832E-3,-4.2421105E-3],"categories":[],"categories_nodes":[],"categories_segments":[],"categories_sizes":[],"default_left":[0,0,0,0,0,0,0],"id":20,"left_children":[1,-1,3,5,-1,-1,-1],"loss_changes":[1.7147583E1,0E0,2.4033737E-1,3.9501852E-1,0E0,0E0,0E0],"parents":[2147483647,0,0,2,2,3,3],"right_children":[2,-1,4,6,-1,-1,-1],"split_conditions":[-1.5284747E1,1.5069016E-2,1.4525533E0,1.4954213E3,-6.2911287E-3,1.7789832E-3,-4.2421105E-3],"split_indices":[2,0,17,0,0,0,0],"split_type":[0,0,0,0,0,0,0],"sum_hessian":[1.1738004E2,2.9889758E0,1.1439107E2,3.0201504E0,1.1137092E2,1.0097077E0,2.0104427E0],"tree_param":{"num_deleted":"0","num_feature":"25","num_nodes":"7","size_leaf_vector":"1"}},{"base_weights":[-4.9224636E-1,-6.2167756E-3,1.6318595E-2],"categories":[],"categories_nodes":[],"categories_segments":[],"categories_sizes":[],"default_left":[0,0,0],"id":21,"left_children":[1,-1,-1],"loss_changes":[3.2197582E1,0E0,0E0],"parents":[2147483647,0,0],"right_children":[2,-1,-1],"split_conditions":[2.9093454E1,-6.2167756E-3,1.6318595E-2],"split_indices":[2,0,0],"split_type":[0,0,0],"sum_hessian":[1.1242374E2,1.0663341E2,5.7903266E0],"tree_param":{"num_deleted":"0","num_feature":"25","num_nodes":"3","size_leaf_vector":"1"}},{"base_weights":[7.440125E-1,8.1361055E-1,-8.965623E-3,-7.9020765E-3,8.5061187E-1,8.568701E-3,1.2985481E-3],"categories":[],"categories_nodes":[],"categories_segments":[],"categories_sizes":[],"default_left":[0,0,0,0,0,0,0],"id":22,"left_children":[1,3,-1,-1,5,-1,-1],"loss_changes":[1.9001396E1,9.813293E0,0E0,0E0,5.700531E-1,0E0,0E0],"parents":[2147483647,0,0,1,1,4,4],"right_children":[2,4,-1,-1,6,-1,-1],"split_conditions":[2.9093454E1,-1.5284747E1,-8.965623E-3,-7.9020765E-3,2.0837286E1,8.568701E-3,1.2985481E-3],"split_indices":[2,2,0,0,19,0,0],"split_type":[0,0,0,0,0,0,0],"sum_hessian":[1.5902626E2,1.53038E2,5.9882593E0,2.9920392E0,1.5004596E2,1.4856711E2,1.4788514E0],"tree_param":{"num_deleted":"0","num_feature":"25","num_nodes":"7","size_leaf_vector":"1"}},{"base_weights":[-5.514229E-1,1.5278568E-2,-6.277304E-3],"categories":[],"categories_nodes":[],"categories_segments":[],"categories_sizes":[],"default_left":[0,0,0],"id":23,"left_children":[1,-1,-1],"loss_changes":[1.9378998E1,0E0,0E0],"parents":[2147483647,0,0],"right_children":[2,-1,-1],"split_conditions":[-1.5284747E1,1.5278568E-2,-6.277304E-3],"split_indices":[2,0,0],"split_type":[0,0,0],"sum_hessian":[1.1509339E2,3.4009016E0,1.1169249E2],"tree_param":{"num_deleted":"0","num_feature":"25","num_nodes":"3","size_leaf_vector":"1"}},{"base_weights":[-4.840368E-1,-6.124506E-1,1.6201742E-2,-6.20844E-3,4.0631823E-4],"categories":[],"categories_nodes":[],"categories_segments":[],"categories_sizes":[],"default_left":[0,0,0,0,0],"id":24,"left_children":[1,3,-1,-1,-1],"loss_changes":[3.3755383E1,6.556206E-1,0E0,0E0,0E0],"parents":[2147483647,0,0,1,1],"right_children":[2,4,-1,-1,-1],"split_conditions":[1.5144517E1,2.0837286E1,1.6201742E-2,-6.20844E-3,4.0631823E-4],"split_indices":[2,19,0,0,0],"split_type":[0,0,0,0,0],"sum_hessian":[1.2025062E2,1.1400233E2,6.2482867E0,1.1260451E2,1.3978258E0],"tree_param":{"num_deleted":"0","num_feature":"25","num_nodes":"5","size_leaf_vector":"1"}},{"base_weights":[7.0962614E-1,7.919111E-1,-9.158257E-3,-8.372926E-3,8.3924377E-1,8.452566E-3,1.2767459E-3],"categories":[],"categories_nodes":[],"categories_segments":[],"categories_sizes":[],"default_left":[0,0,0,0,0,0,0],"id":25,"left_children":[1,3,-1,-1,5,-1,-1],"loss_changes":[2.300467E1,1.2970444E1,0E0,0E0,5.5565643E-1,0E0,0E0],"parents":[2147483647,0,0,1,1,4,4],"right_children":[2,4,-1,-1,6,-1,-1],"split_conditions":[1.5144517E1,-1.5284747E1,-9.158257E-3,-8.372926E-3,2.0854101E1,8.452566E-3,1.2767459E-3],"split_indices":[2,2,0,0,19,0,0],"split_type":[0,0,0,0,0,0,0],"sum_hessian":[1.6557466E2,1.5808476E2,7.4898973E0,3.9919267E0,1.5409283E2,1.5261533E2,1.4775064E0],"tree_param":{"num_deleted":"0","num_feature":"25","num_nodes":"7","size_leaf_vector":"1"}},{"base_weights":[-5.416239E-1,1.5060398E-2,-6.174842E-1,-2.2683388E-1,-6.2613194E-3,1.7957778E-3,-4.2292667E-3],"categories":[],"categories_nodes":[],"categories_segments":[],"categories_sizes":[],"default_left":[0,0,0,0,0,0,0],"id":26,"left_children":[1,-1,3,5,-1,-1,-1],"loss_changes":[1.8967072E1,0E0,2.3862457E-1,3.9539397E-1,0E0,0E0,0E0],"parents":[2147483647,0,0,2,2,3,3],"right_children":[2,-1,4,6,-1,-1,-1],"split_conditions":[-1.5284747E1,1.5060398E-2,9.672672E-1,9.8138726E-1,-6.2613194E-3,1.7957778E-3,-4.2292667E-3],"split_indices":[2,0,14,4,0,0,0],"split_type":[0,0,0,0,0,0,0],"sum_hessian":[1.15116455E2,3.438902E0,1.1167755E2,3.0083826E0,1.08669174E2,1.0065274E0,2.0018551E0],"tree_param":{"num_deleted":"0","num_feature":"25","num_nodes":"7","size_leaf_vector":"1"}},{"base_weights":[-4.9644127E-1,-6.1074173E-1,1.5633596E-2,-6.1931997E-3,1.5736128E-3],"categories":[],"categories_nodes":[],"categories_segments":[],"categories_sizes":[],"default_left":[0,0,0,0,0],"id":27,"left_children":[1,3,-1,-1,-1],"loss_changes":[2.8937979E1,8.441658E-1,0E0,0E0,0E0],"parents":[2147483647,0,0,1,1],"right_children":[2,4,-1,-1,-1],"split_conditions":[2.9093454E1,2.0854101E1,1.5633596E-2,-6.1931997E-3,1.5736128E-3],"split_indices":[2,19,0,0,0],"split_type":[0,0,0,0,0],"sum_hessian":[1.17856674E2,1.1232703E2,5.529648E0,1.1127797E2,1.0490589E0],"tree_param":{"num_deleted":"0","num_feature":"25","num_nodes":"5","size_leaf_vector":"1"}},{"base_weights":[7.165312E-1,8.013611E-1,-9.153784E-3,-8.0832355E-3,8.4130776E-1,8.469992E-3,2.5296137E-3],"categories":[],"categories_nodes":[],"categories_segments":[],"categories_sizes":[],"default_left":[0,0,0,0,0,0,0],"id":28,"left_children":[1,3,-1,-1,5,-1,-1],"loss_changes":[2.4620972E1,1.1261551E1,0E0,0E0,3.2509613E-1,0E0,0E0],"parents":[2147483647,0,0,1,1,4,4],"right_children":[2,4,-1,-1,6,-1,-1],"split_conditions":[2.9093454E1,-1.5284747E1,-9.153784E-3,-8.0832355E-3,2.0837286E1,8.469992E-3,2.5296137E-3],"split_indices":[2,2,0,0,19,0,0],"split_type":[0,0,0,0,0,0,0],"sum_hessian":[1.7155391E2,1.6356065E2,7.993258E0,3.4949193E0,1.6006573E2,1.5809673E2,1.9690107E0],"tree_param":{"num_deleted":"0","num_feature":"25","num_nodes":"7","size_leaf_vector":"1"}},{"base_weights":[-5.474361E-1,1.4441573E-2,-6.158943E-1,-1.8814613E-1,-6.246817E-3,-3.959381E-3,1.8270996E-3],"categories":[],"categories_nodes":[],"categories_segments":[],"categories_sizes":[],"default_left":[0,0,0,0,0,0,0],"id":29,"left_children":[1,-1,3,5,-1,-1,-1],"loss_changes":[1.6445332E1,0E0,2.9971313E-1,3.5480955E-1,0E0,0E0,0E0],"parents":[2147483647,0,0,2,2,3,3],"right_children":[2,-1,4,6,-1,-1,-1],"split_conditions":[-1.5284747E1,1.4441573E-2,9.672672E-1,9.880198E-1,-6.246817E-3,-3.959381E-3,1.8270996E-3],"split_indices":[2,0,14,15,0,0,0],"split_type":[0,0,0,0,0,0,0],"sum_hessian":[1.1309547E2,3.0905113E0,1.1000495E2,2.665511E0,1.0733944E2,1.6649824E0,1.0005286E0],"tree_param":{"num_deleted":"0","num_feature":"25","num_nodes":"7","size_leaf_vector":"1"}},{"base_weights":[-4.7400644E-1,-6.084747E-1,1.5686983E-2,-6.1730244E-3,3.9828967E-4],"categories":[],"categories_nodes":[],"categories_segments":[],"categories_sizes":[],"default_left":[0,0,0,0,0],"id":30,"left_children":[1,3,-1,-1,-1],"loss_changes":[3.2570976E1,6.467705E-1,0E0,0E0,0E0],"parents":[2147483647,0,0,1,1],"right_children":[2,4,-1,-1,-1],"split_conditions":[2.9093454E1,2.0854101E1,1.5686983E-2,-6.1730244E-3,3.9828967E-4],"split_indices":[2,19,0,0,0],"split_type":[0,0,0,0,0],"sum_hessian":[1.1410335E2,1.07714775E2,6.3885803E0,1.06314926E2,1.3998483E0],"tree_param":{"num_deleted":"0","num_feature":"25","num_nodes":"5","size_leaf_vector":"1"}},{"base_weights":[7.056478E-1,7.934339E-1,-9.083251E-3,-7.742206E-3,8.288858E-1,8.348609E-3,1.2512293E-3],"categories":[],"categories_nodes":[],"categories_segments":[],"categories_sizes":[],"default_left":[0,0,0,0,0,0,0],"id":31,"left_children":[1,3,-1,-1,5,-1,-1],"loss_changes":[2.4149345E1,9.387314E0,0E0,0E0,5.446625E-1,0E0,0E0],"parents":[2147483647,0,0,1,1,4,4],"right_children":[2,4,-1,-1,6,-1,-1],"split_conditions":[2.9093454E1,-1.5284747E1,-9.083251E-3,-7.742206E-3,2.0854101E1,8.348609E-3,1.2512293E-3],"split_indices":[2,2,0,0,19,0,0],"split_type":[0,0,0,0,0,0,0],"sum_hessian":[1.6435797E2,1.5636165E2,7.99632E0,2.9970186E0,1.5336462E2,1.5188875E2,1.4758799E0],"tree_param":{"num_deleted":"0","num_feature":"25","num_nodes":"7","size_leaf_vector":"1"}},{"base_weights":[-5.478095E-1,1.4640446E-2,-6.2358784E-3],"categories":[],"categories_nodes":[],"categories_segments":[],"categories_sizes":[],"default_left":[0,0,0],"id":32,"left_children":[1,-1,-1],"loss_changes":[1.861346E1,0E0,0E0],"parents":[2147483647,0,0],"right_children":[2,-1,-1],"split_conditions":[-1.5284747E1,1.4640446E-2,-6.2358784E-3],"split_indices":[2,0,0],"split_type":[0,0,0],"sum_hessian":[1.1510312E2,3.5131E0,1.1159002E2],"tree_param":{"num_deleted":"0","num_feature":"25","num_nodes":"3","size_leaf_vector":"1"}},{"base_weights":[-4.963772E-1,-6.2530707E-3,1.530317E-2],"categories":[],"categories_nodes":[],"categories_segments":[],"categories_sizes":[],"default_left":[0,0,0],"id":33,"left_children":[1,-1,-1],"loss_changes":[3.0504313E1,0E0,0E0],"parents":[2147483647,0,0],"right_children":[2,-1,-1],"split_conditions":[2.9093454E1,-6.2530707E-3,1.530317E-2],"split_indices":[2,0,0],"split_type":[0,0,0],"sum_hessian":[1.12077805E2,1.0602443E2,6.05337E0],"tree_param":{"num_deleted":"0","num_feature":"25","num_nodes":"3","size_leaf_vector":"1"}},{"base_weights":[6.908001E-1,7.8069675E-1,-9.013539E-3,-8.204146E-3,8.295889E-1,8.356913E-3,2.5023604E-3],"categories":[],"categories_nodes":[],"categories_segments":[],"categories_sizes":[],"default_left":[0,0,0,0,0,0,0],"id":34,"left_children":[1,3,-1,-1,5,-1,-1],"loss_changes":[2.355935E1,1.2554924E1,0E0,0E0,3.1302643E-1,0E0,0E0],"parents":[2147483647,0,0,1,1,4,4],"right_children":[2,4,-1,-1,6,-1,-1],"split_conditions":[2.9093454E1,-1.5284747E1,-9.013539E-3,-8.204146E-3,2.0854101E1,8.356913E-3,2.5023604E-3],"split_indices":[2,2,0,0,19,0,0],"split_type":[0,0,0,0,0,0,0],"sum_hessian":[1.5868536E2,1.506869E2,7.9984655E0,3.997499E0,1.466894E2,1.4472258E2,1.9668226E0],"tree_param":{"num_deleted":"0","num_feature":"25","num_nodes":"7","size_leaf_vector":"1"}},{"base_weights":[-5.4382247E-1,1.4053648E-2,-6.129361E-1,-1.3901343E-3,-6.218745E-3],"categories":[],"categories_nodes":[],"categories_segments":[],"categories_sizes":[],"default_left":[0,0,0,0,0],"id":35,"left_children":[1,-1,3,-1,-1],"loss_changes":[1.6011356E1,0E0,3.7657547E-1,0E0,0E0],"parents":[2147483647,0,0,2,2],"right_children":[2,-1,4,-1,-1],"split_conditions":[-1.5284747E1,1.4053648E-2,9.672672E-1,-1.3901343E-3,-6.218745E-3],"split_indices":[2,0,14,0,0],"split_type":[0,0,0,0,0],"sum_hessian":[1.1145896E2,3.1546738E0,1.0830428E2,2.3112712E0,1.0599301E2],"tree_param":{"num_deleted":"0","num_feature":"25","num_nodes":"5","size_leaf_vector":"1"}},{"base_weights":[-5.035407E-1,-6.2391628E-3,1.4919432E-2],"categories":[],"categories_nodes":[],"categories_segments":[],"categories_sizes":[],"default_left":[0,0,0],"id":36,"left_children":[1,-1,-1],"loss_changes":[2.8007097E1,0E0,0E0],"parents":[2147483647,0,0],"right_children":[2,-1,-1],"split_conditions":[2.9093454E1,-6.2391628E-3,1.4919432E-2],"split_indices":[2,0,0],"split_type":[0,0,0],"sum_hessian":[1.1172025E2,1.060125E2,5.7077622E0],"tree_param":{"num_deleted":"0","num_feature":"25","num_nodes":"3","size_leaf_vector":"1"}},{"base_weights":[7.093487E-1,7.8487664E-1,-8.805205E-3,-7.922823E-3,8.254574E-3],"categories":[],"categories_nodes":[],"categories_segments":[],"categories_sizes":[],"default_left":[0,0,0,0,0],"id":37,"left_children":[1,3,-1,-1,-1],"loss_changes":[2.0624626E1,1.0830551E1,0E0,0E0,0E0],"parents":[2147483647,0,0,1,1],"right_children":[2,4,-1,-1,-1],"split_conditions":[2.9093454E1,-1.5284747E1,-8.805205E-3,-7.922823E-3,8.254574E-3],"split_indices":[2,2,0,0,0],"split_type":[0,0,0,0,0],"sum_hessian":[1.6500272E2,1.5800299E2,6.9997244E0,3.4988174E0,1.5450417E2],"tree_param":{"num_deleted":"0","num_feature":"25","num_nodes":"5","size_leaf_vector":"1"}},{"base_weights":[-5.4171276E-1,1.3866491E-2,-6.11445E-1,-1.4350696E-4,-6.2054573E-3],"categories":[],"categories_nodes":[],"categories_segments":[],"categories_sizes":[],"default_left":[0,0,0,0,0],"id":38,"left_children":[1,-1,3,-1,-1],"loss_changes":[1.579752E1,0E0,5.7790756E-1,0E0,0E0],"parents":[2147483647,0,0,2,2],"right_children":[2,-1,4,-1,-1],"split_conditions":[-1.5284747E1,1.3866491E-2,9.672672E-1,-1.4350696E-4,-6.2054573E-3],"split_indices":[2,0,14,0,0],"split_type":[0,0,0,0,0],"sum_hessian":[1.1017549E2,3.1859703E0,1.0698952E2,1.6449069E0,1.0534461E2],"tree_param":{"num_deleted":"0","num_feature":"25","num_nodes":"5","size_leaf_vector":"1"}},{"base_weights":[-5.2294123E-1,-6.1268667E-3,1.3878491E-2],"categories":[],"categories_nodes":[],"categories_segments":[],"categories_sizes":[],"default_left":[0,0,0],"id":39,"left_children":[1,-1,-1],"loss_changes":[1.9239225E1,0E0,0E0],"parents":[2147483647,0,0],"right_children":[2,-1,-1],"split_conditions":[2.9093454E1,-6.1268667E-3,1.3878491E-2],"split_indices":[2,0,0],"split_type":[0,0,0],"sum_hessian":[1.0623353E2,1.021167E2,4.116832E0],"tree_param":{"num_deleted":"0","num_feature":"25","num_nodes":"3","size_leaf_vector":"1"}},{"base_weights":[6.776334E-1,7.6243407E-1,-8.879026E-3,-8.43345E-3,8.2035387E-1,8.262325E-3,2.430546E-3],"categories":[],"categories_nodes":[],"categories_segments":[],"categories_sizes":[],"default_left":[0,0,0,0,0,0,0],"id":40,"left_children":[1,3,-1,-1,5,-1,-1],"loss_changes":[2.2736282E1,1.540184E1,0E0,0E0,3.189621E-1,0E0,0E0],"parents":[2147483647,0,0,1,1,4,4],"right_children":[2,4,-1,-1,6,-1,-1],"split_conditions":[2.9093454E1,-1.5284747E1,-8.879026E-3,-8.43345E-3,2.0854101E1,8.262325E-3,2.430546E-3],"split_indices":[2,2,0,0,19,0,0],"split_type":[0,0,0,0,0,0,0],"sum_hessian":[1.6516115E2,1.5716115E2,7.99999E0,4.9992924E0,1.5216187E2,1.5020117E2,1.9606906E0],"tree_param":{"num_deleted":"0","num_feature":"25","num_nodes":"7","size_leaf_vector":"1"}},{"base_weights":[-5.550706E-1,1.2682881E-2,-6.096404E-1,-1.3566354E-3,-6.1902027E-3],"categories":[],"categories_nodes":[],"categories_segments":[],"categories_sizes":[],"default_left":[0,0,0,0,0],"id":41,"left_children":[1,-1,3,-1,-1],"loss_changes":[1.1345844E1,0E0,3.77697E-1,0E0,0E0],"parents":[2147483647,0,0,2,2],"right_children":[2,-1,4,-1,-1],"split_conditions":[-1.5284747E1,1.2682881E-2,9.672672E-1,-1.3566354E-3,-6.1902027E-3],"split_indices":[2,0,14,0,0],"split_type":[0,0,0,0,0],"sum_hessian":[1.05257286E2,2.412316E0,1.0284497E2,2.2958536E0,1.0054912E2],"tree_param":{"num_deleted":"0","num_feature":"25","num_nodes":"5","size_leaf_vector":"1"}},{"base_weights":[-4.9423295E-1,-6.120303E-1,1.4491859E-2,-6.2109707E-3,1.719907E-3],"categories":[],"categories_nodes":[],"categories_segments":[],"categories_sizes":[],"default_left":[0,0,0,0,0],"id":42,"left_children":[1,3,-1,-1,-1],"loss_changes":[2.700295E1,8.764076E-1,0E0,0E0,0E0],"parents":[2147483647,0,0,1,1],"right_children":[2,4,-1,-1,-1],"split_conditions":[2.9093454E1,2.0837286E1,1.4491859E-2,-6.2109707E-3,1.719907E-3],"split_indices":[2,19,0,0,0],"split_type":[0,0,0,0,0],"sum_hessian":[1.1307876E2,1.072623E2,5.8164644E0,1.0624148E2,1.0208186E0],"tree_param":{"num_deleted":"0","num_feature":"25","num_nodes":"5","size_leaf_vector":"1"}},{"base_weights":[6.9517386E-1,7.640709E-1,-8.595278E-3,-8.226319E-3,8.155614E-1,8.215314E-3,1.1479493E-3],"categories":[],"categories_nodes":[],"categories_segments":[],"categories_sizes":[],"default_left":[0,0,0,0,0,0,0],"id":43,"left_children":[1,3,-1,-1,5,-1,-1],"loss_changes":[1.8399292E1,1.3672806E1,0E0,0E0,5.526428E-1,0E0,0E0],"parents":[2147483647,0,0,1,1,4,4],"right_children":[2,4,-1,-1,6,-1,-1],"split_conditions":[2.9093454E1,-1.5284747E1,-8.595278E-3,-8.226319E-3,2.0837286E1,8.215314E-3,1.1479493E-3],"split_indices":[2,2,0,0,19,0,0],"split_type":[0,0,0,0,0,0,0],"sum_hessian":[1.646412E2,1.5814165E2,6.4995522E0,4.499868E0,1.5364178E2,1.5217307E2,1.4687221E0],"tree_param":{"num_deleted":"0","num_feature":"25","num_nodes":"7","size_leaf_vector":"1"}},{"base_weights":[-5.2977896E-1,1.3877736E-2,-6.086568E-1,-7.9571415E-4,-6.1784056E-3],"categories":[],"categories_nodes":[],"categories_segments":[],"categories_sizes":[],"default_left":[0,0,0,0,0],"id":44,"left_children":[1,-1,3,-1,-1],"loss_changes":[1.7482899E1,0E0,4.676056E-1,0E0,0E0],"parents":[2147483647,0,0,2,2],"right_children":[2,-1,4,-1,-1],"split_conditions":[-1.5284747E1,1.3877736E-2,9.672672E-1,-7.9571415E-4,-6.1784056E-3],"split_indices":[2,0,14,0,0],"split_type":[0,0,0,0,0],"sum_hessian":[1.09003E2,3.6510296E0,1.0535197E2,1.9623783E0,1.0338959E2],"tree_param":{"num_deleted":"0","num_feature":"25","num_nodes":"5","size_leaf_vector":"1"}},{"base_weights":[-4.7584063E-1,-6.013609E-1,1.4424224E-2,-6.1033675E-3,1.6282452E-3],"categories":[],"categories_nodes":[],"categories_segments":[],"categories_sizes":[],"default_left":[0,0,0,0,0],"id":45,"left_children":[1,3,-1,-1,-1],"loss_changes":[2.8290335E1,8.374405E-1,0E0,0E0,0E0],"parents":[2147483647,0,0,1,1],"right_children":[2,4,-1,-1,-1],"split_conditions":[2.9093454E1,2.0854101E1,1.4424224E-2,-6.1033675E-3,1.6282452E-3],"split_indices":[2,19,0,0,0],"split_type":[0,0,0,0,0],"sum_hessian":[1.1289154E2,1.0660258E2,6.288963E0,1.0556399E2,1.0385919E0],"tree_param":{"num_deleted":"0","num_feature":"25","num_nodes":"5","size_leaf_vector":"1"}},{"base_weights":[6.921865E-1,7.7747685E-1,-8.752471E-3,-7.989371E-3,8.2383705E-3],"categories":[],"categories_nodes":[],"categories_segments":[],"categories_sizes":[],"default_left":[0,0,0,0,0],"id":46,"left_children":[1,3,-1,-1,-1],"loss_changes":[2.2771645E1,1.2150291E1,0E0,0E0,0E0],"parents":[2147483647,0,0,1,1],"right_children":[2,4,-1,-1,-1],"split_conditions":[2.9093454E1,-1.5284747E1,-8.752471E-3,-7.989371E-3,8.2383705E-3],"split_indices":[2,2,0,0,0],"split_type":[0,0,0,0,0],"sum_hessian":[1.6424538E2,1.5624731E2,7.998063E0,3.9999928E0,1.5224731E2],"tree_param":{"num_deleted":"0","num_feature":"25","num_nodes":"5","size_leaf_vector":"1"}},{"base_weights":[-5.4084784E-1,1.3693118E-2,-6.1699045E-3],"categories":[],"categories_nodes":[],"categories_segments":[],"categories_sizes":[],"default_left":[0,0,0],"id":47,"left_children":[1,-1,-1],"loss_changes":[1.744168E1,0E0,0E0],"parents":[2147483647,0,0],"right_children":[2,-1,-1],"split_conditions":[-1.5284747E1,1.3693118E-2,-6.1699045E-3],"split_indices":[2,0,0],"split_type":[0,0,0],"sum_hessian":[1.1311107E2,3.6849394E0,1.0942613E2],"tree_param":{"num_deleted":"0","num_feature":"25","num_nodes":"3","size_leaf_vector":"1"}},{"base_weights":[-4.7461137E-1,-6.0003537E-1,1.4217483E-2,-6.089203E-3,4.6676016E-4],"categories":[],"categories_nodes":[],"categories_segments":[],"categories_sizes":[],"default_left":[0,0,0,0,0],"id":48,"left_children":[1,3,-1,-1,-1],"loss_changes":[2.7876833E1,6.448097E-1,0E0,0E0,0E0],"parents":[2147483647,0,0,1,1],"right_children":[2,4,-1,-1,-1],"split_conditions":[2.9093454E1,2.0854101E1,1.4217483E-2,-6.089203E-3,4.6676016E-4],"split_indices":[2,19,0,0,0],"split_type":[0,0,0,0,0],"sum_hessian":[1.12617134E2,1.0627196E2,6.3451743E0,1.0488935E2,1.3826056E0],"tree_param":{"num_deleted":"0","num_feature":"25","num_nodes":"5","size_leaf_vector":"1"}},{"base_weights":[6.8626994E-1,7.5217414E-1,-8.4716845E-3,-8.267313E-3,8.0701643E-1,8.126147E-3,2.3623987E-3],"categories":[],"categories_nodes":[],"categories_segments":[],"categories_sizes":[],"default_left":[0,0,0,0,0,0,0],"id":49,"left_children":[1,3,-1,-1,5,-1,-1],"loss_changes":[1.786911E1,1.4869362E1,0E0,0E0,3.1614685E-1,0E0,0E0],"parents":[2147483647,0,0,1,1,4,4],"right_children":[2,4,-1,-1,6,-1,-1],"split_conditions":[2.9093454E1,-1.5284747E1,-8.4716845E-3,-8.267313E-3,2.0854101E1,8.126147E-3,2.3623987E-3],"split_indices":[2,2,0,0,19,0,0],"split_type":[0,0,0,0,0,0,0],"sum_hessian":[1.6951147E2,1.630149E2,6.496578E0,4.999682E0,1.5801521E2,1.5606084E2,1.9543806E0],"tree_param":{"num_deleted":"0","num_feature":"25","num_nodes":"7","size_leaf_vector":"1"}},{"base_weights":[-5.258175E-1,1.3514714E-2,-6.0584337E-1,-7.463394E-4,-6.1521814E-3],"categories":[],"categories_nodes":[],"categories_segments":[],"categories_sizes":[],"default_left":[0,0,0,0,0],"id":50,"left_children":[1,-1,3,-1,-1],"loss_changes":[1.7016973E1,0E0,4.7251892E-1,0E0,0E0],"parents":[2147483647,0,0,2,2],"right_children":[2,-1,4,-1,-1],"split_conditions":[-1.5284747E1,1.3514714E-2,9.672672E-1,-7.463394E-4,-6.1521814E-3],"split_indices":[2,0,14,0,0],"split_type":[0,0,0,0,0],"sum_hessian":[1.06821495E2,3.7178657E0,1.0310363E2,1.9434254E0,1.011602E2],"tree_param":{"num_deleted":"0","num_feature":"25","num_nodes":"5","size_leaf_vector":"1"}},{"base_weights":[-4.7991583E-1,-5.9836864E-1,1.3884314E-2,-6.07462E-3,1.6358577E-3],"categories":[],"categories_nodes":[],"categories_segments":[],"categories_sizes":[],"default_left":[0,0,0,0,0],"id":51,"left_children":[1,3,-1,-1,-1],"loss_changes":[2.5596418E1,8.333359E-1,0E0,0E0,0E0],"parents":[2147483647,0,0,1,1],"right_children":[2,4,-1,-1,-1],"split_conditions":[2.9093454E1,2.0854101E1,1.3884314E-2,-6.07462E-3,1.6358577E-3],"split_indices":[2,19,0,0,0],"split_type":[0,0,0,0,0],"sum_hessian":[1.1090416E2,1.04931274E2,5.972888E0,1.0389414E2,1.0371339E0],"tree_param":{"num_deleted":"0","num_feature":"25","num_nodes":"5","size_leaf_vector":"1"}},{"base_weights":[6.6893935E-1,7.4850345E-1,-8.564442E-3,-7.883319E-3,7.9460245E-1,8.006045E-1,1.0945166E-3,4.0874374E-3,8.068163E-3],"categories":[],"categories_nodes":[],"categories_segments":[],"categories_sizes":[],"default_left":[0,0,0,0,0,0,0,0,0],"id":52,"left_children":[1,3,-1,-1,5,7,-1,-1,-1],"loss_changes":[2.0291977E1,1.1566666E1,0E0,0E0,5.309677E-1,3.2798767E-2,0E0,0E0,0E0],"parents":[2147483647,0,0,1,1,4,4,5,5],"right_children":[2,4,-1,-1,6,8,-1,-1,-1],"split_conditions":[1.5144517E1,-1.5284747E1,-8.564442E-3,-7.883319E-3,2.0854101E1,9.672672E-1,1.0945166E-3,4.0874374E-3,8.068163E-3],"split_indices":[2,2,0,0,19,14,0,0,0],"split_type":[0,0,0,0,0,0,0,0,0],"sum_hessian":[1.6091495E2,1.5342177E2,7.4931865E0,3.999129E0,1.4942264E2,1.4795798E2,1.46466E0,3.3512528E0,1.4460672E2],"tree_param":{"num_deleted":"0","num_feature":"25","num_nodes":"9","size_leaf_vector":"1"}},{"base_weights":[-5.1917344E-1,1.3625913E-2,-6.0503954E-1,-1.2786108E-3,-6.1409865E-3],"categories":[],"categories_nodes":[],"categories_segments":[],"categories_sizes":[],"default_left":[0,0,0,0,0],"id":53,"left_children":[1,-1,3,-1,-1],"loss_changes":[1.8817774E1,0E0,3.8484955E-1,0E0,0E0],"parents":[2147483647,0,0,2,2],"right_children":[2,-1,4,-1,-1],"split_conditions":[-1.5284747E1,1.3625913E-2,9.672672E-1,-1.2786108E-3,-6.1409865E-3],"split_indices":[2,0,14,0,0],"split_type":[0,0,0,0,0],"sum_hessian":[1.1035893E2,4.1671247E0,1.061918E2,2.2600617E0,1.0393175E2],"tree_param":{"num_deleted":"0","num_feature":"25","num_nodes":"5","size_leaf_vector":"1"}},{"base_weights":[-4.7747594E-1,-5.9684086E-1,1.3694439E-2,-6.059025E-3,4.5846554E-4],"categories":[],"categories_nodes":[],"categories_segments":[],"categories_sizes":[],"default_left":[0,0,0,0,0],"id":54,"left_children":[1,3,-1,-1,-1],"loss_changes":[2.5216244E1,6.37249E-1,0E0,0E0,0E0],"parents":[2147483647,0,0,1,1],"right_children":[2,4,-1,-1,-1],"split_conditions":[2.9093454E1,2.0854101E1,1.3694439E-2,-6.059025E-3,4.5846554E-4],"split_indices":[2,19,0,0,0],"split_type":[0,0,0,0,0],"sum_hessian":[1.09673996E2,1.0365191E2,6.0220923E0,1.0226721E2,1.3846935E0],"tree_param":{"num_deleted":"0","num_feature":"25","num_nodes":"5","size_leaf_vector":"1"}},{"base_weights":[6.7321855E-1,7.405594E-1,-8.352688E-3,-8.009508E-3,7.910108E-1,7.966535E-3,2.3372658E-3],"categories":[],"categories_nodes":[],"categories_segments":[],"categories_sizes":[],"default_left":[0,0,0,0,0,0,0],"id":55,"left_children":[1,3,-1,-1,5,-1,-1],"loss_changes":[1.7308205E1,1.29062805E1,0E0,0E0,2.9588318E-1,0E0,0E0],"parents":[2147483647,0,0,1,1,4,4],"right_children":[2,4,-1,-1,6,-1,-1],"split_conditions":[2.9093454E1,-1.5284747E1,-8.352688E-3,-8.009508E-3,2.0854101E1,7.966535E-3,2.3372658E-3],"split_indices":[2,2,0,0,19,0,0],"split_type":[0,0,0,0,0,0,0],"sum_hessian":[1.6329597E2,1.5680507E2,6.490909E0,4.497934E0,1.5230713E2,1.5035521E2,1.951933E0],"tree_param":{"num_deleted":"0","num_feature":"25","num_nodes":"7","size_leaf_vector":"1"}},{"base_weights":[-5.345185E-1,1.2832182E-2,-6.037439E-1,-2.4121028E-1,-6.1269063E-3,-4.124033E-3,8.2879385E-4],"categories":[],"categories_nodes":[],"categories_segments":[],"categories_sizes":[],"default_left":[0,0,0,0,0,0,0],"id":56,"left_children":[1,-1,3,5,-1,-1,-1],"loss_changes":[1.4639084E1,0E0,1.9867325E-1,2.6841927E-1,0E0,0E0,0E0],"parents":[2147483647,0,0,2,2,3,3],"right_children":[2,-1,4,6,-1,-1,-1],"split_conditions":[-1.5284747E1,1.2832182E-2,9.672672E-1,9.645201E-1,-6.1269063E-3,-4.124033E-3,8.2879385E-4],"split_indices":[2,0,14,14,0,0,0],"split_type":[0,0,0,0,0,0,0],"sum_hessian":[1.0917997E2,3.3620393E0,1.05817924E2,3.2219107E0,1.02596016E2,1.9299572E0,1.2919534E0],"tree_param":{"num_deleted":"0","num_feature":"25","num_nodes":"7","size_leaf_vector":"1"}},{"base_weights":[-4.9696705E-1,-5.946155E-1,1.3008852E-2,-6.0410164E-3,1.6277478E-3],"categories":[],"categories_nodes":[],"categories_segments":[],"categories_sizes":[],"default_left":[0,0,0,0,0],"id":57,"left_children":[1,3,-1,-1,-1],"loss_changes":[1.9364664E1,8.24913E-1,0E0,0E0,0E0],"parents":[2147483647,0,0,1,1],"right_children":[2,4,-1,-1,-1],"split_conditions":[2.9093454E1,2.0854101E1,1.3008852E-2,-6.0410164E-3,1.6277478E-3],"split_indices":[2,19,0,0,0],"split_type":[0,0,0,0,0],"sum_hessian":[1.0489769E2,1.0012857E2,4.7691164E0,9.908988E1,1.0386872E0],"tree_param":{"num_deleted":"0","num_feature":"25","num_nodes":"5","size_leaf_vector":"1"}},{"base_weights":[6.5731394E-1,7.5268143E-1,-8.614895E-3,-7.7810716E-3,7.9925245E-1,8.052318E-3,2.3219774E-3],"categories":[],"categories_nodes":[],"categories_segments":[],"categories_sizes":[],"default_left":[0,0,0,0,0,0,0],"id":58,"left_children":[1,3,-1,-1,5,-1,-1],"loss_changes":[2.3977654E1,1.1463875E1,0E0,0E0,3.1513977E-1,0E0,0E0],"parents":[2147483647,0,0,1,1,4,4],"right_children":[2,4,-1,-1,6,-1,-1],"split_conditions":[2.9093454E1,-1.5284747E1,-8.614895E-3,-7.7810716E-3,2.0854101E1,8.052318E-3,2.3219774E-3],"split_indices":[2,2,0,0,19,0,0],"split_type":[0,0,0,0,0,0,0],"sum_hessian":[1.6006403E2,1.5108185E2,8.982182E0,3.9968696E0,1.4708498E2,1.4513455E2,1.9504124E0],"tree_param":{"num_deleted":"0","num_feature":"25","num_nodes":"7","size_leaf_vector":"1"}},{"base_weights":[-5.316142E-1,1.2675317E-2,-6.022175E-1,-1.2569701E-3,-6.1149155E-3],"categories":[],"categories_nodes":[],"categories_segments":[],"categories_sizes":[],"default_left":[0,0,0,0,0],"id":59,"left_children":[1,-1,3,-1,-1],"loss_changes":[1.444441E1,0E0,3.841324E-1,0E0,0E0],"parents":[2147483647,0,0,2,2],"right_children":[2,-1,4,-1,-1],"split_conditions":[-1.5284747E1,1.2675317E-2,9.672672E-1,-1.2569701E-3,-6.1149155E-3],"split_indices":[2,0,14,0,0],"split_type":[0,0,0,0,0],"sum_hessian":[1.0670333E2,3.3890522E0,1.03314285E2,2.2501607E0,1.01064125E2],"tree_param":{"num_deleted":"0","num_feature":"25","num_nodes":"5","size_leaf_vector":"1"}},{"base_weights":[-4.843624E-1,-6.037983E-1,1.3334288E-2,-6.1308825E-3,1.6233748E-3],"categories":[],"categories_nodes":[],"categories_segments":[],"categories_sizes":[],"default_left":[0,0,0,0,0],"id":60,"left_children":[1,3,-1,-1,-1],"loss_changes":[2.4764925E1,8.41465E-1,0E0,0E0,0E0],"parents":[2147483647,0,0,1,1],"right_children":[2,4,-1,-1,-1],"split_conditions":[2.9093454E1,2.0854101E1,1.3334288E-2,-6.1308825E-3,1.6233748E-3],"split_indices":[2,19,0,0,0],"split_type":[0,0,0,0,0],"sum_hessian":[1.0935817E2,1.0324258E2,6.115595E0,1.0220305E2,1.0395249E0],"tree_param":{"num_deleted":"0","num_feature":"25","num_nodes":"5","size_leaf_vector":"1"}},{"base_weights":[6.6938597E-1,7.4554366E-1,-8.388379E-3,-7.907977E-3,7.953071E-3],"categories":[],"categories_nodes":[],"categories_segments":[],"categories_sizes":[],"default_left":[0,0,0,0,0],"id":61,"left_children":[1,3,-1,-1,-1],"loss_changes":[1.9764938E1,1.2796478E1,0E0,0E0,0E0],"parents":[2147483647,0,0,1,1],"right_children":[2,4,-1,-1,-1],"split_conditions":[2.9093454E1,-1.5284747E1,-8.388379E-3,-7.907977E-3,7.953071E-3],"split_indices":[2,2,0,0,0],"split_type":[0,0,0,0,0],"sum_hessian":[1.6562955E2,1.5814948E2,7.480073E0,4.494673E0,1.536548E2],"tree_param":{"num_deleted":"0","num_feature":"25","num_nodes":"5","size_leaf_vector":"1"}},{"base_weights":[-5.582517E-1,1.1025047E-2,-6.014413E-1,-2.0597483E-1,-6.103446E-3,-3.8412013E-3,8.709843E-4],"categories":[],"categories_nodes":[],"categories_segments":[],"categories_sizes":[],"default_left":[0,0,0,0,0,0,0],"id":62,"left_children":[1,-1,3,5,-1,-1,-1],"loss_changes":[8.5345E0,0E0,2.5315475E-1,2.3595642E-1,0E0,0E0,0E0],"parents":[2147483647,0,0,2,2,3,3],"right_children":[2,-1,4,6,-1,-1,-1],"split_conditions":[-1.5284747E1,1.1025047E-2,9.672672E-1,1.4909716E3,-6.103446E-3,-3.8412013E-3,8.709843E-4],"split_indices":[2,0,14,1,0,0,0],"split_type":[0,0,0,0,0,0,0],"sum_hessian":[1.0874038E2,2.134542E0,1.06605835E2,2.878598E0,1.03727234E2,1.5971214E0,1.2814766E0],"tree_param":{"num_deleted":"0","num_feature":"25","num_nodes":"7","size_leaf_vector":"1"}},{"base_weights":[-4.6393526E-1,-6.0226905E-1,1.3393523E-2,-6.116964E-3,4.6162657E-4],"categories":[],"categories_nodes":[],"categories_segments":[],"categories_sizes":[],"default_left":[0,0,0,0,0],"id":63,"left_children":[1,3,-1,-1,-1],"loss_changes":[2.7874687E1,6.4851E-1,0E0,0E0,0E0],"parents":[2147483647,0,0,1,1],"right_children":[2,4,-1,-1,-1],"split_conditions":[2.9093454E1,2.0854101E1,1.3393523E-2,-6.116964E-3,4.6162657E-4],"split_indices":[2,19,0,0,0],"split_type":[0,0,0,0,0],"sum_hessian":[1.0750843E2,1.0046739E2,7.041038E0,9.908349E1,1.3838978E0],"tree_param":{"num_deleted":"0","num_feature":"25","num_nodes":"5","size_leaf_vector":"1"}},{"base_weights":[6.720879E-1,7.391172E-1,-8.182789E-3,-7.472857E-3,7.780144E-1,7.8360345E-3,2.278273E-3],"categories":[],"categories_nodes":[],"categories_segments":[],"categories_sizes":[],"default_left":[0,0,0,0,0,0,0],"id":64,"left_children":[1,3,-1,-1,5,-1,-1],"loss_changes":[1.6859535E1,9.614441E0,0E0,0E0,2.9114532E-1,0E0,0E0],"parents":[2147483647,0,0,1,1,4,4],"right_children":[2,4,-1,-1,6,-1,-1],"split_conditions":[2.9093454E1,-1.5284747E1,-8.182789E-3,-7.472857E-3,2.0791151E1,7.8360345E-3,2.278273E-3],"split_indices":[2,2,0,0,19,0,0],"split_type":[0,0,0,0,0,0,0],"sum_hessian":[1.6171295E2,1.552353E2,6.477644E0,3.4942803E0,1.5174103E2,1.497951E2,1.9459335E0],"tree_param":{"num_deleted":"0","num_feature":"25","num_nodes":"7","size_leaf_vector":"1"}},{"base_weights":[-5.0903887E-1,1.2969257E-2,-5.9917945E-1,-1.670761E-1,-6.087308E-3,8.855984E-4,-3.4965563E-3],"categories":[],"categories_nodes":[],"categories_segments":[],"categories_sizes":[],"default_left":[0,0,0,0,0,0,0],"id":65,"left_children":[1,-1,3,5,-1,-1,-1],"loss_changes":[1.7840034E1,0E0,3.1314468E-1,1.9675475E-1,0E0,0E0,0E0],"parents":[2147483647,0,0,2,2,3,3],"right_children":[2,-1,4,6,-1,-1,-1],"split_conditions":[-1.5284747E1,1.2969257E-2,9.672672E-1,9.8902863E-1,-6.087308E-3,8.855984E-4,-3.4965563E-3],"split_indices":[2,0,14,4,0,0,0],"split_type":[0,0,0,0,0,0,0],"sum_hessian":[1.03815216E2,4.298907E0,9.951631E1,2.552079E0,9.6964226E1,1.2778578E0,1.2742212E0],"tree_param":{"num_deleted":"0","num_feature":"25","num_nodes":"7","size_leaf_vector":"1"}},{"base_weights":[-4.7050446E-1,-5.9121805E-1,1.2989097E-2,-6.004691E-3,4.6077758E-4],"categories":[],"categories_nodes":[],"categories_segments":[],"categories_sizes":[],"default_left":[0,0,0,0,0],"id":66,"left_children":[1,3,-1,-1,-1],"loss_changes":[2.3818823E1,6.2734604E-1,0E0,0E0,0E0],"parents":[2147483647,0,0,1,1],"right_children":[2,4,-1,-1,-1],"split_conditions":[1.5144517E1,2.0854101E1,1.2989097E-2,-6.004691E-3,4.6077758E-4],"split_indices":[2,19,0,0,0],"split_type":[0,0,0,0,0],"sum_hessian":[1.0692003E2,1.0071489E2,6.2051363E0,9.933078E1,1.3841114E0],"tree_param":{"num_deleted":"0","num_feature":"25","num_nodes":"5","size_leaf_vector":"1"}},{"base_weights":[6.640714E-1,7.304479E-1,-8.127636E-3,-7.812527E-3,7.8032535E-1,7.860048E-3,2.263392E-3],"categories":[],"categories_nodes":[],"categories_segments":[],"categories_sizes":[],"default_left":[0,0,0,0,0,0,0],"id":67,"left_children":[1,3,-1,-1,5,-1,-1],"loss_changes":[1.6543991E1,1.2390213E1,0E0,0E0,2.9955292E-1,0E0,0E0],"parents":[2147483647,0,0,1,1,4,4],"right_children":[2,4,-1,-1,6,-1,-1],"split_conditions":[2.9093454E1,-1.5284747E1,-8.127636E-3,-7.812527E-3,2.0854101E1,7.860048E-3,2.263392E-3],"split_indices":[2,2,0,0,19,0,0],"split_type":[0,0,0,0,0,0,0],"sum_hessian":[1.6171327E2,1.5524133E2,6.4719386E0,4.490123E0,1.507512E2,1.4880684E2,1.9443638E0],"tree_param":{"num_deleted":"0","num_feature":"25","num_nodes":"7","size_leaf_vector":"1"}},{"base_weights":[-5.080499E-1,1.2810346E-2,-5.9794205E-1,2.9784198E-5,-6.0764123E-3],"categories":[],"categories_nodes":[],"categories_segments":[],"categories_sizes":[],"default_left":[0,0,0,0,0],"id":68,"left_children":[1,-1,3,-1,-1],"loss_changes":[1.7616827E1,0E0,5.872574E-1,0E0,0E0],"parents":[2147483647,0,0,2,2],"right_children":[2,-1,4,-1,-1],"split_conditions":[-1.5284747E1,1.2810346E-2,9.672672E-1,2.9784198E-5,-6.0764123E-3],"split_indices":[2,0,14,0,0],"split_type":[0,0,0,0,0],"sum_hessian":[1.03777725E2,4.330901E0,9.944682E1,1.5906354E0,9.785619E1],"tree_param":{"num_deleted":"0","num_feature":"25","num_nodes":"5","size_leaf_vector":"1"}},{"base_weights":[-4.5639026E-1,-5.904945E-1,1.3050041E-2,-5.995723E-3,4.599457E-4],"categories":[],"categories_nodes":[],"categories_segments":[],"categories_sizes":[],"default_left":[0,0,0,0,0],"id":69,"left_children":[1,3,-1,-1,-1],"loss_changes":[2.690798E1,6.2565994E-1,0E0,0E0,0E0],"parents":[2147483647,0,0,1,1],"right_children":[2,4,-1,-1,-1],"split_conditions":[2.9093454E1,2.0854101E1,1.3050041E-2,-5.995723E-3,4.599457E-4],"split_indices":[2,19,0,0,0],"split_type":[0,0,0,0,0],"sum_hessian":[1.0965291E2,1.02512825E2,7.140085E0,1.011285E2,1.384321E0],"tree_param":{"num_deleted":"0","num_feature":"25","num_nodes":"5","size_leaf_vector":"1"}},{"base_weights":[6.642802E-1,7.291684E-1,-7.984604E-3,-7.7625844E-3,7.8207237E-1,7.88412E-3,1.0023628E-3],"categories":[],"categories_nodes":[],"categories_segments":[],"categories_sizes":[],"default_left":[0,0,0,0,0,0,0],"id":70,"left_children":[1,3,-1,-1,5,-1,-1],"loss_changes":[1.5086472E1,1.2302322E1,0E0,0E0,5.3632355E-1,0E0,0E0],"parents":[2147483647,0,0,1,1,4,4],"right_children":[2,4,-1,-1,6,-1,-1],"split_conditions":[2.9093454E1,-1.5284747E1,-7.984604E-3,-7.7625844E-3,2.0854101E1,7.88412E-3,1.0023628E-3],"split_indices":[2,2,0,0,19,0,0],"split_type":[0,0,0,0,0,0,0],"sum_hessian":[1.5181381E2,1.4584552E2,5.9683046E0,4.4871407E0,1.4135837E2,1.3990129E2,1.4570873E0],"tree_param":{"num_deleted":"0","num_feature":"25","num_nodes":"7","size_leaf_vector":"1"}},{"base_weights":[-5.432538E-1,1.1254456E-2,-5.971312E-1,-1.6354993E-1,-6.0653337E-3,9.194376E-4,-3.474447E-3],"categories":[],"categories_nodes":[],"categories_segments":[],"categories_sizes":[],"default_left":[0,0,0,0,0,0,0],"id":71,"left_children":[1,-1,3,5,-1,-1,-1],"loss_changes":[1.00738735E1,0E0,3.164444E-1,1.9794992E-1,0E0,0E0,0E0],"parents":[2147483647,0,0,2,2,3,3],"right_children":[2,-1,4,6,-1,-1,-1],"split_conditions":[-1.5284747E1,1.1254456E-2,9.672672E-1,1.4880986E0,-6.0653337E-3,9.194376E-4,-3.474447E-3],"split_indices":[2,0,14,17,0,0,0],"split_type":[0,0,0,0,0,0,0],"sum_hessian":[1.0357502E2,2.617466E0,1.0095756E2,2.533218E0,9.842434E1,1.2694838E0,1.2637341E0],"tree_param":{"num_deleted":"0","num_feature":"25","num_nodes":"7","size_leaf_vector":"1"}},{"base_weights":[-4.7806555E-1,-5.9854215E-1,1.266412E-2,-6.0811033E-3,1.7999762E-3],"categories":[],"categories_nodes":[],"categories_segments":[],"categories_sizes":[],"default_left":[0,0,0,0,0],"id":72,"left_children":[1,3,-1,-1,-1],"loss_changes":[2.3427725E1,8.6611557E-1,0E0,0E0,0E0],"parents":[2147483647,0,0,1,1],"right_children":[2,4,-1,-1,-1],"split_conditions":[2.9093454E1,2.0837286E1,1.266412E-2,-6.0811033E-3,1.7999762E-3],"split_indices":[2,19,0,0,0],"split_type":[0,0,0,0,0],"sum_hessian":[1.0686441E2,1.0057539E2,6.289015E0,9.957059E1,1.0048064E0],"tree_param":{"num_deleted":"0","num_feature":"25","num_nodes":"5","size_leaf_vector":"1"}},{"base_weights":[6.469106E-1,7.255518E-1,-8.166998E-3,-7.5446162E-3,7.714063E-1,7.7753E-3,9.921483E-4],"categories":[],"categories_nodes":[],"categories_segments":[],"categories_sizes":[],"default_left":[0,0,0,0,0,0,0],"id":73,"left_children":[1,3,-1,-1,5,-1,-1],"loss_changes":[1.8610107E1,1.069973E1,0E0,0E0,5.20134E-1,0E0,0E0],"parents":[2147483647,0,0,1,1,4,4],"right_children":[2,4,-1,-1,6,-1,-1],"split_conditions":[2.9093454E1,-1.5284747E1,-8.166998E-3,-7.5446162E-3,2.0854101E1,7.7753E-3,9.921483E-4],"split_indices":[2,2,0,0,19,0,0],"split_type":[0,0,0,0,0,0,0],"sum_hessian":[1.5553813E2,1.4808562E2,7.452504E0,3.98579E0,1.4409984E2,1.4264363E2,1.456204E0],"tree_param":{"num_deleted":"0","num_feature":"25","num_nodes":"7","size_leaf_vector":"1"}},{"base_weights":[-5.0012696E-1,1.251157E-2,-5.945939E-1,-1.1665118E-3,-6.0475282E-3],"categories":[],"categories_nodes":[],"categories_segments":[],"categories_sizes":[],"default_left":[0,0,0,0,0],"id":74,"left_children":[1,-1,3,-1,-1],"loss_changes":[1.7128685E1,0E0,3.8900375E-1,0E0,0E0],"parents":[2147483647,0,0,2,2],"right_children":[2,-1,4,-1,-1],"split_conditions":[-1.5284747E1,1.251157E-2,9.672672E-1,-1.1665118E-3,-6.0475282E-3],"split_indices":[2,0,14,0,0],"split_type":[0,0,0,0,0],"sum_hessian":[9.803839E1,4.391002E0,9.364739E1,2.2089014E0,9.143849E1],"tree_param":{"num_deleted":"0","num_feature":"25","num_nodes":"5","size_leaf_vector":"1"}},{"base_weights":[-4.5835862E-1,-5.970818E-1,1.2725057E-2,-6.0662264E-3,4.485173E-4],"categories":[],"categories_nodes":[],"categories_segments":[],"categories_sizes":[],"default_left":[0,0,0,0,0],"id":75,"left_children":[1,3,-1,-1,-1],"loss_changes":[2.6368952E1,6.361313E-1,0E0,0E0,0E0],"parents":[2147483647,0,0,1,1],"right_children":[2,4,-1,-1,-1],"split_conditions":[2.9093454E1,2.0854101E1,1.2725057E-2,-6.0662264E-3,4.485173E-4],"split_indices":[2,19,0,0,0],"split_type":[0,0,0,0,0],"sum_hessian":[1.0565555E2,9.8422356E1,7.2331924E0,9.703516E1,1.3871981E0],"tree_param":{"num_deleted":"0","num_feature":"25","num_nodes":"5","size_leaf_vector":"1"}},{"base_weights":[6.453092E-1,7.1916014E-1,-8.1137465E-3,-7.497831E-3,7.620637E-1,7.677571E-3,9.840884E-4],"categories":[],"categories_nodes":[],"categories_segments":[],"categories_sizes":[],"default_left":[0,0,0,0,0,0,0],"id":76,"left_children":[1,3,-1,-1,5,-1,-1],"loss_changes":[1.8361557E1,1.0517296E1,0E0,0E0,5.0569916E-1,0E0,0E0],"parents":[2147483647,0,0,1,1,4,4],"right_children":[2,4,-1,-1,6,-1,-1],"split_conditions":[2.9093454E1,-1.5284747E1,-8.1137465E-3,-7.497831E-3,2.0854101E1,7.677571E-3,9.840884E-4],"split_indices":[2,2,0,0,19,0,0],"split_type":[0,0,0,0,0,0,0],"sum_hessian":[1.6425812E2,1.5681425E2,7.4438634E0,3.982554E0,1.528317E2,1.5137619E2,1.4555011E0],"tree_param":{"num_deleted":"0","num_feature":"25","num_nodes":"7","size_leaf_vector":"1"}},{"base_weights":[-5.2500486E-1,1.1818086E-2,-5.9492236E-1,-1.5999843E-1,-6.0419044E-3,9.5560675E-4,-3.4533988E-3],"categories":[],"categories_nodes":[],"categories_segments":[],"categories_sizes":[],"default_left":[0,0,0,0,0,0,0],"id":77,"left_children":[1,-1,3,5,-1,-1,-1],"loss_changes":[1.34452095E1,0E0,3.1947708E-1,1.9945735E-1,0E0,0E0,0E0],"parents":[2147483647,0,0,2,2,3,3],"right_children":[2,-1,4,6,-1,-1,-1],"split_conditions":[-1.5284747E1,1.1818086E-2,9.672672E-1,1.5026323E0,-6.0419044E-3,9.5560675E-4,-3.4533988E-3],"split_indices":[2,0,14,18,0,0,0],"split_type":[0,0,0,0,0,0,0],"sum_hessian":[1.05775024E2,3.5366292E0,1.02238396E2,2.514282E0,9.972411E1,1.2605598E0,1.2537222E0],"tree_param":{"num_deleted":"0","num_feature":"25","num_nodes":"7","size_leaf_vector":"1"}},{"base_weights":[-4.4977885E-1,-5.845603E-1,1.2467333E-2,-5.9453207E-3,1.6152534E-3],"categories":[],"categories_nodes":[],"categories_segments":[],"categories_sizes":[],"default_left":[0,0,0,0,0],"id":78,"left_children":[1,3,-1,-1,-1],"loss_changes":[2.4041811E1,8.038025E-1,0E0,0E0,0E0],"parents":[2147483647,0,0,1,1],"right_children":[2,4,-1,-1,-1],"split_conditions":[2.9093454E1,2.0854101E1,1.2467333E-2,-5.9453207E-3,1.6152534E-3],"split_indices":[2,19,0,0,0],"split_type":[0,0,0,0,0],"sum_hessian":[1.0095571E2,9.413267E1,6.8230467E0,9.309158E1,1.0410806E0],"tree_param":{"num_deleted":"0","num_feature":"25","num_nodes":"5","size_leaf_vector":"1"}},{"base_weights":[6.5579015E-1,7.320714E-1,-8.060696E-3,-7.245045E-3,7.7082454E-3],"categories":[],"categories_nodes":[],"categories_segments":[],"categories_sizes":[],"default_left":[0,0,0,0,0],"id":79,"left_children":[1,3,-1,-1,-1],"loss_changes":[1.8485123E1,9.197144E0,0E0,0E0,0E0],"parents":[2147483647,0,0,1,1],"right_children":[2,4,-1,-1,-1],"split_conditions":[2.9093454E1,-1.5284747E1,-8.060696E-3,-7.245045E-3,7.7082454E-3],"split_indices":[2,2,0,0,0],"split_type":[0,0,0,0,0],"sum_hessian":[1.5947545E2,1.5204102E2,7.434431E0,3.4817152E0,1.4855931E2],"tree_param":{"num_deleted":"0","num_feature":"25","num_nodes":"5","size_leaf_vector":"1"}},{"base_weights":[-5.4776007E-1,1.0890037E-2,-6.0320357E-3],"categories":[],"categories_nodes":[],"categories_segments":[],"categories_sizes":[],"default_left":[0,0,0],"id":80,"left_children":[1,-1,-1],"loss_changes":[9.832783E0,0E0,0E0],"parents":[2147483647,0,0],"right_children":[2,-1,-1],"split_conditions":[-1.5284747E1,1.0890037E-2,-6.0320357E-3],"split_indices":[2,0,0],"split_type":[0,0,0],"sum_hessian":[1.0011397E2,2.669362E0,9.74446E1],"tree_param":{"num_deleted":"0","num_feature":"25","num_nodes":"3","size_leaf_vector":"1"}},{"base_weights":[-4.4606367E-1,-5.8429134E-1,1.2415416E-2,-5.94008E-3,8.365407E-4],"categories":[],"categories_nodes":[],"categories_segments":[],"categories_sizes":[],"default_left":[0,0,0,0,0],"id":81,"left_children":[1,3,-1,-1,-1],"loss_changes":[2.5378532E1,6.8808365E-1,0E0,0E0,0E0],"parents":[2147483647,0,0,1,1],"right_children":[2,4,-1,-1,-1],"split_conditions":[2.9093454E1,2.0669935E1,1.2415416E-2,-5.94008E-3,8.365407E-4],"split_indices":[2,19,0,0,0],"split_type":[0,0,0,0,0],"sum_hessian":[1.0468318E2,9.736225E1,7.320932E0,9.607532E1,1.2869289E0],"tree_param":{"num_deleted":"0","num_feature":"25","num_nodes":"5","size_leaf_vector":"1"}},{"base_weights":[6.437208E-1,7.1833706E-1,-7.941815E-3,-7.2041224E-3,7.5902826E-1,7.652769E-3,9.465499E-4],"categories":[],"categories_nodes":[],"categories_segments":[],"categories_sizes":[],"default_left":[0,0,0,0,0,0,0],"id":82,"left_children":[1,3,-1,-1,5,-1,-1],"loss_changes":[1.678307E1,8.987709E0,0E0,0E0,5.11673E-1,0E0,0E0],"parents":[2147483647,0,0,1,1,4,4],"right_children":[2,4,-1,-1,6,-1,-1],"split_conditions":[1.5E1,-1.5284747E1,-7.941815E-3,-7.2041224E-3,2.0854101E1,7.652769E-3,9.465499E-4],"split_indices":[2,2,0,0,19,0,0],"split_type":[0,0,0,0,0,0,0],"sum_hessian":[1.5010873E2,1.4317924E2,6.92949E0,3.4786203E0,1.3970062E2,1.3824847E2,1.4521562E0],"tree_param":{"num_deleted":"0","num_feature":"25","num_nodes":"7","size_leaf_vector":"1"}},{"base_weights":[-5.2652E-1,1.1214306E-2,-5.915685E-1,-1.1055173E-3,-6.0151047E-3],"categories":[],"categories_nodes":[],"categories_segments":[],"categories_sizes":[],"default_left":[0,0,0,0,0],"id":83,"left_children":[1,-1,3,-1,-1],"loss_changes":[1.1354122E1,0E0,3.954506E-1,0E0,0E0],"parents":[2147483647,0,0,2,2],"right_children":[2,-1,4,-1,-1],"split_conditions":[-1.5284747E1,1.1214306E-2,9.672672E-1,-1.1055173E-3,-6.0151047E-3],"split_indices":[2,0,14,0,0],"split_type":[0,0,0,0,0],"sum_hessian":[9.872986E1,3.1324315E0,9.559743E1,2.1812725E0,9.341615E1],"tree_param":{"num_deleted":"0","num_feature":"25","num_nodes":"5","size_leaf_vector":"1"}},{"base_weights":[-4.629512E-1,-5.8347255E-1,1.2060815E-2,-5.9301965E-3,1.6188255E-3],"categories":[],"categories_nodes":[],"categories_segments":[],"categories_sizes":[],"default_left":[0,0,0,0,0],"id":84,"left_children":[1,3,-1,-1,-1],"loss_changes":[2.195853E1,8.020592E-1,0E0,0E0,0E0],"parents":[2147483647,0,0,1,1],"right_children":[2,4,-1,-1,-1],"split_conditions":[2.9093454E1,2.0854101E1,1.2060815E-2,-5.9301965E-3,1.6188255E-3],"split_indices":[2,19,0,0,0],"split_type":[0,0,0,0,0],"sum_hessian":[1.04664345E2,9.822211E1,6.4422355E0,9.718172E1,1.0403963E0],"tree_param":{"num_deleted":"0","num_feature":"25","num_nodes":"5","size_leaf_vector":"1"}},{"base_weights":[6.3815266E-1,7.122741E-1,-7.958118E-3,-7.1627744E-3,7.4997294E-1,7.5591956E-3,7.659927E-4],"categories":[],"categories_nodes":[],"categories_segments":[],"categories_sizes":[],"default_left":[0,0,0,0,0,0,0],"id":85,"left_children":[1,3,-1,-1,5,-1,-1],"loss_changes":[1.774057E1,8.839676E0,0E0,0E0,5.455017E-1,0E0,0E0],"parents":[2147483647,0,0,1,1,4,4],"right_children":[2,4,-1,-1,6,-1,-1],"split_conditions":[2.9093454E1,-1.5284747E1,-7.958118E-3,-7.1627744E-3,2.0837286E1,7.5591956E-3,7.659927E-4],"split_indices":[2,2,0,0,19,0,0],"split_type":[0,0,0,0,0,0,0],"sum_hessian":[1.605781E2,1.5316434E2,7.4137616E0,3.47522E0,1.4968912E2,1.4825725E2,1.4318653E0],"tree_param":{"num_deleted":"0","num_feature":"25","num_nodes":"7","size_leaf_vector":"1"}},{"base_weights":[-5.242991E-1,1.1097067E-2,-5.9027225E-1,-1.5417142E-1,-6.0032764E-3,-3.4240137E-3,1.0244081E-3],"categories":[],"categories_nodes":[],"categories_segments":[],"categories_sizes":[],"default_left":[0,0,0,0,0,0,0],"id":86,"left_children":[1,-1,3,5,-1,-1,-1],"loss_changes":[1.1219854E1,0E0,3.2339096E-1,2.0332855E-1,0E0,0E0,0E0],"parents":[2147483647,0,0,2,2,3,3],"right_children":[2,-1,4,6,-1,-1,-1],"split_conditions":[-1.5284747E1,1.1097067E-2,9.672672E-1,9.896233E-1,-6.0032764E-3,-3.4240137E-3,1.0244081E-3],"split_indices":[2,0,14,5,0,0,0],"split_type":[0,0,0,0,0,0,0],"sum_hessian":[9.700349E1,3.1505623E0,9.385292E1,2.48334E0,9.136958E1,1.2396896E0,1.2436504E0],"tree_param":{"num_deleted":"0","num_feature":"25","num_nodes":"7","size_leaf_vector":"1"}},{"base_weights":[-4.7259352E-1,-5.8297837E-1,1.1799314E-2,-5.9219087E-3,4.4098022E-4],"categories":[],"categories_nodes":[],"categories_segments":[],"categories_sizes":[],"default_left":[0,0,0,0,0],"id":87,"left_children":[1,3,-1,-1,-1],"loss_changes":[2.0159315E1,6.080208E-1,0E0,0E0,0E0],"parents":[2147483647,0,0,1,1],"right_children":[2,4,-1,-1,-1],"split_conditions":[2.9093454E1,2.0854101E1,1.1799314E-2,-5.9219087E-3,4.4098022E-4],"split_indices":[2,19,0,0,0],"split_type":[0,0,0,0,0],"sum_hessian":[1.0574332E2,9.972888E1,6.0144386E0,9.833978E1,1.3890958E0],"tree_param":{"num_deleted":"0","num_feature":"25","num_nodes":"5","size_leaf_vector":"1"}},{"base_weights":[6.3869685E-1,6.980653E-1,-7.6798107E-3,-7.4943984E-3,7.4652547E-1,7.5201904E-3,2.1714943E-3],"categories":[],"categories_nodes":[],"categories_segments":[],"categories_sizes":[],"default_left":[0,0,0,0,0,0,0],"id":88,"left_children":[1,3,-1,-1,5,-1,-1],"loss_changes":[1.3829109E1,1.1309563E1,0E0,0E0,2.6940918E-1,0E0,0E0],"parents":[2147483647,0,0,1,1,4,4],"right_children":[2,4,-1,-1,6,-1,-1],"split_conditions":[2.9093454E1,-1.5284747E1,-7.6798107E-3,-7.4943984E-3,2.0837286E1,7.5201904E-3,2.1714943E-3],"split_indices":[2,2,0,0,19,0,0],"split_type":[0,0,0,0,0,0,0],"sum_hessian":[1.5817435E2,1.5225233E2,5.9220195E0,4.463467E0,1.4778886E2,1.4585469E2,1.9341712E0],"tree_param":{"num_deleted":"0","num_feature":"25","num_nodes":"7","size_leaf_vector":"1"}},{"base_weights":[-5.1866585E-1,1.1321891E-2,-5.898417E-1,-1.0756983E-3,-5.9943963E-3],"categories":[],"categories_nodes":[],"categories_segments":[],"categories_sizes":[],"default_left":[0,0,0,0,0],"id":89,"left_children":[1,-1,3,-1,-1],"loss_changes":[1.28301525E1,0E0,3.9787674E-1,0E0,0E0],"parents":[2147483647,0,0,2,2],"right_children":[2,-1,4,-1,-1],"split_conditions":[-1.5284747E1,1.1321891E-2,9.672672E-1,-1.0756983E-3,-5.9943963E-3],"split_indices":[2,0,14,0,0],"split_type":[0,0,0,0,0],"sum_hessian":[1.0250835E2,3.6207874E0,9.888756E1,2.1678078E0,9.671975E1],"tree_param":{"num_deleted":"0","num_feature":"25","num_nodes":"5","size_leaf_vector":"1"}},{"base_weights":[-4.6014574E-1,-5.909598E-1,1.1891652E-2,-6.008006E-3,1.6107347E-3],"categories":[],"categories_nodes":[],"categories_segments":[],"categories_sizes":[],"default_left":[0,0,0,0,0],"id":90,"left_children":[1,3,-1,-1,-1],"loss_changes":[2.3143198E1,8.1489563E-1,0E0,0E0,0E0],"parents":[2147483647,0,0,1,1],"right_children":[2,4,-1,-1,-1],"split_conditions":[2.9093454E1,2.0854101E1,1.1891652E-2,-6.008006E-3,1.6107347E-3],"split_indices":[2,19,0,0,0],"split_type":[0,0,0,0,0],"sum_hessian":[1.03009895E2,9.603466E1,6.975234E0,9.4992714E1,1.0419462E0],"tree_param":{"num_deleted":"0","num_feature":"25","num_nodes":"5","size_leaf_vector":"1"}},{"base_weights":[6.253075E-1,7.0297366E-1,-7.860502E-3,-7.2834627E-3,7.485393E-1,7.544145E-3,2.157399E-3],"categories":[],"categories_nodes":[],"categories_segments":[],"categories_sizes":[],"default_left":[0,0,0,0,0,0,0],"id":91,"left_children":[1,3,-1,-1,5,-1,-1],"loss_changes":[1.7194435E1,9.964813E0,0E0,0E0,2.7695465E-1,0E0,0E0],"parents":[2147483647,0,0,1,1,4,4],"right_children":[2,4,-1,-1,6,-1,-1],"split_conditions":[2.9093454E1,-1.5284747E1,-7.860502E-3,-7.2834627E-3,2.0791151E1,7.544145E-3,2.157399E-3],"split_indices":[2,2,0,0,19,0,0],"split_type":[0,0,0,0,0,0,0],"sum_hessian":[1.5082146E2,1.4343048E2,7.390971E0,3.962886E0,1.394676E2,1.3753506E2,1.9325322E0],"tree_param":{"num_deleted":"0","num_feature":"25","num_nodes":"7","size_leaf_vector":"1"}},{"base_weights":[-5.056871E-1,1.1475561E-2,-5.8812267E-1,-5.02462E-4,-5.981548E-3],"categories":[],"categories_nodes":[],"categories_segments":[],"categories_sizes":[],"default_left":[0,0,0,0,0],"id":92,"left_children":[1,-1,3,-1,-1],"loss_changes":[1.4325953E1,0E0,4.8833466E-1,0E0,0E0],"parents":[2147483647,0,0,2,2],"right_children":[2,-1,4,-1,-1],"split_conditions":[-1.5284747E1,1.1475561E-2,9.672672E-1,-5.02462E-4,-5.981548E-3],"split_indices":[2,0,14,0,0],"split_type":[0,0,0,0,0],"sum_hessian":[9.916469E1,4.096137E0,9.506855E1,1.8507082E0,9.321784E1],"tree_param":{"num_deleted":"0","num_feature":"25","num_nodes":"5","size_leaf_vector":"1"}},{"base_weights":[-4.4695225E-1,-5.892809E-3,1.18485885E-2],"categories":[],"categories_nodes":[],"categories_segments":[],"categories_sizes":[],"default_left":[0,0,0],"id":93,"left_children":[1,-1,-1],"loss_changes":[2.4279377E1,0E0,0E0],"parents":[2147483647,0,0],"right_children":[2,-1,-1],"split_conditions":[2.9093454E1,-5.892809E-3,1.18485885E-2],"split_indices":[2,0,0],"split_type":[0,0,0],"sum_hessian":[1.0053199E2,9.3054535E1,7.477456E0],"tree_param":{"num_deleted":"0","num_feature":"25","num_nodes":"3","size_leaf_vector":"1"}},{"base_weights":[6.197125E-1,6.919663E-1,-7.812081E-3,-7.4068247E-3,7.3961633E-1,7.4503683E-3,2.1453567E-3],"categories":[],"categories_nodes":[],"categories_segments":[],"categories_sizes":[],"default_left":[0,0,0,0,0,0,0],"id":94,"left_children":[1,3,-1,-1,5,-1,-1],"loss_changes":[1.6862694E1,1.1052055E1,0E0,0E0,2.6543427E-1,0E0,0E0],"parents":[2147483647,0,0,1,1,4,4],"right_children":[2,4,-1,-1,6,-1,-1],"split_conditions":[2.9093454E1,-1.5284747E1,-7.812081E-3,-7.4068247E-3,2.0854101E1,7.4503683E-3,2.1453567E-3],"split_indices":[2,2,0,0,19,0,0],"split_type":[0,0,0,0,0,0,0],"sum_hessian":[1.6025099E2,1.5287251E2,7.378483E0,4.4527187E0,1.484198E2,1.4648868E2,1.9311161E0],"tree_param":{"num_deleted":"0","num_feature":"25","num_nodes":"7","size_leaf_vector":"1"}},{"base_weights":[-5.05691E-1,1.1351884E-2,-5.875023E-1,-1.8750593E-1,-5.973037E-3,1.0727526E-3,-3.7319153E-3],"categories":[],"categories_nodes":[],"categories_segments":[],"categories_sizes":[],"default_left":[0,0,0,0,0,0,0],"id":95,"left_children":[1,-1,3,5,-1,-1,-1],"loss_changes":[1.4171297E1,0E0,2.662506E-1,2.4612325E-1,0E0,0E0,0E0],"parents":[2147483647,0,0,2,2,3,3],"right_children":[2,-1,4,6,-1,-1,-1],"split_conditions":[-1.5284747E1,1.1351884E-2,9.672672E-1,9.855287E-1,-5.973037E-3,1.0727526E-3,-3.7319153E-3],"split_indices":[2,0,14,4,0,0,0],"split_type":[0,0,0,0,0,0,0],"sum_hessian":[9.9596886E1,4.118425E0,9.547846E1,2.7651029E0,9.2713356E1,1.2318231E0,1.5332799E0],"tree_param":{"num_deleted":"0","num_feature":"25","num_nodes":"7","size_leaf_vector":"1"}},{"base_weights":[-4.418301E-1,-5.785867E-1,1.1714478E-2,-5.8808634E-3,4.5479488E-4],"categories":[],"categories_nodes":[],"categories_segments":[],"categories_sizes":[],"default_left":[0,0,0,0,0],"id":96,"left_children":[1,3,-1,-1,-1],"loss_changes":[2.3780188E1,6.029854E-1,0E0,0E0,0E0],"parents":[2147483647,0,0,1,1],"right_children":[2,4,-1,-1,-1],"split_conditions":[2.9093454E1,2.0854101E1,1.1714478E-2,-5.8808634E-3,4.5479488E-4],"split_indices":[2,19,0,0,0],"split_type":[0,0,0,0,0],"sum_hessian":[1.0371278E2,9.619939E1,7.5134044E0,9.481377E1,1.3856176E0],"tree_param":{"num_deleted":"0","num_feature":"25","num_nodes":"5","size_leaf_vector":"1"}},{"base_weights":[6.1635417E-1,6.993734E-1,-7.822691E-3,-6.7441915E-3,7.335706E-1,7.399957E-1,6.470029E-4,3.9802245E-3,7.4641895E-3],"categories":[],"categories_nodes":[],"categories_segments":[],"categories_sizes":[],"default_left":[0,0,0,0,0,0,0,0,0],"id":97,"left_children":[1,3,-1,-1,5,7,-1,-1,-1],"loss_changes":[1.7921642E1,7.1554794E0,0E0,0E0,5.4868317E-1,4.714966E-3,0E0,0E0,0E0],"parents":[2147483647,0,0,1,1,4,4,5,5],"right_children":[2,4,-1,-1,6,8,-1,-1,-1],"split_conditions":[1.5144517E1,-1.5284747E1,-7.822691E-3,-6.7441915E-3,2.0791151E1,9.672672E-1,6.470029E-4,3.9802245E-3,7.4641895E-3],"split_indices":[2,2,0,0,19,14,0,0,0],"split_type":[0,0,0,0,0,0,0,0,0],"sum_hessian":[1.4863521E2,1.4077884E2,7.856369E0,2.96452E0,1.3781432E2,1.3639775E2,1.4165621E0,3.6755862E0,1.3272217E2],"tree_param":{"num_deleted":"0","num_feature":"25","num_nodes":"9","size_leaf_vector":"1"}},{"base_weights":[-5.2202135E-1,1.0639125E-2,-5.8626413E-1,-1.4789557E-1,-5.9615895E-3,-3.3874698E-3,1.0883877E-3],"categories":[],"categories_nodes":[],"categories_segments":[],"categories_sizes":[],"default_left":[0,0,0,0,0,0,0],"id":98,"left_children":[1,-1,3,5,-1,-1,-1],"loss_changes":[1.0738216E1,0E0,3.2847214E-1,2.0592198E-1,0E0,0E0,0E0],"parents":[2147483647,0,0,2,2,3,3],"right_children":[2,-1,4,6,-1,-1,-1],"split_conditions":[-1.5284747E1,1.0639125E-2,9.672672E-1,9.896233E-1,-5.9615895E-3,-3.3874698E-3,1.0883877E-3],"split_indices":[2,0,14,5,0,0,0],"split_type":[0,0,0,0,0,0,0],"sum_hessian":[9.827375E1,3.2200844E0,9.505367E1,2.450198E0,9.260347E1,1.2221955E0,1.2280024E0],"tree_param":{"num_deleted":"0","num_feature":"25","num_nodes":"7","size_leaf_vector":"1"}},{"base_weights":[-4.6773994E-1,-5.780968E-1,1.1279077E-2,-5.8742105E-3,4.5066187E-4],"categories":[],"categories_nodes":[],"categories_segments":[],"categories_sizes":[],"default_left":[0,0,0,0,0],"id":99,"left_children":[1,3,-1,-1,-1],"loss_changes":[1.9146206E1,6.010971E-1,0E0,0E0,0E0],"parents":[2147483647,0,0,1,1],"right_children":[2,4,-1,-1,-1],"split_conditions":[2.9093454E1,2.0854101E1,1.1279077E-2,-5.8742105E-3,4.5066187E-4],"split_indices":[2,19,0,0,0],"split_type":[0,0,0,0,0],"sum_hessian":[1.0402635E2,9.7893616E1,6.132734E0,9.650696E1,1.3866581E0],"tree_param":{"num_deleted":"0","num_feature":"25","num_nodes":"5","size_leaf_vector":"1"}},{"base_weights":[6.2861764E-1,7.0743096E-1,-7.7751605E-3,-6.9583803E-3,7.4531394E-3],"categories":[],"categories_nodes":[],"categories_segments":[],"categories_sizes":[],"default_left":[0,0,0,0,0],"id":100,"left_children":[1,3,-1,-1,-1],"loss_changes":[1.8016994E1,8.480461E0,0E0,0E0,0E0],"parents":[2147483647,0,0,1,1],"right_children":[2,4,-1,-1,-1],"split_conditions":[2.9093454E1,-1.5284747E1,-7.7751605E-3,-6.9583803E-3,7.4531394E-3],"split_indices":[2,2,0,0,0],"split_type":[0,0,0,0,0],"sum_hessian":[1.5661272E2,1.4877106E2,7.841666E0,3.4541392E0,1.4531691E2],"tree_param":{"num_deleted":"0","num_feature":"25","num_nodes":"5","size_leaf_vector":"1"}},{"base_weights":[-5.155282E-1,1.0535184E-2,-5.838718E-1,2.09175E-4,-5.946402E-3],"categories":[],"categories_nodes":[],"categories_segments":[],"categories_sizes":[],"default_left":[0,0,0,0,0],"id":101,"left_children":[1,-1,3,-1,-1],"loss_changes":[1.0580582E1,0E0,5.9659386E-1,0E0,0E0],"parents":[2147483647,0,0,2,2],"right_children":[2,-1,4,-1,-1],"split_conditions":[-1.5284747E1,1.0535184E-2,9.672672E-1,2.09175E-4,-5.946402E-3],"split_indices":[2,0,14,0,0],"split_type":[0,0,0,0,0],"sum_hessian":[9.193166E1,3.2354937E0,8.869617E1,1.5351379E0,8.716103E1],"tree_param":{"num_deleted":"0","num_feature":"25","num_nodes":"5","size_leaf_vector":"1"}},{"base_weights":[-4.740313E-1,-5.747654E-1,1.0881608E-2,-5.8502234E-3,1.6326248E-3],"categories":[],"categories_nodes":[],"categories_segments":[],"categories_sizes":[],"default_left":[0,0,0,0,0],"id":102,"left_children":[1,3,-1,-1,-1],"loss_changes":[1.5864283E1,7.891083E-1,0E0,0E0,0E0],"parents":[2147483647,0,0,1,1],"right_children":[2,4,-1,-1,-1],"split_conditions":[2.9093454E1,2.0854101E1,1.0881608E-2,-5.8502234E-3,1.6326248E-3],"split_indices":[2,19,0,0,0],"split_type":[0,0,0,0,0],"sum_hessian":[9.583697E1,9.06253E1,5.2116685E0,8.958755E1,1.037753E0],"tree_param":{"num_deleted":"0","num_feature":"25","num_nodes":"5","size_leaf_vector":"1"}},{"base_weights":[6.042405E-1,6.8599564E-1,-7.780961E-3,-7.120148E-3,7.285674E-1,7.344025E-3,8.451563E-4],"categories":[],"categories_nodes":[],"categories_segments":[],"categories_sizes":[],"default_left":[0,0,0,0,0,0,0],"id":103,"left_children":[1,3,-1,-1,5,-1,-1],"loss_changes":[1.8439335E1,9.4534E0,0E0,0E0,4.8728943E-1,0E0,0E0],"parents":[2147483647,0,0,1,1,4,4],"right_children":[2,4,-1,-1,6,-1,-1],"split_conditions":[2.9093454E1,-1.5284747E1,-7.780961E-3,-7.120148E-3,2.0854101E1,7.344025E-3,8.451563E-4],"split_indices":[2,2,0,0,19,0,0],"split_type":[0,0,0,0,0,0,0],"sum_hessian":[1.5743799E2,1.4912224E2,8.315749E0,3.942128E0,1.4518011E2,1.4373758E2,1.4425458E0],"tree_param":{"num_deleted":"0","num_feature":"25","num_nodes":"7","size_leaf_vector":"1"}},{"base_weights":[-5.156402E-1,1.0432337E-2,-5.829878E-1,-9.950527E-4,-5.9349663E-3],"categories":[],"categories_nodes":[],"categories_segments":[],"categories_sizes":[],"default_left":[0,0,0,0,0],"id":104,"left_children":[1,-1,3,-1,-1],"loss_changes":[1.0474905E1,0E0,4.0192795E-1,0E0,0E0],"parents":[2147483647,0,0,2,2],"right_children":[2,-1,4,-1,-1],"split_conditions":[-1.5284747E1,1.0432337E-2,9.672672E-1,-9.950527E-4,-5.9349663E-3],"split_indices":[2,0,14,0,0],"split_type":[0,0,0,0,0],"sum_hessian":[9.298086E1,3.250573E0,8.9730286E1,2.131564E0,8.7598724E1],"tree_param":{"num_deleted":"0","num_feature":"25","num_nodes":"5","size_leaf_vector":"1"}},{"base_weights":[-4.54296E-1,-5.852198E-1,1.1249944E-2,-5.952547E-3,1.6255561E-3],"categories":[],"categories_nodes":[],"categories_segments":[],"categories_sizes":[],"default_left":[0,0,0,0,0],"id":105,"left_children":[1,3,-1,-1,-1],"loss_changes":[2.1708319E1,8.071518E-1,0E0,0E0,0E0],"parents":[2147483647,0,0,1,1],"right_children":[2,4,-1,-1,-1],"split_conditions":[2.9093454E1,2.0837286E1,1.1249944E-2,-5.952547E-3,1.6255561E-3],"split_indices":[2,19,0,0,0],"split_type":[0,0,0,0,0],"sum_hessian":[1.00805305E2,9.36695E1,7.1357994E0,9.26304E1,1.039107E0],"tree_param":{"num_deleted":"0","num_feature":"25","num_nodes":"5","size_leaf_vector":"1"}},{"base_weights":[6.068093E-1,6.786418E-1,-7.5616017E-3,-7.08082E-3,7.2389394E-1,7.2974083E-3,2.0739345E-3],"categories":[],"categories_nodes":[],"categories_segments":[],"categories_sizes":[],"default_left":[0,0,0,0,0,0,0],"id":106,"left_children":[1,3,-1,-1,5,-1,-1],"loss_changes":[1.4909649E1,9.311073E0,0E0,0E0,2.6018524E-1,0E0,0E0],"parents":[2147483647,0,0,1,1,4,4],"right_children":[2,4,-1,-1,6,-1,-1],"split_conditions":[2.9093454E1,-1.5284747E1,-7.5616017E-3,-7.08082E-3,2.0854101E1,7.2974083E-3,2.0739345E-3],"split_indices":[2,2,0,0,19,0,0],"split_type":[0,0,0,0,0,0,0],"sum_hessian":[1.4604474E2,1.3921004E2,6.834689E0,3.9363253E0,1.3527371E2,1.333513E2,1.9224175E0],"tree_param":{"num_deleted":"0","num_feature":"25","num_nodes":"7","size_leaf_vector":"1"}},{"base_weights":[-5.1577806E-1,1.0330819E-2,-5.8228457E-1,-9.911605E-4,-5.926811E-3],"categories":[],"categories_nodes":[],"categories_segments":[],"categories_sizes":[],"default_left":[0,0,0,0,0],"id":107,"left_children":[1,-1,3,-1,-1],"loss_changes":[1.0371294E1,0E0,4.0128136E-1,0E0,0E0],"parents":[2147483647,0,0,2,2],"right_children":[2,-1,4,-1,-1],"split_conditions":[-1.5284747E1,1.0330819E-2,9.672672E-1,-9.911605E-4,-5.926811E-3],"split_indices":[2,0,14,0,0],"split_type":[0,0,0,0,0],"sum_hessian":[9.38434E1,3.2652779E0,9.057812E1,2.129839E0,8.844828E1],"tree_param":{"num_deleted":"0","num_feature":"25","num_nodes":"5","size_leaf_vector":"1"}},{"base_weights":[-4.323825E-1,-5.730568E-1,1.121665E-2,-5.8297077E-3,4.5113094E-4],"categories":[],"categories_nodes":[],"categories_segments":[],"categories_sizes":[],"default_left":[0,0,0,0,0],"id":108,"left_children":[1,3,-1,-1,-1],"loss_changes":[2.251164E1,5.925293E-1,0E0,0E0,0E0],"parents":[2147483647,0,0,1,1],"right_children":[2,4,-1,-1,-1],"split_conditions":[2.9093454E1,2.0854101E1,1.121665E-2,-5.8297077E-3,4.5113094E-4],"split_indices":[2,19,0,0,0],"split_type":[0,0,0,0,0],"sum_hessian":[9.903387E1,9.139218E1,7.6416864E0,9.000564E1,1.3865399E0],"tree_param":{"num_deleted":"0","num_feature":"25","num_nodes":"5","size_leaf_vector":"1"}},{"base_weights":[6.3051593E-1,6.907775E-1,-7.3605143E-3,-7.0421183E-3,7.3470073E-3],"categories":[],"categories_nodes":[],"categories_segments":[],"categories_sizes":[],"default_left":[0,0,0,0,0],"id":109,"left_children":[1,3,-1,-1,-1],"loss_changes":[1.2913395E1,9.388916E0,0E0,0E0,0E0],"parents":[2147483647,0,0,1,1],"right_children":[2,4,-1,-1,-1],"split_conditions":[2.9093454E1,-1.5284747E1,-7.3605143E-3,-7.0421183E-3,7.3470073E-3],"split_indices":[2,2,0,0,0],"split_type":[0,0,0,0,0],"sum_hessian":[1.4963425E2,1.4378813E2,5.846108E0,3.930297E0,1.3985783E2],"tree_param":{"num_deleted":"0","num_feature":"25","num_nodes":"5","size_leaf_vector":"1"}},{"base_weights":[-5.098115E-1,1.0791565E-2,-5.9235482E-3],"categories":[],"categories_nodes":[],"categories_segments":[],"categories_sizes":[],"default_left":[0,0,0],"id":110,"left_children":[1,-1,-1],"loss_changes":[1.3552984E1,0E0,0E0],"parents":[2147483647,0,0],"right_children":[2,-1,-1],"split_conditions":[-1.5284747E1,1.0791565E-2,-5.9235482E-3],"split_indices":[2,0,0],"split_type":[0,0,0],"sum_hessian":[9.745889E1,4.216523E0,9.324237E1],"tree_param":{"num_deleted":"0","num_feature":"25","num_nodes":"3","size_leaf_vector":"1"}},{"base_weights":[-4.5557255E-1,-5.7176715E-1,1.0811641E-2,-5.817446E-3,4.6296514E-4],"categories":[],"categories_nodes":[],"categories_segments":[],"categories_sizes":[],"default_left":[0,0,0,0,0],"id":111,"left_children":[1,3,-1,-1,-1],"loss_changes":[1.8110289E1,5.926018E-1,0E0,0E0,0E0],"parents":[2147483647,0,0,1,1],"right_children":[2,4,-1,-1,-1],"split_conditions":[2.9093454E1,2.0854101E1,1.0811641E-2,-5.817446E-3,4.6296514E-4],"split_indices":[2,19,0,0,0],"split_type":[0,0,0,0,0],"sum_hessian":[9.696184E1,9.072959E1,6.2322454E0,8.934603E1,1.3835609E0],"tree_param":{"num_deleted":"0","num_feature":"25","num_nodes":"5","size_leaf_vector":"1"}},{"base_weights":[6.0868603E-1,6.8191576E-1,-7.5387578E-3,-7.0025846E-3,7.250242E-1,3.411816E-1,7.31323E-3,4.9166414E-3,1.7503357E-4],"categories":[],"categories_nodes":[],"categories_segments":[],"categories_sizes":[],"default_left":[0,0,0,0,0,0,0,0,0],"id":112,"left_children":[1,3,-1,-1,5,7,-1,-1,-1],"loss_changes":[1.580714E1,9.205437E0,0E0,0E0,9.3925476E-2,1.9440433E-1,0E0,0E0,0E0],"parents":[2147483647,0,0,1,1,4,4,5,5],"right_children":[2,4,-1,-1,6,8,-1,-1,-1],"split_conditions":[1.5144517E1,-1.5284747E1,-7.5387578E-3,-7.0025846E-3,9.672672E-1,1.4909716E3,7.31323E-3,4.9166414E-3,1.7503357E-4],"split_indices":[2,2,0,0,14,1,0,0,0],"split_type":[0,0,0,0,0,0,0,0,0],"sum_hessian":[1.5226775E2,1.4497568E2,7.2920613E0,3.9238067E0,1.4105188E2,3.167907E0,1.3788397E2,1.8082404E0,1.3596666E0],"tree_param":{"num_deleted":"0","num_feature":"25","num_nodes":"9","size_leaf_vector":"1"}},{"base_weights":[-5.3305167E-1,9.2672575E-3,-5.8034515E-1,-5.614885E-4,-5.9099407E-3],"categories":[],"categories_nodes":[],"categories_segments":[],"categories_sizes":[],"default_left":[0,0,0,0,0],"id":113,"left_children":[1,-1,3,-1,-1],"loss_changes":[7.0664005E0,0E0,4.8155785E-1,0E0,0E0],"parents":[2147483647,0,0,2,2],"right_children":[2,-1,4,-1,-1],"split_conditions":[-1.5284747E1,9.2672575E-3,1.4525533E0,-5.614885E-4,-5.9099407E-3],"split_indices":[2,0,17,0,0],"split_type":[0,0,0,0,0],"sum_hessian":[9.356497E1,2.352634E0,9.121234E1,1.9409497E0,8.9271385E1],"tree_param":{"num_deleted":"0","num_feature":"25","num_nodes":"5","size_leaf_vector":"1"}},{"base_weights":[-4.2818764E-1,-5.702136E-1,1.098637E-2,-5.8055655E-3,1.6447133E-3],"categories":[],"categories_nodes":[],"categories_segments":[],"categories_sizes":[],"default_left":[0,0,0,0,0],"id":114,"left_children":[1,3,-1,-1,-1],"loss_changes":[2.1917604E1,7.8307533E-1,0E0,0E0,0E0],"parents":[2147483647,0,0,1,1],"right_children":[2,4,-1,-1,-1],"split_conditions":[1.5144517E1,2.0854101E1,1.098637E-2,-5.8055655E-3,1.6447133E-3],"split_indices":[2,19,0,0,0],"split_type":[0,0,0,0,0],"sum_hessian":[9.7184326E1,8.948676E1,7.6975656E0,8.8451324E1,1.0354381E0],"tree_param":{"num_deleted":"0","num_feature":"25","num_nodes":"5","size_leaf_vector":"1"}},{"base_weights":[6.030178E-1,6.669079E-1,-7.35853E-3,-7.261932E-3,7.2130585E-1,7.2747534E-3,7.716347E-4],"categories":[],"categories_nodes":[],"categories_segments":[],"categories_sizes":[],"default_left":[0,0,0,0,0,0,0],"id":115,"left_children":[1,3,-1,-1,5,-1,-1],"loss_changes":[1.3318565E1,1.1410313E1,0E0,0E0,4.9530792E-1,0E0,0E0],"parents":[2147483647,0,0,1,1,4,4],"right_children":[2,4,-1,-1,6,-1,-1],"split_conditions":[1.5144517E1,-1.5284747E1,-7.35853E-3,-7.261932E-3,2.0791151E1,7.2747534E-3,7.716347E-4],"split_indices":[2,2,0,0,19,0,0],"split_type":[0,0,0,0,0,0,0],"sum_hessian":[1.4896169E2,1.426561E2,6.305575E0,4.896999E0,1.3775911E2,1.3632404E2,1.4350615E0],"tree_param":{"num_deleted":"0","num_feature":"25","num_nodes":"7","size_leaf_vector":"1"}},{"base_weights":[-5.241267E-1,1.004013E-2,-5.902304E-3],"categories":[],"categories_nodes":[],"categories_segments":[],"categories_sizes":[],"default_left":[0,0,0],"id":116,"left_children":[1,-1,-1],"loss_changes":[1.0181606E1,0E0,0E0],"parents":[2147483647,0,0],"right_children":[2,-1,-1],"split_conditions":[-1.5284747E1,1.004013E-2,-5.902304E-3],"split_indices":[2,0,0],"split_type":[0,0,0],"sum_hessian":[9.392595E1,3.3062348E0,9.061971E1],"tree_param":{"num_deleted":"0","num_feature":"25","num_nodes":"3","size_leaf_vector":"1"}},{"base_weights":[-4.5398757E-1,-5.696098E-1,1.0594193E-2,-5.798473E-3,1.6376027E-3],"categories":[],"categories_nodes":[],"categories_segments":[],"categories_sizes":[],"default_left":[0,0,0,0,0],"id":117,"left_children":[1,3,-1,-1,-1],"loss_changes":[1.7678425E1,7.804642E-1,0E0,0E0,0E0],"parents":[2147483647,0,0,1,1],"right_children":[2,4,-1,-1,-1],"split_conditions":[2.9093454E1,2.0854101E1,1.0594193E-2,-5.798473E-3,1.6376027E-3],"split_indices":[2,19,0,0,0],"split_type":[0,0,0,0,0],"sum_hessian":[9.658045E1,9.03049E1,6.2755504E0,8.92681E1,1.0367998E0],"tree_param":{"num_deleted":"0","num_feature":"25","num_nodes":"5","size_leaf_vector":"1"}},{"base_weights":[6.1113274E-1,6.859365E-1,-7.4530295E-3,-6.4878752E-3,7.188486E-1,7.2464924E-3,1.9967086E-3],"categories":[],"categories_nodes":[],"categories_segments":[],"categories_sizes":[],"default_left":[0,0,0,0,0,0,0],"id":118,"left_children":[1,3,-1,-1,5,-1,-1],"loss_changes":[1.561459E1,6.686287E0,0E0,0E0,2.728958E-1,0E0,0E0],"parents":[2147483647,0,0,1,1,4,4],"right_children":[2,4,-1,-1,6,-1,-1],"split_conditions":[2.9093454E1,-1.5284747E1,-7.4530295E-3,-6.4878752E-3,2.0854101E1,7.2464924E-3,1.9967086E-3],"split_indices":[2,2,0,0,19,0,0],"split_type":[0,0,0,0,0,0,0],"sum_hessian":[1.478507E2,1.4059174E2,7.2589455E0,2.9330044E0,1.3765874E2,1.3574629E2,1.9124413E0],"tree_param":{"num_deleted":"0","num_feature":"25","num_nodes":"7","size_leaf_vector":"1"}},{"base_weights":[-4.9375457E-1,1.0687824E-2,-5.889638E-3],"categories":[],"categories_nodes":[],"categories_segments":[],"categories_sizes":[],"default_left":[0,0,0],"id":119,"left_children":[1,-1,-1],"loss_changes":[1.4581717E1,0E0,0E0],"parents":[2147483647,0,0],"right_children":[2,-1,-1],"split_conditions":[-1.5284747E1,1.0687824E-2,-5.889638E-3],"split_indices":[2,0,0],"split_type":[0,0,0],"sum_hessian":[9.278529E1,4.741643E0,8.8043655E1],"tree_param":{"num_deleted":"0","num_feature":"25","num_nodes":"3","size_leaf_vector":"1"}},{"base_weights":[-4.3240568E-1,-5.674662E-1,1.06845405E-2,-5.7808408E-3,9.496271E-4],"categories":[],"categories_nodes":[],"categories_segments":[],"categories_sizes":[],"default_left":[0,0,0,0,0],"id":120,"left_children":[1,3,-1,-1,-1],"loss_changes":[2.004556E1,6.783123E-1,0E0,0E0,0E0],"parents":[2147483647,0,0,1,1],"right_children":[2,4,-1,-1,-1],"split_conditions":[1.5144517E1,2.0791151E1,1.06845405E-2,-5.7808408E-3,9.496271E-4],"split_indices":[2,19,0,0,0],"split_type":[0,0,0,0,0],"sum_hessian":[9.4898315E1,8.763413E1,7.2641826E0,8.6376945E1,1.2571878E0],"tree_param":{"num_deleted":"0","num_feature":"25","num_nodes":"5","size_leaf_vector":"1"}},{"base_weights":[6.0293275E-1,6.749642E-1,-7.4114827E-3,-7.050941E-3,7.2293924E-3],"categories":[],"categories_nodes":[],"categories_segments":[],"categories_sizes":[],"default_left":[0,0,0,0,0],"id":121,"left_children":[1,3,-1,-1,-1],"loss_changes":[1.5280209E1,1.0137657E1,0E0,0E0,0E0],"parents":[2147483647,0,0,1,1],"right_children":[2,4,-1,-1,-1],"split_conditions":[2.9093454E1,-1.5284747E1,-7.4114827E-3,-7.050941E-3,7.2293924E-3],"split_indices":[2,2,0,0,0],"split_type":[0,0,0,0,0],"sum_hessian":[1.5166014E2,1.4441835E2,7.2417874E0,4.391605E0,1.4002675E2],"tree_param":{"num_deleted":"0","num_feature":"25","num_nodes":"5","size_leaf_vector":"1"}},{"base_weights":[-5.104551E-1,9.8514315E-3,-5.769336E-1,-8.6225814E-4,-5.8754645E-3],"categories":[],"categories_nodes":[],"categories_segments":[],"categories_sizes":[],"default_left":[0,0,0,0,0],"id":122,"left_children":[1,-1,3,-1,-1],"loss_changes":[9.825497E0,0E0,4.1687202E-1,0E0,0E0],"parents":[2147483647,0,0,2,2],"right_children":[2,-1,4,-1,-1],"split_conditions":[-1.5284747E1,9.8514315E-3,9.672672E-1,-8.6225814E-4,-5.8754645E-3],"split_indices":[2,0,14,0,0],"split_type":[0,0,0,0,0],"sum_hessian":[9.210654E1,3.331746E0,8.877479E1,2.0725148E0,8.670227E1],"tree_param":{"num_deleted":"0","num_feature":"25","num_nodes":"5","size_leaf_vector":"1"}},{"base_weights":[-4.483677E-1,-5.7860813E-3,1.057857E-2],"categories":[],"categories_nodes":[],"categories_segments":[],"categories_sizes":[],"default_left":[0,0,0],"id":123,"left_children":[1,-1,-1],"loss_changes":[2.016551E1,0E0,0E0],"parents":[2147483647,0,0],"right_children":[2,-1,-1],"split_conditions":[1.5144517E1,-5.7860813E-3,1.057857E-2],"split_indices":[2,0,0],"split_type":[0,0,0],"sum_hessian":[9.86752E1,9.138883E1,7.286368E0],"tree_param":{"num_deleted":"0","num_feature":"25","num_nodes":"3","size_leaf_vector":"1"}},{"base_weights":[5.840445E-1,6.5977526E-1,-7.4270396E-3,-7.1461233E-3,7.1271676E-1,7.188E-3,7.278896E-4],"categories":[],"categories_nodes":[],"categories_segments":[],"categories_sizes":[],"default_left":[0,0,0,0,0,0,0],"id":124,"left_children":[1,3,-1,-1,5,-1,-1],"loss_changes":[1.5813854E1,1.1045784E1,0E0,0E0,4.9243164E-1,0E0,0E0],"parents":[2147483647,0,0,1,1,4,4],"right_children":[2,4,-1,-1,6,-1,-1],"split_conditions":[2.9093454E1,-1.5284747E1,-7.4270396E-3,-7.1461233E-3,2.0791151E1,7.188E-3,7.278896E-4],"split_indices":[2,2,0,0,19,0,0],"split_type":[0,0,0,0,0,0,0],"sum_hessian":[1.5151285E2,1.4380705E2,7.7057877E0,4.870419E0,1.3893663E2,1.3750623E2,1.4304073E0],"tree_param":{"num_deleted":"0","num_feature":"25","num_nodes":"7","size_leaf_vector":"1"}},{"base_weights":[-5.021716E-1,1.0050303E-2,-5.7641685E-1,-1.301258E-1,-5.8680503E-3,1.2867523E-3,-3.2947059E-3],"categories":[],"categories_nodes":[],"categories_segments":[],"categories_sizes":[],"default_left":[0,0,0,0,0,0,0],"id":125,"left_children":[1,-1,3,5,-1,-1,-1],"loss_changes":[1.120233E1,0E0,3.4604073E-1,2.1560664E-1,0E0,0E0,0E0],"parents":[2147483647,0,0,2,2,3,3],"right_children":[2,-1,4,6,-1,-1,-1],"split_conditions":[-1.5284747E1,1.0050303E-2,9.672672E-1,1.5026323E0,-5.8680503E-3,1.2867523E-3,-3.2947059E-3],"split_indices":[2,0,14,18,0,0,0],"split_type":[0,0,0,0,0,0,0],"sum_hessian":[9.393087E1,3.8212721E0,9.01096E1,2.3574293E0,8.775217E1,1.1799972E0,1.1774321E0],"tree_param":{"num_deleted":"0","num_feature":"25","num_nodes":"7","size_leaf_vector":"1"}},{"base_weights":[-4.4837475E-1,-5.7682376E-3,1.0385586E-2],"categories":[],"categories_nodes":[],"categories_segments":[],"categories_sizes":[],"default_left":[0,0,0],"id":126,"left_children":[1,-1,-1],"loss_changes":[1.8525297E1,0E0,0E0],"parents":[2147483647,0,0],"right_children":[2,-1,-1],"split_conditions":[2.9093454E1,-5.7682376E-3,1.0385586E-2],"split_indices":[2,0,0],"split_type":[0,0,0],"sum_hessian":[9.2857025E1,8.60368E1,6.820233E0],"tree_param":{"num_deleted":"0","num_feature":"25","num_nodes":"3","size_leaf_vector":"1"}},{"base_weights":[5.9350044E-1,6.60559E-1,-7.265938E-3,-6.8167434E-3,7.0290995E-1,7.085543E-1,1.9382603E-3,3.7788067E-3,7.1536433E-3],"categories":[],"categories_nodes":[],"categories_segments":[],"categories_sizes":[],"default_left":[0,0,0,0,0,0,0,0,0],"id":127,"left_children":[1,3,-1,-1,5,7,-1,-1,-1],"loss_changes":[1.3754154E1,8.620796E0,0E0,0E0,2.630539E-1,3.9154053E-2,0E0,0E0,0E0],"parents":[2147483647,0,0,1,1,4,4,5,5],"right_children":[2,4,-1,-1,6,8,-1,-1,-1],"split_conditions":[2.9093454E1,-1.5284747E1,-7.265938E-3,-6.8167434E-3,2.0854101E1,1.4525533E0,1.9382603E-3,3.7788067E-3,7.1536433E-3],"split_indices":[2,2,0,0,19,17,0,0,0],"split_type":[0,0,0,0,0,0,0,0,0],"sum_hessian":[1.4895094E2,1.4222574E2,6.725211E0,3.8885853E0,1.3833716E2,1.3643265E2,1.9045016E0,3.8929088E0,1.3253975E2],"tree_param":{"num_deleted":"0","num_feature":"25","num_nodes":"9","size_leaf_vector":"1"}},{"base_weights":[-5.1884407E-1,9.314014E-3,-5.753776E-1,-1.2837577E-1,-5.858592E-3,-3.2831575E-3,1.30116E-3],"categories":[],"categories_nodes":[],"categories_segments":[],"categories_sizes":[],"default_left":[0,0,0,0,0,0,0],"id":128,"left_children":[1,-1,3,5,-1,-1,-1],"loss_changes":[8.171177E0,0E0,3.476467E-1,2.1577422E-1,0E0,0E0,0E0],"parents":[2147483647,0,0,2,2,3,3],"right_children":[2,-1,4,6,-1,-1,-1],"split_conditions":[-1.5284747E1,9.314014E-3,9.672672E-1,9.877877E-1,-5.858592E-3,-3.2831575E-3,1.30116E-3],"split_indices":[2,0,14,15,0,0,0],"split_type":[0,0,0,0,0,0,0],"sum_hessian":[9.212721E1,2.8759427E0,8.925127E1,2.3484051E0,8.690286E1,1.1718636E0,1.1765417E0],"tree_param":{"num_deleted":"0","num_feature":"25","num_nodes":"7","size_leaf_vector":"1"}},{"base_weights":[-4.3549863E-1,-5.653901E-1,1.03744455E-2,-5.7576257E-3,1.0771429E-3],"categories":[],"categories_nodes":[],"categories_segments":[],"categories_sizes":[],"default_left":[0,0,0,0,0],"id":129,"left_children":[1,3,-1,-1,-1],"loss_changes":[1.9413008E1,6.9787216E-1,0E0,0E0,0E0],"parents":[2147483647,0,0,1,1],"right_children":[2,4,-1,-1,-1],"split_conditions":[1.5144517E1,2.0669935E1,1.03744455E-2,-5.7576257E-3,1.0771429E-3],"split_indices":[2,19,0,0,0],"split_type":[0,0,0,0,0],"sum_hessian":[9.740148E1,9.007442E1,7.327064E0,8.884988E1,1.2245435E0],"tree_param":{"num_deleted":"0","num_feature":"25","num_nodes":"5","size_leaf_vector":"1"}},{"base_weights":[5.856367E-1,6.554975E-1,-7.2899424E-3,-7.071722E-3,7.0745987E-1,7.131422E-1,1.9150289E-3,3.4156486E-3,7.20087E-3],"categories":[],"categories_nodes":[],"categories_segments":[],"categories_sizes":[],"default_left":[0,0,0,0,0,0,0,0,0],"id":130,"left_children":[1,3,-1,-1,5,7,-1,-1,-1],"loss_changes":[1.4517689E1,1.08158E1,0E0,0E0,2.7633667E-1,1.1255646E-1,0E0,0E0,0E0],"parents":[2147483647,0,0,1,1,4,4,5,5],"right_children":[2,4,-1,-1,6,8,-1,-1,-1],"split_conditions":[2.9093454E1,-1.5284747E1,-7.2899424E-3,-7.071722E-3,2.0854101E1,1.4525533E0,1.9150289E-3,3.4156486E-3,7.20087E-3],"split_indices":[2,2,0,0,19,17,0,0,0],"split_type":[0,0,0,0,0,0,0,0,0],"sum_hessian":[1.5187088E2,1.4468364E2,7.187251E0,4.851364E0,1.3983228E2,1.3793102E2,1.9012537E0,3.4513605E0,1.3447966E2],"tree_param":{"num_deleted":"0","num_feature":"25","num_nodes":"9","size_leaf_vector":"1"}},{"base_weights":[-4.9765876E-1,9.86867E-3,-5.739504E-1,-1.2738617E-1,-5.8470657E-3,-3.2759185E-3,1.3078526E-3],"categories":[],"categories_nodes":[],"categories_segments":[],"categories_sizes":[],"default_left":[0,0,0,0,0,0,0],"id":131,"left_children":[1,-1,3,5,-1,-1,-1],"loss_changes":[1.0944546E1,0E0,3.4718513E-1,2.156507E-1,0E0,0E0,0E0],"parents":[2147483647,0,0,2,2,3,3],"right_children":[2,-1,4,6,-1,-1,-1],"split_conditions":[-1.5284747E1,9.86867E-3,9.672672E-1,6.8940415E0,-5.8470657E-3,-3.2759185E-3,1.3078526E-3],"split_indices":[2,0,14,21,0,0,0],"split_type":[0,0,0,0,0,0,0],"sum_hessian":[9.063351E1,3.8467062E0,8.67868E1,2.3433013E0,8.44435E1,1.1683677E0,1.1749337E0],"tree_param":{"num_deleted":"0","num_feature":"25","num_nodes":"7","size_leaf_vector":"1"}},{"base_weights":[-4.2523953E-1,-5.644887E-1,1.0353062E-2,-5.7462933E-3,5.0498755E-4],"categories":[],"categories_nodes":[],"categories_segments":[],"categories_sizes":[],"default_left":[0,0,0,0,0],"id":132,"left_children":[1,3,-1,-1,-1],"loss_changes":[2.040461E1,5.879154E-1,0E0,0E0,0E0],"parents":[2147483647,0,0,1,1],"right_children":[2,4,-1,-1,-1],"split_conditions":[1.5144517E1,2.0854101E1,1.0353062E-2,-5.7462933E-3,5.0498755E-4],"split_indices":[2,19,0,0,0],"split_type":[0,0,0,0,0],"sum_hessian":[9.645408E1,8.861864E1,7.8354383E0,8.724565E1,1.3729873E0],"tree_param":{"num_deleted":"0","num_feature":"25","num_nodes":"5","size_leaf_vector":"1"}},{"base_weights":[6.018498E-1,6.6862816E-1,-7.1870815E-3,-6.745397E-3,7.1084867E-3],"categories":[],"categories_nodes":[],"categories_segments":[],"categories_sizes":[],"default_left":[0,0,0,0,0],"id":133,"left_children":[1,3,-1,-1,-1],"loss_changes":[1.3686062E1,8.592236E0,0E0,0E0,0E0],"parents":[2147483647,0,0,1,1],"right_children":[2,4,-1,-1,-1],"split_conditions":[2.9093454E1,-1.5284747E1,-7.1870815E-3,-6.745397E-3,7.1084867E-3],"split_indices":[2,2,0,0,0],"split_type":[0,0,0,0,0],"sum_hessian":[1.4874834E2,1.4205836E2,6.6899734E0,3.8728938E0,1.3818547E2],"tree_param":{"num_deleted":"0","num_feature":"25","num_nodes":"5","size_leaf_vector":"1"}},{"base_weights":[-4.9677244E-1,1.0007132E-2,-5.8401693E-3],"categories":[],"categories_nodes":[],"categories_segments":[],"categories_sizes":[],"default_left":[0,0,0],"id":134,"left_children":[1,-1,-1],"loss_changes":[1.2385349E1,0E0,0E0],"parents":[2147483647,0,0],"right_children":[2,-1,-1],"split_conditions":[-1.5284747E1,1.0007132E-2,-5.8401693E-3],"split_indices":[2,0,0],"split_type":[0,0,0],"sum_hessian":[8.932647E1,4.34129E0,8.4985176E1],"tree_param":{"num_deleted":"0","num_feature":"25","num_nodes":"3","size_leaf_vector":"1"}},{"base_weights":[-4.5506123E-1,-5.736597E-3,9.994049E-3],"categories":[],"categories_nodes":[],"categories_segments":[],"categories_sizes":[],"default_left":[0,0,0],"id":135,"left_children":[1,-1,-1],"loss_changes":[1.6627855E1,0E0,0E0],"parents":[2147483647,0,0],"right_children":[2,-1,-1],"split_conditions":[2.9093454E1,-5.736597E-3,9.994049E-3],"split_indices":[2,0,0],"split_type":[0,0,0],"sum_hessian":[9.20711E1,8.568948E1,6.381613E0],"tree_param":{"num_deleted":"0","num_feature":"25","num_nodes":"3","size_leaf_vector":"1"}},{"base_weights":[5.94331E-1,6.669302E-1,-7.266812E-3,-6.518266E-3,7.020905E-1,7.079319E-3,6.495879E-4],"categories":[],"categories_nodes":[],"categories_segments":[],"categories_sizes":[],"default_left":[0,0,0,0,0,0,0],"id":136,"left_children":[1,3,-1,-1,5,-1,-1],"loss_changes":[1.5481682E1,7.3548584E0,0E0,0E0,4.950409E-1,0E0,0E0],"parents":[2147483647,0,0,1,1,4,4],"right_children":[2,4,-1,-1,6,-1,-1],"split_conditions":[2.9093454E1,-1.5284747E1,-7.266812E-3,-6.518266E-3,2.0854101E1,7.079319E-3,6.495879E-4],"split_indices":[2,2,0,0,19,0,0],"split_type":[0,0,0,0,0,0,0],"sum_hessian":[1.5537474E2,1.4774994E2,7.624795E0,3.3814945E0,1.4436845E2,1.4294675E2,1.4217097E0],"tree_param":{"num_deleted":"0","num_feature":"25","num_nodes":"7","size_leaf_vector":"1"}},{"base_weights":[-4.9525097E-1,9.689596E-3,-5.719008E-1,-1.257354E-1,-5.8312444E-3,1.7280026E-3,-3.3823666E-3],"categories":[],"categories_nodes":[],"categories_segments":[],"categories_sizes":[],"default_left":[0,0,0,0,0,0,0],"id":137,"left_children":[1,-1,3,5,-1,-1,-1],"loss_changes":[1.0705559E1,0E0,3.6023712E-1,2.741055E-1,0E0,0E0,0E0],"parents":[2147483647,0,0,2,2,3,3],"right_children":[2,-1,4,6,-1,-1,-1],"split_conditions":[-1.5284747E1,9.689596E-3,1.4525533E0,1.0032365E0,-5.8312444E-3,1.7280026E-3,-3.3823666E-3],"split_indices":[2,0,17,4,0,0,0],"split_type":[0,0,0,0,0,0,0],"sum_hessian":[8.945063E1,3.870608E0,8.5580025E1,2.399445E0,8.318058E1,1.0754333E0,1.3240118E0],"tree_param":{"num_deleted":"0","num_feature":"25","num_nodes":"7","size_leaf_vector":"1"}},{"base_weights":[-4.3697637E-1,-5.6160414E-1,1.0000193E-2,-5.722489E-3,1.7011078E-3],"categories":[],"categories_nodes":[],"categories_segments":[],"categories_sizes":[],"default_left":[0,0,0,0,0],"id":138,"left_children":[1,3,-1,-1,-1],"loss_changes":[1.7454395E1,7.784004E-1,0E0,0E0,0E0],"parents":[2147483647,0,0,1,1],"right_children":[2,4,-1,-1,-1],"split_conditions":[2.9093454E1,2.0854101E1,1.0000193E-2,-5.722489E-3,1.7011078E-3],"split_indices":[2,19,0,0,0],"split_type":[0,0,0,0,0],"sum_hessian":[9.3325874E1,8.643843E1,6.88745E0,8.541379E1,1.0246437E0],"tree_param":{"num_deleted":"0","num_feature":"25","num_nodes":"5","size_leaf_vector":"1"}},{"base_weights":[5.8098394E-1,6.5112E-1,-7.1727633E-3,-6.831767E-3,6.980726E-1,7.042173E-3,6.312837E-4],"categories":[],"categories_nodes":[],"categories_segments":[],"categories_sizes":[],"default_left":[0,0,0,0,0,0,0],"id":139,"left_children":[1,3,-1,-1,5,-1,-1],"loss_changes":[1.4061794E1,9.383968E0,0E0,0E0,4.9332428E-1,0E0,0E0],"parents":[2147483647,0,0,1,1,4,4],"right_children":[2,4,-1,-1,6,-1,-1],"split_conditions":[2.9093454E1,-1.5284747E1,-7.1727633E-3,-6.831767E-3,2.0854101E1,7.042173E-3,6.312837E-4],"split_indices":[2,2,0,0,19,0,0],"split_type":[0,0,0,0,0,0,0],"sum_hessian":[1.4830292E2,1.4117468E2,7.128229E0,4.3383136E0,1.3683636E2,1.3541676E2,1.4196098E0],"tree_param":{"num_deleted":"0","num_feature":"25","num_nodes":"7","size_leaf_vector":"1"}},{"base_weights":[-4.918088E-1,9.604586E-3,-5.7027715E-1,-1.1944208E-1,-5.8151064E-3,-3.2287529E-3,1.3827948E-3],"categories":[],"categories_nodes":[],"categories_segments":[],"categories_sizes":[],"default_left":[0,0,0,0,0,0,0],"id":140,"left_children":[1,-1,3,5,-1,-1,-1],"loss_changes":[1.0571289E1,0E0,3.5635376E-1,2.177963E-1,0E0,0E0,0E0],"parents":[2147483647,0,0,2,2,3,3],"right_children":[2,-1,4,6,-1,-1,-1],"split_conditions":[-1.5284747E1,9.604586E-3,9.672672E-1,9.635758E-1,-5.8151064E-3,-3.2287529E-3,1.3827948E-3],"split_indices":[2,0,14,14,0,0,0],"split_type":[0,0,0,0,0,0,0],"sum_hessian":[8.695916E1,3.8814995E0,8.307767E1,2.3025396E0,8.077512E1,1.1455164E0,1.1570231E0],"tree_param":{"num_deleted":"0","num_feature":"25","num_nodes":"7","size_leaf_vector":"1"}},{"base_weights":[-4.47897E-1,-5.6133324E-1,9.81373E-3,-5.7173376E-3,1.693772E-3],"categories":[],"categories_nodes":[],"categories_segments":[],"categories_sizes":[],"default_left":[0,0,0,0,0],"id":141,"left_children":[1,3,-1,-1,-1],"loss_changes":[1.60842E1,7.7624893E-1,0E0,0E0,0E0],"parents":[2147483647,0,0,1,1],"right_children":[2,4,-1,-1,-1],"split_conditions":[2.9093454E1,2.0837286E1,9.81373E-3,-5.7173376E-3,1.693772E-3],"split_indices":[2,19,0,0,0],"split_type":[0,0,0,0,0],"sum_hessian":[9.480723E1,8.839859E1,6.4086337E0,8.737254E1,1.0260471E0],"tree_param":{"num_deleted":"0","num_feature":"25","num_nodes":"5","size_leaf_vector":"1"}},{"base_weights":[5.8013475E-1,6.444955E-1,-7.072777E-3,-6.9263834E-3,6.957877E-1,7.014918E-1,1.8498335E-3,3.5019647E-3,7.080532E-3],"categories":[],"categories_nodes":[],"categories_segments":[],"categories_sizes":[],"default_left":[0,0,0,0,0,0,0,0,0],