{"learner":{"attributes":{"best_iteration":"40","best_score":"1.0199172330079693","scikit_learn":"{\"_estimator_type\": \"classifier\"}"},"feature_names":["home_elo","away_elo","elo_diff","home_motivation","away_motivation","tactical_synergy","home_injury_impact","away_injury_impact","h_pos","a_pos","pos_diff","h_pass_acc","a_pass_acc","pass_acc_diff","h_xg","a_xg","xg_diff","h_bc","a_bc","bc_diff","h_sot","a_sot","sot_diff","h_shots_off","a_shots_off","h_inner_shots","a_inner_shots","h_int","a_int","int_diff","h_tackles","a_tackles","tackles_diff","h_clear","a_clear","clear_diff","h_def_err","a_def_err","h_saves","a_saves","h_ground_won","a_ground_won","h_aerial_won","a_aerial_won","h_poss_lost","a_poss_lost","lost_diff","h_corners","a_corners","corner_diff","h_fouls","a_fouls","foul_diff","h_cards","a_cards","h_style_enc","a_style_enc","h_mom_gicko","a_mom_gicko","h_att_imp","a_att_imp","news_sent","odds_h","odds_a","temp","rest_h","rest_a","travel_f","is_cup","ta_true_prob_h","ta_true_prob_d","ta_true_prob_a","ta_odds_change_speed_h","ta_odds_change_speed_a","ta_sharp_money_h","ta_sharp_money_a","ta_sharp_money_d","ta_sharp_money_indicator","ta_xg_h","ta_xg_a","ta_sot_h","ta_sot_a","ta_news_impact","ta_news_sentiment","ta_over_25_prob","ta_under_25_prob","ta_expected_total_goals","ta_value_bet_flag","ta_highest_value_index","ta_market_confidence_indicator","ta_team_strength_indicator","ta_momentum_indicator","ta_goal_expectation_indicator","ta_h_rating","ta_a_rating","ta_rating_diff","motivation_context","liquidity_index","data_completeness","v26_momentum_h","v26_momentum_a","v26_momentum_trend","v26_lineups_confirmed","ref_yellow_avg","ref_red_avg","ref_pen_avg","weather_impact","h2h_home_win_rate","h2h_away_win_rate","h2h_draw_rate","h2h_total_matches","h_odds_move_24h","a_odds_move_24h","d_odds_move_24h","market_reliability"],"feature_types":["float","float","float","float","float","float","float","float","float","float","float","float","float","float","float","float","float","float","float","float","float","float","float","float","float","float","float","float","float","float","float","float","float","float","float","float","float","float","float","float","float","float","float","float","float","float","float","float","float","float","float","float","float","float","float","int","int","float","float","float","float","float","float","float","float","float","float","float","float","float","float","float","float","float","float","float","float","float","float","float","float","float","float","float","float","float","float","float","float","float","float","float","float","float","float","float","float","float","float","float","float","float","float","float","float","float","float","float","float","float","float","float","float","float","float"],"gradient_booster":{"model":{"cats":{"enc":[],"feature_segments":[],"sorted_idx":[]},"gbtree_model_param":{"num_parallel_tree":"1","num_trees":"273"},"iteration_indptr":[0,3,6,9,12,15,18,21,24,27,30,33,36,39,42,45,48,51,54,57,60,63,66,69,72,75,78,81,84,87,90,93,96,99,102,105,108,111,114,117,120,123,126,129,132,135,138,141,144,147,150,153,156,159,162,165,168,171,174,177,180,183,186,189,192,195,198,201,204,207,210,213,216,219,222,225,228,231,234,237,240,243,246,249,252,255,258,261,264,267,270,273],"tree_info":[0,1,2,0,1,2,0,1,2,0,1,2,0,1,2,0,1,2,0,1,2,0,1,2,0,1,2,0,1,2,0,1,2,0,1,2,0,1,2,0,1,2,0,1,2,0,1,2,0,1,2,0,1,2,0,1,2,0,1,2,0,1,2,0,1,2,0,1,2,0,1,2,0,1,2,0,1,2,0,1,2,0,1,2,0,1,2,0,1,2,0,1,2,0,1,2,0,1,2,0,1,2,0,1,2,0,1,2,0,1,2,0,1,2,0,1,2,0,1,2,0,1,2,0,1,2,0,1,2,0,1,2,0,1,2,0,1,2,0,1,2,0,1,2,0,1,2,0,1,2,0,1,2,0,1,2,0,1,2,0,1,2,0,1,2,0,1,2,0,1,2,0,1,2,0,1,2,0,1,2,0,1,2,0,1,2,0,1,2,0,1,2,0,1,2,0,1,2,0,1,2,0,1,2,0,1,2,0,1,2,0,1,2,0,1,2,0,1,2,0,1,2,0,1,2,0,1,2,0,1,2,0,1,2,0,1,2,0,1,2,0,1,2,0,1,2,0,1,2,0,1,2,0,1,2,0,1,2,0,1,2,0,1,2,0,1,2,0,1,2,0,1,2],"trees":[{"base_weights":[1.7111553E-1,-3.2059744E-2,8.5195714E-1,-4.1184607E-1,1.8784267E-1,9.8377466E-1,5.102239E-1,-4.6231696E-1,1.830842E-1,-2.7539572E-1,2.5165728E-1,5.1787126E-1,1.0445447E0,-5.1824036E-3,5.7086235E-1,-3.5183203E-1,-7.041621E-1,-1.6792823E-2,5.3040683E-1,-1.8915668E-2,-1.7106271E-1,2.7763203E-2,2.2549963E-1,2.3825152E-2,-6.417587E-2,1.0732367E0,5.25907E-3,-1.5249888E-3,6.118641E-1,-4.126671E-1,3.975401E-1,-2.3019489E-2,-2.6209843E-1,-7.8146765E-3,3.0725094E-2,1.05618045E-1,-4.8648992E-1,1.995246E-1,6.2946695E-1,-1.3999685E-2,1.0949707E-2,5.735068E-1,3.335039E-2,4.3028453E-1,9.8361516E-1,-4.6464752E-2,-4.7434634E-1,2.3424404E-2,8.915904E-2,-1.7674396E-2,1.0949707E-2,-1.5623878E-2,2.9467988E-1,-1.4459364E-1,-1.9747801E-2,2.1522331E-1,-3.7834632E-1,3.1320885E-1,2.532918E-2,5.25907E-3,2.1698406E-2,5.83276E-1,-1.5623878E-2,3.2408554E-2,1.0949707E-2,-1.2118359E-2,1.6699933E-2,-1.1721934E-2,-2.200673E-2,-5.1824036E-3,1.0949707E-2,2.6142018E-2,5.7958293E-4,-1.5249888E-3,-5.1824036E-3,6.942039E-3,-7.862953E-3,-1.5623878E-2,-1.5249888E-3,1.9119762E-2,-5.1824036E-3,1.3334006E-2,2.8097907E-2],"categories":[],"categories_nodes":[],"categories_segments":[],"categories_sizes":[],"default_left":[0,0,0,0,0,0,0,0,0,0,0,0,0,0,0,0,0,0,0,0,0,0,0,0,0,0,0,0,0,0,0,0,0,0,0,0,0,0,0,0,0,0,0,0,0,0,0,0,0,0,0,0,0,0,0,0,0,0,0,0,0,0,0,0,0,0,0,0,0,0,0,0,0,0,0,0,0,0,0,0,0,0,0],"id":0,"left_children":[1,3,5,7,9,11,13,15,17,19,21,23,25,-1,27,29,31,-1,33,-1,35,-1,37,-1,39,41,-1,-1,43,45,47,-1,49,-1,-1,51,53,55,57,-1,-1,59,-1,61,63,65,67,-1,69,-1,-1,-1,71,73,-1,75,77,79,-1,-1,-1,81,-1,-1,-1,-1,-1,-1,-1,-1,-1,-1,-1,-1,-1,-1,-1,-1,-1,-1,-1,-1,-1],"loss_changes":[5.1340706E1,2.401775E1,3.3401604E0,3.250309E0,5.4562144E0,1.1712227E0,1.1679039E0,2.3566132E0,2.6088798E0,7.273289E-1,2.6233501E0,1.4920609E0,1.1215248E0,0E0,6.415038E-1,3.3051624E0,6.243057E-1,0E0,2.8517892E0,0E0,1.6916713E0,0E0,1.511364E0,0E0,8.2838416E-1,3.352661E-1,0E0,0E0,1.0983591E0,1.4284801E0,6.0206866E-1,0E0,1.2844865E0,0E0,0E0,1.4365585E0,4.3107247E-1,1.424449E0,3.444016E-1,0E0,0E0,2.1213782E-1,0E0,2.7660167E0,1.5673637E-3,2.4597979E0,9.022665E-1,0E0,3.7210318E-1,0E0,0E0,0E0,1.4062135E0,2.5113001E-3,0E0,1.1785388E0,1.73114E-1,9.3142885E-1,0E0,0E0,0E0,3.2176352E-1,0E0,0E0,0E0,0E0,0E0,0E0,0E0,0E0,0E0,0E0,0E0,0E0,0E0,0E0,0E0,0E0,0E0,0E0,0E0,0E0,0E0],"parents":[2147483647,0,0,1,1,2,2,3,3,4,4,5,5,6,6,7,7,8,8,9,9,10,10,11,11,12,12,14,14,15,15,16,16,18,18,20,20,22,22,24,24,25,25,28,28,29,29,30,30,32,32,35,35,36,36,37,37,38,38,41,41,43,43,44,44,45,45,46,46,48,48,52,52,53,53,55,55,56,56,57,57,61,61],"right_children":[2,4,6,8,10,12,14,16,18,20,22,24,26,-1,28,30,32,-1,34,-1,36,-1,38,-1,40,42,-1,-1,44,46,48,-1,50,-1,-1,52,54,56,58,-1,-1,60,-1,62,64,66,68,-1,70,-1,-1,-1,72,74,-1,76,78,80,-1,-1,-1,82,-1,-1,-1,-1,-1,-1,-1,-1,-1,-1,-1,-1,-1,-1,-1,-1,-1,-1,-1,-1,-1],"split_conditions":[8E-1,-2E-2,9.4E-1,4E-1,6.6E-1,3.070883E-1,9.7E-1,2.15E0,-1E0,1.8E-1,7.3E-1,1E0,1.515E3,-5.1824036E-3,6.706058E-2,6.6026014E-1,8.405248E-1,-1.6792823E-2,9.3E-1,-1.8915668E-2,6.4E-1,2.7763203E-2,6.4E-1,2.3825152E-2,1.46E0,2.8E-1,5.25907E-3,-1.5249888E-3,3.06E0,2.089186E-1,-6.1E-1,-2.3019489E-2,1.3786751E-1,-7.8146765E-3,3.0725094E-2,3.5E-1,3E-1,5.6E-1,1.8E0,-1.3999685E-2,1.0949707E-2,1.9E0,3.335039E-2,2.94E0,3.69E0,8.1E-1,-2.5E-1,2.3424404E-2,1.69E0,-1.7674396E-2,1.0949707E-2,-1.5623878E-2,4.1E-1,8.9E-1,-1.9747801E-2,1.5007764E3,1.84E0,9.1E-1,2.532918E-2,5.25907E-3,2.1698406E-2,1.34E0,-1.5623878E-2,3.2408554E-2,1.0949707E-2,-1.2118359E-2,1.6699933E-2,-1.1721934E-2,-2.200673E-2,-5.1824036E-3,1.0949707E-2,2.6142018E-2,5.7958293E-4,-1.5249888E-3,-5.1824036E-3,6.942039E-3,-7.862953E-3,-1.5623878E-2,-1.5249888E-3,1.9119762E-2,-5.1824036E-3,1.3334006E-2,2.8097907E-2],"split_indices":[16,16,15,107,15,84,15,15,16,16,15,110,0,0,85,84,84,0,15,0,16,0,16,0,14,15,0,0,14,84,16,0,85,0,0,15,15,16,14,0,0,14,0,14,14,15,16,0,14,0,0,0,15,14,0,1,14,15,0,0,0,16,0,0,0,0,0,0,0,0,0,0,0,0,0,0,0,0,0,0,0,0,0],"split_type":[0,0,0,0,0,0,0,0,0,0,0,0,0,0,0,0,0,0,0,0,0,0,0,0,0,0,0,0,0,0,0,0,0,0,0,0,0,0,0,0,0,0,0,0,0,0,0,0,0,0,0,0,0,0,0,0,0,0,0,0,0,0,0,0,0,0,0,0,0,0,0,0,0,0,0,0,0,0,0,0,0,0,0],"sum_hessian":[3.699486E2,2.8565652E2,8.429208E1,1.0442853E2,1.8122798E2,5.947275E1,2.4819336E1,9.646761E1,7.9609194E0,2.1541311E1,1.5968668E2,7.9609194E0,5.1511833E1,1.8731575E0,2.2946178E1,6.790196E1,2.856565E1,2.3414469E0,5.6194725E0,3.746315E0,1.7794996E1,4.6828938E0,1.5500378E2,5.151183E0,2.8097363E0,4.963867E1,1.8731575E0,1.4048681E0,2.1541311E1,6.3219067E1,4.6828938E0,2.4351048E1,4.2146044E0,2.3414469E0,3.2780256E0,9.834077E0,7.9609194E0,1.4704286E2,7.9609194E0,1.4048681E0,1.4048681E0,4.6828938E0,4.495578E1,1.5921839E1,5.6194725E0,9.3657875E0,5.385328E1,1.4048681E0,3.2780256E0,2.8097363E0,1.4048681E0,1.8731575E0,7.9609194E0,3.2780256E0,4.6828938E0,1.4376483E2,3.2780256E0,4.2146044E0,3.746315E0,1.8731575E0,2.8097363E0,1.4048681E1,1.8731575E0,4.2146044E0,1.4048681E0,6.087762E0,3.2780256E0,4.2614334E1,1.1238945E1,1.8731575E0,1.4048681E0,1.8731575E0,6.087762E0,1.4048681E0,1.8731575E0,1.3955023E2,4.2146044E0,1.8731575E0,1.4048681E0,2.3414469E0,1.8731575E0,1.1707234E1,2.3414469E0],"tree_param":{"num_deleted":"0","num_feature":"115","num_nodes":"83","size_leaf_vector":"1"}},{"base_weights":[-1.6553202E-1,-2.1082704E-1,4.542415E-1,-1.102097E-1,-3.789241E-1,6.336327E-1,-3.5612595E-1,-1.3232967E-1,6.573047E-1,-4.0457025E-1,3.6613178E-1,7.048239E-2,1.111843E0,-1.5351621E-2,1.3128243E-3,-1.0383367E-1,-5.656396E-1,4.819356E-3,2.7241446E-2,-6.058709E-1,-3.4288454E-1,2.0124873E-2,-2.2537243E-3,3.2417926E-1,-3.2158414E-1,3.6442716E-2,1.4492355E-2,-6.3589334E-2,-3.7709618E-1,-1.9347008E-2,1.3128243E-3,-6.422853E-1,1.3128243E-3,-4.104548E-2,-4.1140258E-1,5.759277E-1,-1.1956521E-2,-1.4526643E-2,1.3128243E-3,-1.005967E-1,5.3084075E-1,-1.7126705E-2,-1.5168613E-1,-2.0406367E-2,-2.796768E-1,-3.663945E-1,4.1353032E-1,-4.4539604E-1,1.4492355E-2,7.350409E-1,1.3128243E-3,-3.518768E-3,1.8722832E-2,-1.5351621E-2,2.9612452E-2,1.4492355E-2,-1.00980885E-2,1.3128243E-3,-1.3443022E-2,-1.5970444E-2,1.4582169E-2,2.2051226E-2,1.8618302E-3,-1.0869193E-2,-2.0206643E-2,8.935574E-3,2.7851516E-2],"categories":[],"categories_nodes":[],"categories_segments":[],"categories_sizes":[],"default_left":[0,0,0,0,0,0,0,0,0,0,0,0,0,0,0,0,0,0,0,0,0,0,0,0,0,0,0,0,0,0,0,0,0,0,0,0,0,0,0,0,0,0,0,0,0,0,0,0,0,0,0,0,0,0,0,0,0,0,0,0,0,0,0,0,0,0,0],"id":1,"left_children":[1,3,5,7,9,11,13,15,17,19,21,23,25,-1,-1,27,29,-1,-1,31,33,-1,-1,35,37,-1,-1,39,41,-1,-1,43,-1,45,47,49,-1,-1,-1,51,53,-1,55,-1,57,59,61,63,-1,65,-1,-1,-1,-1,-1,-1,-1,-1,-1,-1,-1,-1,-1,-1,-1,-1,-1],"loss_changes":[9.385636E0,5.185647E0,3.548108E0,3.3933384E0,2.3515835E0,5.0578556E0,3.1996495E-1,2.2888856E0,5.543964E-1,1.1824398E0,6.369E-1,1.0815994E0,7.619858E-2,0E0,0E0,1.9513545E0,5.840306E-1,0E0,0E0,6.184683E-1,1.803051E0,0E0,0E0,1.4055784E0,2.8039014E-1,0E0,0E0,3.5239768E0,9.117696E-1,0E0,0E0,1.3563251E-1,0E0,2.723578E0,2.392499E0,4.0838277E-1,0E0,0E0,0E0,1.8803267E0,4.979002E0,0E0,1.562624E0,0E0,2.343474E-1,1.7677519E0,8.2726336E-1,1.073638E0,0E0,5.668354E-2,0E0,0E0,0E0,0E0,0E0,0E0,0E0,0E0,0E0,0E0,0E0,0E0,0E0,0E0,0E0,0E0,0E0],"parents":[2147483647,0,0,1,1,2,2,3,3,4,4,5,5,6,6,7,7,8,8,9,9,10,10,11,11,12,12,15,15,16,16,19,19,20,20,23,23,24,24,27,27,28,28,31,31,33,33,34,34,35,35,39,39,40,40,42,42,44,44,45,45,46,46,47,47,49,49],"right_children":[2,4,6,8,10,12,14,16,18,20,22,24,26,-1,-1,28,30,-1,-1,32,34,-1,-1,36,38,-1,-1,40,42,-1,-1,44,-1,46,48,50,-1,-1,-1,52,54,-1,56,-1,58,60,62,64,-1,66,-1,-1,-1,-1,-1,-1,-1,-1,-1,-1,-1,-1,-1,-1,-1,-1,-1],"split_conditions":[8.359092E-1,1.42E0,7.5E-1,1.515E3,1.5007764E3,4.1E-1,8.7E-1,1.5E0,1.01E0,4.7148296E-1,1.5165E3,3E-1,1.4751783E-1,-1.5351621E-2,1.3128243E-3,5.4237914E-1,1.24E0,4.819356E-3,2.7241446E-2,8E-1,5.517195E-1,2.0124873E-2,-2.2537243E-3,8E0,8.1E-1,3.6442716E-2,1.4492355E-2,4.8907542E-1,2.4E0,-1.9347008E-2,1.3128243E-3,1.1610854E0,1.3128243E-3,1.89E0,3.75E-1,9.5E-1,-1.1956521E-2,-1.4526643E-2,1.3128243E-3,5E-1,7.5E-1,-1.7126705E-2,2.52E0,-2.0406367E-2,1.9E0,5.4237914E-1,1.1210427E0,1.1116046E0,1.4492355E-2,7.8E-1,1.3128243E-3,-3.518768E-3,1.8722832E-2,-1.5351621E-2,2.9612452E-2,1.4492355E-2,-1.00980885E-2,1.3128243E-3,-1.3443022E-2,-1.5970444E-2,1.4582169E-2,2.2051226E-2,1.8618302E-3,-1.0869193E-2,-2.0206643E-2,8.935574E-3,2.7851516E-2],"split_indices":[85,14,15,0,1,15,15,96,14,84,1,15,84,0,0,84,15,0,0,107,84,0,0,110,14,0,0,84,15,0,0,88,0,14,109,14,0,0,0,109,14,0,15,0,14,84,88,88,0,14,0,0,0,0,0,0,0,0,0,0,0,0,0,0,0,0,0],"split_type":[0,0,0,0,0,0,0,0,0,0,0,0,0,0,0,0,0,0,0,0,0,0,0,0,0,0,0,0,0,0,0,0,0,0,0,0,0,0,0,0,0,0,0,0,0,0,0,0,0,0,0,0,0,0,0,0,0,0,0,0,0,0,0,0,0,0,0],"sum_hessian":[3.299224E2,3.0806766E2,2.185473E1,1.937506E2,1.14317055E2,1.8072182E1,3.7825496E0,1.8912747E2,4.623116E0,1.1095479E2,3.3622663E0,8.825949E0,9.246232E0,2.5216997E0,1.2608498E0,1.7862039E2,1.0507082E1,2.1014163E0,2.5216997E0,2.3956148E1,8.699864E1,1.6811332E0,1.6811332E0,5.4636827E0,3.3622663E0,7.144816E0,2.1014163E0,1.5676567E2,2.185473E1,9.246232E0,1.2608498E0,2.2695297E1,1.2608498E0,1.6391048E1,7.060759E1,4.2028327E0,1.2608498E0,2.1014163E0,1.2608498E0,1.4836E2,8.405665E0,1.0927365E1,1.0927365E1,1.9753315E1,2.941983E0,9.666515E0,6.7245326E0,6.850617E1,2.1014163E0,2.941983E0,1.2608498E0,1.458383E2,2.5216997E0,2.5216997E0,5.883966E0,2.1014163E0,8.825949E0,1.2608498E0,1.6811332E0,8.405665E0,1.2608498E0,2.941983E0,3.7825496E0,5.2115128E1,1.6391048E1,1.6811332E0,1.2608498E0],"tree_param":{"num_deleted":"0","num_feature":"115","num_nodes":"67","size_leaf_vector":"1"}},{"base_weights":[-2.2193387E-2,5.240767E-1,-2.135604E-1,2.2691098E-1,8.514317E-1,-6.668661E-2,-5.447053E-1,-1.811558E-2,3.215822E-1,5.7710874E-1,9.956254E-1,5.262917E-1,-1.0948049E-1,-6.1233544E-1,-1.5912835E-1,2.9217906E-2,2.4270225E-1,8.2321155E-1,1.4871394E-2,3.525706E-2,5.610552E-1,6.7674196E-1,-1.2643613E-2,-3.6082336E-1,-5.9201427E-2,3.0175506E-4,-6.2482965E-1,1.7436804E-1,-3.9981237E-1,2.8630406E-1,-1.4172517E-2,2.6892446E-2,7.593625E-3,7.593625E-3,-1.3394348E-1,-3.5551822E-1,3.3940434E-2,2.160473E-1,9.0124536E-1,1.14427075E-1,-4.8639244E-1,2.5144994E-2,-8.197185E-2,3.0175506E-4,-1.9134883E-2,1.2673445E-2,-5.893668E-3,-1.8426279E-2,3.4938913E-3,7.106528E-1,1.9397661E-1,-1.2643613E-2,3.4938913E-3,3.0175506E-4,-1.5281227E-2,-1.2643613E-2,5.630529E-1,1.2673445E-2,3.4764722E-2,1.2881451E-2,-1.3394348E-1,-5.782724E-1,-1.836858E-1,-5.8519535E-2,-1.8426279E-2,5.3096856E-3,3.33984E-2,1.6628755E-3,1.7316444E-2,2.6192492E-2,3.0175506E-4,3.0175506E-4,-5.893668E-3,3.0175506E-4,-1.8868616E-2,1.3247123E-2,-1.2551201E-2,-2.9733486E-3,1.2194374E-2],"categories":[],"categories_nodes":[],"categories_segments":[],"categories_sizes":[],"default_left":[0,0,0,0,0,0,0,0,0,0,0,0,0,0,0,0,0,0,0,0,0,0,0,0,0,0,0,0,0,0,0,0,0,0,0,0,0,0,0,0,0,0,0,0,0,0,0,0,0,0,0,0,0,0,0,0,0,0,0,0,0,0,0,0,0,0,0,0,0,0,0,0,0,0,0,0,0,0,0],"id":2,"left_children":[1,3,5,7,9,11,13,-1,15,17,19,21,23,25,27,-1,29,31,33,-1,35,37,-1,39,41,-1,43,45,47,49,-1,-1,-1,-1,51,53,-1,55,57,59,61,-1,63,-1,-1,-1,-1,-1,-1,65,67,-1,-1,-1,-1,-1,69,-1,-1,-1,71,73,75,77,-1,-1,-1,-1,-1,-1,-1,-1,-1,-1,-1,-1,-1,-1,-1],"loss_changes":[3.6850437E1,8.704258E0,1.2656493E1,4.0720615E0,1.1325531E0,4.6741757E0,1.9898872E0,0E0,2.074792E0,2.3743763E0,1.441E0,2.0558422E0,2.133416E0,5.3313065E-1,1.1369499E0,0E0,1.4261658E0,2.72995E-1,2.5619733E-1,0E0,5.515871E0,9.5336485E-1,0E0,1.7401466E0,2.9964626E0,0E0,5.547066E-1,6.597693E-1,9.5994663E-1,1.4153891E0,0E0,0E0,0E0,0E0,3.7400556E-1,2.5897104E-1,0E0,1.3328295E0,3.9200687E-1,5.823172E-1,5.2006674E-1,0E0,1.7196492E0,0E0,0E0,0E0,0E0,0E0,0E0,1.244478E0,1.7698818E0,0E0,0E0,0E0,0E0,0E0,6.143968E-1,0E0,0E0,0E0,4.2602845E-2,5.075331E-1,1.1692004E0,2.603871E0,0E0,0E0,0E0,0E0,0E0,0E0,0E0,0E0,0E0,0E0,0E0,0E0,0E0,0E0,0E0],"parents":[2147483647,0,0,1,1,2,2,3,3,4,4,5,5,6,6,8,8,9,9,10,10,11,11,12,12,13,13,14,14,16,16,17,17,18,18,20,20,21,21,23,23,24,24,26,26,27,27,28,28,29,29,34,34,35,35,37,37,38,38,39,39,40,40,42,42,49,49,50,50,56,56,60,60,61,61,62,62,63,63],"right_children":[2,4,6,8,10,12,14,-1,16,18,20,22,24,26,28,-1,30,32,34,-1,36,38,-1,40,42,-1,44,46,48,50,-1,-1,-1,-1,52,54,-1,56,58,60,62,-1,64,-1,-1,-1,-1,-1,-1,66,68,-1,-1,-1,-1,-1,70,-1,-1,-1,72,74,76,78,-1,-1,-1,-1,-1,-1,-1,-1,-1,-1,-1,-1,-1,-1,-1],"split_conditions":[-1.4E-1,1.85E0,8.4E-1,7.5E-1,2.15E0,3.3333334E-1,1.21E0,-1.811558E-2,2.2222222E-1,2.07E0,1.07E0,6.666667E-1,7.5E-1,1.15E0,2.9E0,2.9217906E-2,1.515E3,-4.5E-1,-1.34E0,3.525706E-2,1.42E0,3.3E-1,-1.2643613E-2,3.5E-1,2.774251E-1,3.0175506E-4,2.2222222E-1,1.45E0,1.98E0,4.1E-1,-1.4172517E-2,2.6892446E-2,7.593625E-3,7.593625E-3,9.7E-1,1.27E0,3.3940434E-2,5E-1,1.01E0,8.1E-1,6.5E-1,2.5144994E-2,2.2E0,3.0175506E-4,-1.9134883E-2,1.2673445E-2,-5.893668E-3,-1.8426279E-2,3.4938913E-3,3.1E-1,-2.5E-1,-1.2643613E-2,3.4938913E-3,3.0175506E-4,-1.5281227E-2,-1.2643613E-2,1.62E0,1.2673445E-2,3.4764722E-2,1.2881451E-2,8.9E-1,4.8E-1,7E-1,5.4E-1,-1.8426279E-2,5.3096856E-3,3.33984E-2,1.6628755E-3,1.7316444E-2,2.6192492E-2,3.0175506E-4,3.0175506E-4,-5.893668E-3,3.0175506E-4,-1.8868616E-2,1.3247123E-2,-1.2551201E-2,-2.9733486E-3,1.2194374E-2],"split_indices":[16,15,16,15,15,109,15,0,109,15,14,107,15,14,14,0,0,16,16,0,14,107,0,15,84,0,107,15,16,14,0,0,0,0,14,14,0,108,14,14,16,0,14,0,0,0,0,0,0,14,16,0,0,0,0,0,14,0,0,0,14,14,16,16,0,0,0,0,0,0,0,0,0,0,0,0,0,0,0],"split_type":[0,0,0,0,0,0,0,0,0,0,0,0,0,0,0,0,0,0,0,0,0,0,0,0,0,0,0,0,0,0,0,0,0,0,0,0,0,0,0,0,0,0,0,0,0,0,0,0,0,0,0,0,0,0,0,0,0,0,0,0,0,0,0,0,0,0,0,0,0,0,0,0,0,0,0,0,0,0,0],"sum_hessian":[3.5043668E2,9.046361E1,2.5997308E2,4.830581E1,4.21578E1,1.8092722E2,7.904587E1,4.391437E0,4.391437E1,1.6248318E1,2.590948E1,1.1417737E1,1.6950948E2,6.674985E1,1.2296024E1,3.5131497E0,4.0401222E1,1.0978593E1,5.269725E0,1.7126604E1,8.782874E0,1.0100306E1,1.3174312E0,2.722691E1,1.4228256E2,1.3174312E0,6.543241E1,5.269725E0,7.0262995E0,3.8644646E1,1.7565749E0,9.222018E0,1.7565749E0,1.7565749E0,3.5131497E0,3.5131497E0,5.269725E0,3.9522934E0,6.148012E0,5.7088685E0,2.1518042E1,2.6348624E0,1.396477E2,1.3174312E0,6.411498E1,3.074006E0,2.1957185E0,4.8305807E0,2.1957185E0,5.7088685E0,3.293578E1,1.3174312E0,2.1957185E0,1.3174312E0,2.1957185E0,1.3174312E0,2.6348624E0,3.074006E0,3.074006E0,2.1957185E0,3.5131497E0,1.5809174E1,5.7088685E0,1.3481712E2,4.8305807E0,3.074006E0,2.6348624E0,2.5031193E1,7.904587E0,1.3174312E0,1.3174312E0,1.3174312E0,2.1957185E0,1.3174312E0,1.4491743E1,1.3174312E0,4.391437E0,1.2471681E2,1.0100306E1],"tree_param":{"num_deleted":"0","num_feature":"115","num_nodes":"79","size_leaf_vector":"1"}},{"base_weights":[1.69268E-1,-3.8555145E-2,7.969917E-1,-4.1131273E-1,1.8019252E-1,8.812863E-1,2.740756E-1,-3.0407807E-1,-6.6673625E-1,-3.166785E-1,2.486512E-1,-5.363483E-3,9.086265E-1,2.1422738E-2,1.0865705E-1,3.2248726E-1,-3.362952E-1,-2.2543954E-2,-4.2643437E-1,-1.1007864E-1,-4.4348252E-1,1.9232996E-1,4.864124E-1,9.267409E-1,-1.6619066E-3,-1.7773211E-2,3.9385134E-1,2.320289E-2,-5.0760116E-3,-3.6294436E-1,9.969836E-3,1.0887646E-2,-5.916552E-1,-4.2330182E-1,1.87689E-2,-2.0467408E-2,-1.6110095E-1,1.4819781E-1,1.7748512E-2,7.3093593E-1,3.0144235E-1,3.080302E-1,9.4995505E-1,1.1078789E-1,6.2243587E-1,-2.8275838E-1,-5.537492E-1,-1.4451577E-3,-2.0597324E-2,-1.9189676E-2,1.1903673E-3,1.3704285E-2,-1.8769588E-2,2.470056E-2,1.1909389E-1,9.750672E-1,-6.597725E-2,-1.771309E-2,4.9475235E-1,1.5177554E-2,-1.7089155E-3,2.896984E-2,9.833535E-3,9.861554E-3,-5.4279943E-3,-1.6504672E-3,2.770229E-2,-1.2294949E-2,1.7635358E-2,-6.6101565E-3,-2.0023648E-2,4.027869E-3,-1.5708344E-2,-1.5663314E-3,3.4833547E-2,-1.4047403E-2,1.09185865E-2,-6.1230164E-4,2.222573E-2],"categories":[],"categories_nodes":[],"categories_segments":[],"categories_sizes":[],"default_left":[0,0,0,0,0,0,0,0,0,0,0,0,0,0,0,0,0,0,0,0,0,0,0,0,0,0,0,0,0,0,0,0,0,0,0,0,0,0,0,0,0,0,0,0,0,0,0,0,0,0,0,0,0,0,0,0,0,0,0,0,0,0,0,0,0,0,0,0,0,0,0,0,0,0,0,0,0,0,0],"id":3,"left_children":[1,3,5,7,9,11,13,15,17,19,21,-1,23,-1,25,27,29,-1,31,33,35,37,39,41,-1,-1,43,-1,-1,45,-1,-1,47,49,-1,-1,51,53,-1,55,57,59,61,63,65,67,69,-1,-1,-1,-1,-1,-1,-1,71,73,75,-1,77,-1,-1,-1,-1,-1,-1,-1,-1,-1,-1,-1,-1,-1,-1,-1,-1,-1,-1,-1,-1],"loss_changes":[4.986299E1,2.355189E1,3.9484558E0,2.722145E0,6.2744126E0,2.5218887E0,9.885441E-1,1.6637621E0,3.0537033E-1,5.405426E-1,2.057685E0,0E0,1.440094E0,0E0,2.597699E0,1.0794976E0,1.43507E0,0E0,1.5612249E0,2.5430512E0,8.0773187E-1,2.2301602E0,1.1416388E0,8.2935333E-1,0E0,0E0,5.1378274E-1,0E0,0E0,9.361477E-1,0E0,0E0,4.2697787E-1,7.797065E-1,0E0,0E0,2.4515288E0,2.2555428E0,0E0,2.4508348E0,3.541307E0,3.397468E-1,4.1453552E-1,3.9262047E-1,1.0225834E0,6.0302815E0,6.145539E-1,0E0,0E0,0E0,0E0,0E0,0E0,0E0,1.2011396E0,1.8674269E0,8.2991105E-1,0E0,2.047826E0,0E0,0E0,0E0,0E0,0E0,0E0,0E0,0E0,0E0,0E0,0E0,0E0,0E0,0E0,0E0,0E0,0E0,0E0,0E0,0E0],"parents":[2147483647,0,0,1,1,2,2,3,3,4,4,5,5,6,6,7,7,8,8,9,9,10,10,12,12,14,14,15,15,16,16,18,18,19,19,20,20,21,21,22,22,23,23,26,26,29,29,32,32,33,33,36,36,37,37,39,39,40,40,41,41,42,42,43,43,44,44,45,45,46,46,54,54,55,55,56,56,58,58],"right_children":[2,4,6,8,10,12,14,16,18,20,22,-1,24,-1,26,28,30,-1,32,34,36,38,40,42,-1,-1,44,-1,-1,46,-1,-1,48,50,-1,-1,52,54,-1,56,58,60,62,64,66,68,70,-1,-1,-1,-1,-1,-1,-1,72,74,76,-1,78,-1,-1,-1,-1,-1,-1,-1,-1,-1,-1,-1,-1,-1,-1,-1,-1,-1,-1,-1,-1],"split_conditions":[8E-1,-2E-2,1.25E0,2.15E0,6.6E-1,1.6409083E-1,1.07E0,3E-1,1.27E0,4.1E-1,1.09E0,-5.363483E-3,3.75E-1,2.1422738E-2,2.77E0,2E-1,6.8099844E-1,-2.2543954E-2,-1.71E0,3.5E-1,4.2E-1,1.5E0,2.1E-1,8.4E-1,-1.6619066E-3,-1.7773211E-2,1.0511737E0,2.320289E-2,-5.0760116E-3,-2.5E-1,9.969836E-3,1.0887646E-2,2.2222222E-1,7E-1,1.87689E-2,-2.0467408E-2,6.4E-1,7.2E-1,1.7748512E-2,1.77E0,2.5E-1,1.46E0,8E-1,1.55E0,1.3E0,-3.5E-1,6.7E-1,-1.4451577E-3,-2.0597324E-2,-1.9189676E-2,1.1903673E-3,1.3704285E-2,-1.8769588E-2,2.470056E-2,1.06E0,0E0,1.85E0,-1.771309E-2,1.75E0,1.5177554E-2,-1.7089155E-3,2.896984E-2,9.833535E-3,9.861554E-3,-5.4279943E-3,-1.6504672E-3,2.770229E-2,-1.2294949E-2,1.7635358E-2,-6.6101565E-3,-2.0023648E-2,4.027869E-3,-1.5708344E-2,-1.5663314E-3,3.4833547E-2,-1.4047403E-2,1.09185865E-2,-6.1230164E-4,2.222573E-2],"split_indices":[16,16,15,15,15,84,16,108,14,15,15,0,109,0,14,109,84,0,16,15,16,96,16,16,0,0,88,0,0,16,0,0,109,16,0,0,16,15,0,15,16,14,107,16,15,16,14,0,0,0,0,0,0,0,15,16,14,0,14,0,0,0,0,0,0,0,0,0,0,0,0,0,0,0,0,0,0,0,0],"split_type":[0,0,0,0,0,0,0,0,0,0,0,0,0,0,0,0,0,0,0,0,0,0,0,0,0,0,0,0,0,0,0,0,0,0,0,0,0,0,0,0,0,0,0,0,0,0,0,0,0,0,0,0,0,0,0,0,0,0,0,0,0,0,0,0,0,0,0,0,0,0,0,0,0,0,0,0,0,0,0],"sum_hessian":[3.8098663E2,2.8693005E2,9.4056564E1,1.0578556E2,1.811445E2,8.040919E1,1.3647375E1,7.604854E1,2.9737022E1,2.1496653E1,1.5964784E2,1.8824178E0,7.852677E1,2.8225303E0,1.0824845E1,3.2784624E0,7.277007E1,2.0412529E1,9.324495E0,8.8863535E0,1.2610298E1,1.3053535E2,2.9112497E1,7.7116394E1,1.4103739E0,2.8185759E0,8.006269E0,1.4111977E0,1.8672647E0,7.042052E1,2.3495603E0,1.4068016E0,7.917693E0,6.5306187E0,2.3557348E0,6.0655756E0,6.5447226E0,1.1877826E2,1.1757089E1,1.1266696E1,1.78458E1,3.304805E0,7.381159E1,4.2401843E0,3.7660847E0,5.133066E1,1.9089851E1,1.4013971E0,6.5162964E0,4.190681E0,2.339938E0,2.8159003E0,3.7288222E0,3.780809E0,1.1499745E2,8.453458E0,2.8132389E0,2.8130083E0,1.5032792E1,1.8925972E0,1.4122078E0,7.145566E1,2.3559363E0,2.3544583E0,1.885726E0,1.4098687E0,2.3562162E0,4.5254566E1,6.0760965E0,5.6018305E0,1.3488021E1,1.1311884E2,1.8786062E0,1.4065553E0,7.046902E0,1.40733E0,1.4059088E0,5.1563272E0,9.876465E0],"tree_param":{"num_deleted":"0","num_feature":"115","num_nodes":"79","size_leaf_vector":"1"}},{"base_weights":[-1.3602564E-1,4.685587E-3,-4.086401E-1,4.2573777E-1,-7.9351954E-2,-4.284274E-1,3.3746523E-1,1.0650915E-1,7.206545E-1,-5.115567E-1,-4.539039E-2,-4.4714743E-1,1.3803668E-1,-1.1938606E-2,2.7635038E-2,4.2635304E-1,-2.3746386E-1,3.2792234E-1,1.0525826E0,-1.7162254E-2,1.2959102E-3,-8.168727E-3,-5.038463E-1,-4.615991E-1,8.950225E-3,-1.33651085E-2,2.001568E-2,7.208358E-1,7.424683E-4,8.719478E-3,-3.8273457E-1,-2.806328E-1,6.1114645E-1,3.6019832E-2,8.758081E-4,1.9023994E-2,-4.347943E-1,-1.9364247E-2,4.832536E-3,-5.79644E-1,-3.7403834E-1,-2.2241229E-3,3.1264294E-2,-1.1942302E-2,2.2943203E-1,-1.5071364E-1,-1.6509287E-2,-1.3455821E-2,1.2703731E-3,2.4802346E-2,-2.1717364E-3,2.4256535E-2,2.7788596E-3,-5.112518E-1,1.4156156E-3,-1.797682E-2,1.4453197E-3,4.9711946E-2,-4.6931568E-1,1.4651591E-2,-2.232044E-3,-1.537506E-2,1.4296646E-2,-3.5749245E-4,1.8736493E-2,1.3671317E-3,-1.8415505E-2,-1.3279809E-2,1.4213945E-2,-1.6280564E-2,9.187612E-4],"categories":[],"categories_nodes":[],"categories_segments":[],"categories_sizes":[],"default_left":[0,0,0,0,0,0,0,0,0,0,0,0,0,0,0,0,0,0,0,0,0,0,0,0,0,0,0,0,0,0,0,0,0,0,0,0,0,0,0,0,0,0,0,0,0,0,0,0,0,0,0,0,0,0,0,0,0,0,0,0,0,0,0,0,0,0,0,0,0,0,0],"id":4,"left_children":[1,3,5,7,9,11,13,15,17,19,21,23,25,-1,-1,27,29,31,33,-1,-1,35,37,39,-1,-1,-1,41,43,-1,45,47,49,-1,-1,51,53,-1,-1,55,57,-1,-1,-1,59,61,-1,-1,-1,-1,-1,-1,63,65,-1,-1,-1,67,69,-1,-1,-1,-1,-1,-1,-1,-1,-1,-1,-1,-1],"loss_changes":[1.2945955E1,7.9439015E0,1.8407059E0,3.4397407E0,2.7245371E0,1.2532101E0,1.8808452E0,2.2036707E0,2.1631584E0,4.7930574E-1,2.9763234E0,1.3120422E0,1.6430602E0,0E0,0E0,1.285401E0,8.669208E-1,1.9409478E0,1.4766645E0,0E0,0E0,1.8941294E0,1.337549E0,8.924713E-1,0E0,0E0,0E0,1.6259713E0,5.6531566E-1,0E0,2.341969E-1,2.3295793E-1,1.1386435E0,0E0,0E0,1.9700803E0,3.8461626E-1,0E0,0E0,5.6843185E-1,2.6248388E0,0E0,0E0,0E0,3.461189E-1,1.3330235E0,0E0,0E0,0E0,0E0,0E0,0E0,1.3933494E0,5.15146E-1,0E0,0E0,0E0,2.8684022E0,1.9497967E0,0E0,0E0,0E0,0E0,0E0,0E0,0E0,0E0,0E0,0E0,0E0,0E0],"parents":[2147483647,0,0,1,1,2,2,3,3,4,4,5,5,6,6,7,7,8,8,9,9,10,10,11,11,12,12,15,15,16,16,17,17,18,18,21,21,22,22,23,23,27,27,28,28,30,30,31,31,32,32,35,35,36,36,39,39,40,40,44,44,45,45,52,52,53,53,57,57,58,58],"right_children":[2,4,6,8,10,12,14,16,18,20,22,24,26,-1,-1,28,30,32,34,-1,-1,36,38,40,-1,-1,-1,42,44,-1,46,48,50,-1,-1,52,54,-1,-1,56,58,-1,-1,-1,60,62,-1,-1,-1,-1,-1,-1,64,66,-1,-1,-1,68,70,-1,-1,-1,-1,-1,-1,-1,-1,-1,-1,-1,-1],"split_conditions":[1.42E0,7.4E-1,3.75E-1,4.5E-1,3.4E-1,1.5007764E3,6.3E-1,3E-1,1.1063823E0,1.36E0,1.5E0,8E-1,1.24E0,-1.1938606E-2,2.7635038E-2,1.383068E-1,4.6E-1,2.2182274E-1,9.554098E-1,-1.7162254E-2,1.2959102E-3,1.1568049E0,1.18E0,1.88E0,8.950225E-3,-1.33651085E-2,2.001568E-2,3.3E-1,1.17E0,8.719478E-3,1.4985107E-1,9.5E-1,1.32E0,3.6019832E-2,8.758081E-4,3.3E-1,7.3E-1,-1.9364247E-2,4.832536E-3,7E-1,5.4237914E-1,-2.2241229E-3,3.1264294E-2,-1.1942302E-2,1.3E0,1.09854884E-1,-1.6509287E-2,-1.3455821E-2,1.2703731E-3,2.4802346E-2,-2.1717364E-3,2.4256535E-2,1E0,1.8E-1,1.4156156E-3,-1.797682E-2,1.4453197E-3,4.7148296E-1,2.01E0,1.4651591E-2,-2.232044E-3,-1.537506E-2,1.4296646E-2,-3.5749245E-4,1.8736493E-2,1.3671317E-3,-1.8415505E-2,-1.3279809E-2,1.4213945E-2,-1.6280564E-2,9.187612E-4],"split_indices":[14,15,109,15,109,1,15,15,88,14,96,107,15,0,0,84,14,84,85,0,0,88,15,14,0,0,0,107,14,0,84,14,14,0,0,14,14,0,0,108,84,0,0,0,14,84,0,0,0,0,0,0,68,14,0,0,0,84,15,0,0,0,0,0,0,0,0,0,0,0,0],"split_type":[0,0,0,0,0,0,0,0,0,0,0,0,0,0,0,0,0,0,0,0,0,0,0,0,0,0,0,0,0,0,0,0,0,0,0,0,0,0,0,0,0,0,0,0,0,0,0,0,0,0,0,0,0,0,0,0,0,0,0,0,0,0,0,0,0,0,0,0,0,0,0],"sum_hessian":[3.3643668E2,2.2254951E2,1.1388716E2,3.635159E1,1.8619792E2,1.113596E2,2.527564E0,1.810991E1,1.8241678E1,1.2540542E1,1.7365738E2,1.080011E2,3.3584971E0,1.2592436E0,1.2683204E0,9.259994E0,8.849916E0,9.266103E0,8.975575E0,1.1278896E1,1.2616458E0,1.615584E2,1.2098978E1,1.0632082E2,1.6802738E0,1.6723452E0,1.6861521E0,5.0631294E0,4.1968637E0,1.6933211E0,7.1565948E0,2.9457686E0,6.3203344E0,7.6897E0,1.2858754E0,1.5277602E2,8.782393E0,9.998568E0,2.1004105E0,4.2885235E1,6.343559E1,1.678781E0,3.3843484E0,1.259571E0,2.937293E0,3.7977242E0,3.3588707E0,1.6824536E0,1.263315E0,4.645548E0,1.6747863E0,2.0968215E0,1.5067918E2,7.5275564E0,1.2548372E0,4.1632168E1,1.2530675E0,1.1732592E1,5.1703E1,1.2578366E0,1.6794565E0,2.524586E0,1.2731382E0,1.4815837E2,2.5208213E0,1.2576823E0,6.2698736E0,5.408926E0,6.323665E0,4.501172E1,6.691278E0],"tree_param":{"num_deleted":"0","num_feature":"115","num_nodes":"71","size_leaf_vector":"1"}},{"base_weights":[-3.873868E-2,4.6372175E-1,-2.3618376E-1,6.972289E-1,7.936547E-2,-8.380174E-2,-5.5860275E-1,3.4826573E-2,5.611796E-1,-5.181866E-1,2.2212373E-1,5.266601E-1,-1.2564102E-1,-6.387451E-1,-1.2156772E-1,7.014909E-1,2.8972432E-1,-1.8732015E-2,3.1823386E-4,-2.2264448E-1,4.864834E-1,8.283479E-3,6.790245E-1,-1.6337109E-1,1.18475795E-1,3.9618814E-4,-6.513672E-1,1.4686048E-1,-3.7521368E-1,1.0377158E0,5.33426E-1,-5.929985E-2,3.262357E-2,2.7544734E-1,-3.7875584E-1,2.9457307E-1,8.446133E-1,1.31193735E-2,-1.27246445E-2,7.954245E-1,1.5905227E-4,-1.3997856E-1,-1.8824792E-2,-1.7540187E-1,4.0096807E-1,-1.992081E-2,-3.151229E-3,4.1755244E-1,-1.312538E-1,-1.8267663E-2,7.537778E-3,7.068506E-3,3.5543364E-2,-7.188286E-2,6.2605083E-1,2.8285584E-1,-4.8353907E-1,1.2914976E-2,6.341785E-5,-1.0474126E-1,-1.8165173E-2,5.837044E-1,-3.1808868E-2,3.012873E-2,7.5040185E-3,2.852519E-1,3.0255642E-2,-3.3463213E-1,-1.0348103E-1,6.3229196E-2,-4.3868473E-1,3.124084E-2,1.4996721E-1,2.1551448E-4,1.8339736E-2,-1.5229519E-2,1.3328897E-2,-1.2649347E-2,7.4155293E-3,1.3456366E-2,3.4911126E-2,1.674469E-2,1.9048825E-3,-1.7788555E-2,-3.3567587E-3,7.46465E-3,-9.542612E-3,2.4028866E-2,-3.585817E-3,-8.251845E-3,1.26443375E-2,1.31313875E-2,2.8490977E-4,1.3252682E-2,-1.2206633E-2,-1.7302206E-2,-2.5226574E-3,-2.936466E-3,1.321622E-2,-1.598984E-2,-5.826742E-3,1.2242929E-2,-5.575911E-3],"categories":[],"categories_nodes":[],"categories_segments":[],"categories_sizes":[],"default_left":[0,0,0,0,0,0,0,0,0,0,0,0,0,0,0,0,0,0,0,0,0,0,0,0,0,0,0,0,0,0,0,0,0,0,0,0,0,0,0,0,0,0,0,0,0,0,0,0,0,0,0,0,0,0,0,0,0,0,0,0,0,0,0,0,0,0,0,0,0,0,0,0,0,0,0,0,0,0,0,0,0,0,0,0,0,0,0,0,0,0,0,0,0,0,0,0,0,0,0,0,0,0,0],"id":5,"left_children":[1,3,5,7,9,11,13,-1,15,17,19,21,23,25,27,29,31,-1,-1,33,35,37,39,41,43,-1,45,47,49,51,53,55,-1,57,59,61,63,-1,-1,65,-1,67,-1,69,71,-1,-1,73,75,-1,-1,-1,-1,77,79,81,83,-1,-1,85,-1,87,89,-1,-1,91,-1,93,95,97,99,-1,101,-1,-1,-1,-1,-1,-1,-1,-1,-1,-1,-1,-1,-1,-1,-1,-1,-1,-1,-1,-1,-1,-1,-1,-1,-1,-1,-1,-1,-1,-1],"loss_changes":[3.5952793E1,9.122412E0,1.2728872E1,3.3531284E0,3.5081193E0,4.6062703E0,2.839178E0,0E0,1.7399426E0,4.5426393E-1,3.9654665E0,9.1009736E-1,1.5590034E0,5.8577347E-1,1.017835E0,1.3072357E0,5.3791428E0,0E0,0E0,1.1086102E0,1.1868973E0,8.619311E-1,6.974969E-1,1.488646E0,1.9761857E0,0E0,4.062748E-1,6.2609303E-1,1.2586238E0,8.9061356E-1,1.3913307E0,2.2018785E0,0E0,1.542449E-1,5.737227E-1,1.4469597E0,3.8980198E-1,0E0,0E0,5.4106903E-1,0E0,9.566028E-1,0E0,7.783675E-1,1.7742455E0,0E0,0E0,3.2041788E-1,1.2012244E0,0E0,0E0,0E0,0E0,5.599709E-1,1.4754267E0,4.7824812E-1,2.0693326E-1,0E0,0E0,5.206082E-1,0E0,1.3299096E0,1.0044948E0,0E0,0E0,1.4889151E-1,0E0,1.390485E0,1.0431081E0,4.772267E-1,3.0343771E-2,0E0,9.2506117E-1,0E0,0E0,0E0,0E0,0E0,0E0,0E0,0E0,0E0,0E0,0E0,0E0,0E0,0E0,0E0,0E0,0E0,0E0,0E0,0E0,0E0,0E0,0E0,0E0,0E0,0E0,0E0,0E0,0E0,0E0],"parents":[2147483647,0,0,1,1,2,2,3,3,4,4,5,5,6,6,8,8,9,9,10,10,11,11,12,12,13,13,14,14,15,15,16,16,19,19,20,20,21,21,22,22,23,23,24,24,26,26,27,27,28,28,29,29,30,30,31,31,33,33,34,34,35,35,36,36,39,39,41,41,43,43,44,44,47,47,48,48,53,53,54,54,55,55,56,56,59,59,61,61,62,62,65,65,67,67,68,68,69,69,70,70,72,72],"right_children":[2,4,6,8,10,12,14,-1,16,18,20,22,24,26,28,30,32,-1,-1,34,36,38,40,42,44,-1,46,48,50,52,54,56,-1,58,60,62,64,-1,-1,66,-1,68,-1,70,72,-1,-1,74,76,-1,-1,-1,-1,78,80,82,84,-1,-1,86,-1,88,90,-1,-1,92,-1,94,96,98,100,-1,102,-1,-1,-1,-1,-1,-1,-1,-1,-1,-1,-1,-1,-1,-1,-1,-1,-1,-1,-1,-1,-1,-1,-1,-1,-1,-1,-1,-1,-1,-1],"split_conditions":[-2E-2,6.2271374E-1,8.4E-1,6.7E-1,7.5E-1,3.3333334E-1,1.21E0,3.4826573E-2,4.5527518E-1,3.3333334E-1,7.0372033E-1,9E0,5.6E-1,1.6409083E-1,1.34E0,1.11E0,-2.3E-1,-1.8732015E-2,3.1823386E-4,-1.38E0,6.9E-1,4E0,5.555556E-1,5E-1,7.2E-1,3.9618814E-4,3.75E-1,1.45E0,1.94E0,7.5E-1,-1.41E0,1.01E0,3.262357E-2,3.4766787E-1,1E0,-6.1E-1,2.7205822E-1,1.31193735E-2,-1.27246445E-2,2E-2,1.5905227E-4,9.9E-1,-1.8824792E-2,5.7E-1,6.4E-1,-1.992081E-2,-3.151229E-3,1.03E0,1.74E0,-1.8267663E-2,7.537778E-3,7.068506E-3,3.5543364E-2,3.28E0,8.207194E-1,1.62E0,1.11E0,1.2914976E-2,6.341785E-5,1.32E0,-1.8165173E-2,2.4806543E-1,-3.2E-1,3.012873E-2,7.5040185E-3,2.5E-1,3.0255642E-2,-7.5E0,-7.5E0,5.2E-1,6.7E-1,3.124084E-2,5.4237914E-1,2.1551448E-4,1.8339736E-2,-1.5229519E-2,1.3328897E-2,-1.2649347E-2,7.4155293E-3,1.3456366E-2,3.4911126E-2,1.674469E-2,1.9048825E-3,-1.7788555E-2,-3.3567587E-3,7.46465E-3,-9.542612E-3,2.4028866E-2,-3.585817E-3,-8.251845E-3,1.26443375E-2,1.31313875E-2,2.8490977E-4,1.3252682E-2,-1.2206633E-2,-1.7302206E-2,-2.5226574E-3,-2.936466E-3,1.321622E-2,-1.598984E-2,-5.826742E-3,1.2242929E-2,-5.575911E-3],"split_indices":[16,85,16,78,15,109,15,0,85,107,85,110,16,84,16,78,16,0,0,16,78,110,108,16,15,0,109,15,16,78,16,78,0,84,87,16,84,0,0,16,0,15,0,15,16,0,0,16,15,0,0,0,0,15,84,15,78,0,0,15,0,84,16,0,0,108,0,2,2,15,16,0,84,0,0,0,0,0,0,0,0,0,0,0,0,0,0,0,0,0,0,0,0,0,0,0,0,0,0,0,0,0,0],"split_type":[0,0,0,0,0,0,0,0,0,0,0,0,0,0,0,0,0,0,0,0,0,0,0,0,0,0,0,0,0,0,0,0,0,0,0,0,0,0,0,0,0,0,0,0,0,0,0,0,0,0,0,0,0,0,0,0,0,0,0,0,0,0,0,0,0,0,0,0,0,0,0,0,0,0,0,0,0,0,0,0,0,0,0,0,0,0,0,0,0,0,0,0,0,0,0,0,0,0,0,0,0,0,0],"sum_hessian":[3.602929E2,1.0125908E2,2.5903384E2,6.2484177E1,3.87749E1,1.767554E2,8.227843E1,1.2466262E1,5.0017914E1,6.970061E0,3.1804838E1,1.059403E1,1.6616138E2,6.913845E1,1.3139979E1,3.192972E1,1.8088194E1,5.653664E0,1.3163968E0,1.1915527E1,1.988931E1,2.6460311E0,7.9479995E0,1.4420428E2,2.1957085E1,1.3122503E0,6.7826195E1,6.588505E0,6.551474E0,8.916724E0,2.3012995E1,1.3226823E1,4.8613715E0,2.660967E0,9.2545595E0,1.413653E1,5.752782E0,1.3225935E0,1.3234377E0,6.6230803E0,1.3249189E0,1.3852405E2,5.6802487E0,1.0947477E1,1.1009606E1,6.607953E1,1.7466693E0,3.0847301E0,3.503775E0,4.791864E0,1.7596103E0,1.7847325E0,7.131992E0,3.083841E0,1.9929153E1,7.5062094E0,5.720614E0,1.330964E0,1.330003E0,4.8525043E0,4.4020557E0,7.0779715E0,7.0585585E0,3.9913406E0,1.7614409E0,2.640381E0,3.9826992E0,2.0582424E1,1.1794162E2,6.141166E0,4.806311E0,2.2134542E0,8.796152E0,1.3220272E0,1.762703E0,2.1897206E0,1.3140543E0,1.3177874E0,1.7660537E0,1.636165E1,3.5675032E0,2.6437607E0,4.862448E0,3.9594755E0,1.7611384E0,1.7635741E0,3.08893E0,5.301227E0,1.7767448E0,4.849369E0,2.2091897E0,1.32209E0,1.3182912E0,1.3170375E0,1.9265387E1,3.5112631E0,1.1443036E2,4.8225327E0,1.3186338E0,2.6165724E0,2.189739E0,4.851752E0,3.9444003E0],"tree_param":{"num_deleted":"0","num_feature":"115","num_nodes":"103","size_leaf_vector":"1"}},{"base_weights":[1.2645398E-1,-6.770067E-2,7.080998E-1,-3.8161415E-1,1.2954397E-1,2.327776E-1,7.759377E-1,-2.75281E-1,-6.5567464E-1,-4.5259452E-1,1.6828763E-1,3.9968336E-1,-1.5429634E-2,8.5894066E-1,3.345448E-1,-3.1708646E-1,5.4443115E-1,-7.1151644E-1,-2.4993326E-1,-1.96865E-2,-1.765805E-1,-3.438367E-1,1.8691508E-1,-7.740726E-3,5.976437E-1,7.785716E-1,3.4765635E-2,2.2928853E-2,1.4203942E-1,3.082294E-1,-3.656775E-1,5.0071725E-3,2.3097549E-2,-2.2414865E-2,-4.889127E-3,1.0843534E-2,-1.723351E-2,2.2523137E-2,-1.8550199E-2,1.1819277E-3,-1.7686319E-2,1.5938866E-1,5.164967E-1,8.2737577E-1,-5.4306993E-3,1.0696857E0,6.42175E-1,-1.764189E-2,4.4979966E-1,-1.3682148E-2,6.269279E-1,-2.6342428E-1,-6.391756E-1,5.452948E-1,1.3226832E-1,1.8056381E-2,-1.972651E-3,4.3187532E-1,2.9649377E-2,1.0479301E-2,3.340679E-2,-5.5026836E-3,6.8616045E-1,8.311052E-4,6.056904E-1,2.7667554E-2,-1.4207205E-3,-1.1440942E-2,1.7310211E-2,-4.01241E-3,-2.2044215E-2,2.2290759E-2,-5.085991E-3,2.9396988E-3,1.360391E-2,-1.9677524E-3,2.2498861E-2,2.696913E-4,2.1879839E-2,4.8167584E-3,2.2905825E-2],"categories":[],"categories_nodes":[],"categories_segments":[],"categories_sizes":[],"default_left":[0,0,0,0,0,0,0,0,0,0,0,0,0,0,0,0,0,0,0,0,0,0,0,0,0,0,0,0,0,0,0,0,0,0,0,0,0,0,0,0,0,0,0,0,0,0,0,0,0,0,0,0,0,0,0,0,0,0,0,0,0,0,0,0,0,0,0,0,0,0,0,0,0,0,0,0,0,0,0,0,0],"id":6,"left_children":[1,3,5,7,9,11,13,15,17,19,21,23,-1,25,27,29,31,33,35,-1,37,39,41,-1,43,45,-1,-1,47,49,51,-1,-1,-1,-1,-1,-1,-1,-1,-1,-1,53,55,57,-1,59,61,-1,63,-1,65,67,69,71,73,-1,-1,75,-1,-1,-1,-1,77,-1,79,-1,-1,-1,-1,-1,-1,-1,-1,-1,-1,-1,-1,-1,-1,-1,-1],"loss_changes":[4.2759045E1,1.766327E1,2.8742523E0,3.0258121E0,4.033225E0,1.8591576E0,2.7344093E0,2.9481235E0,5.02614E-1,5.146673E-1,1.6404696E0,1.6387726E0,0E0,7.5575256E-1,1.106976E0,2.4734373E0,2.373941E-1,3.8383102E-1,1.2343228E0,0E0,2.9759178E0,6.024317E-1,1.3699245E0,0E0,1.7715127E0,1.5881233E0,0E0,0E0,2.8205898E0,1.7826506E0,1.8605576E0,0E0,0E0,0E0,0E0,0E0,0E0,0E0,0E0,0E0,0E0,1.4892206E0,6.308086E-1,3.0180931E-2,0E0,1.4130211E-1,1.6335487E0,0E0,5.470706E-1,0E0,9.910619E-1,5.6229153E0,8.221116E-1,1.4652724E0,1.5047729E0,0E0,0E0,6.588478E-1,0E0,0E0,0E0,0E0,1.151865E0,0E0,3.137076E-1,0E0,0E0,0E0,0E0,0E0,0E0,0E0,0E0,0E0,0E0,0E0,0E0,0E0,0E0,0E0,0E0],"parents":[2147483647,0,0,1,1,2,2,3,3,4,4,5,5,6,6,7,7,8,8,9,9,10,10,11,11,13,13,14,14,15,15,16,16,17,17,18,18,20,20,21,21,22,22,24,24,25,25,28,28,29,29,30,30,41,41,42,42,43,43,45,45,46,46,48,48,50,50,51,51,52,52,53,53,54,54,57,57,62,62,64,64],"right_children":[2,4,6,8,10,12,14,16,18,20,22,24,-1,26,28,30,32,34,36,-1,38,40,42,-1,44,46,-1,-1,48,50,52,-1,-1,-1,-1,-1,-1,-1,-1,-1,-1,54,56,58,-1,60,62,-1,64,-1,66,68,70,72,74,-1,-1,76,-1,-1,-1,-1,78,-1,80,-1,-1,-1,-1,-1,-1,-1,-1,-1,-1,-1,-1,-1,-1,-1,-1],"split_conditions":[7.1E-1,-2E-2,3.070883E-1,2.15E0,1.4985107E-1,4.5E-1,1.25E0,6.8099844E-1,8.405248E-1,3.5E-1,3.3E-1,1.4751783E-1,-1.5429634E-2,3.13E0,1.07E0,3.3E-1,1.7E0,3.3333334E-1,8.565099E-1,-1.96865E-2,3.9E-1,2.5E-1,1.5E0,-7.740726E-3,1E0,1.79E0,3.4765635E-2,2.2928853E-2,2.77E0,-1E0,-2.5E-1,5.0071725E-3,2.3097549E-2,-2.2414865E-2,-4.889127E-3,1.0843534E-2,-1.723351E-2,2.2523137E-2,-1.8550199E-2,1.1819277E-3,-1.7686319E-2,2.296398E-1,1.01E0,2.1E-1,-5.4306993E-3,8E-1,1.25E-1,-1.764189E-2,3.06E0,-1.3682148E-2,3.3333334E-1,-3.5E-1,7.2E-1,1.1063823E0,1.54E0,1.8056381E-2,-1.972651E-3,1.3E0,2.9649377E-2,1.0479301E-2,3.340679E-2,-5.5026836E-3,3.959905E-1,8.311052E-4,1.48E0,2.7667554E-2,-1.4207205E-3,-1.1440942E-2,1.7310211E-2,-4.01241E-3,-2.2044215E-2,2.2290759E-2,-5.085991E-3,2.9396988E-3,1.360391E-2,-1.9677524E-3,2.2498861E-2,2.696913E-4,2.1879839E-2,4.8167584E-3,2.2905825E-2],"split_indices":[90,90,84,15,84,15,15,84,84,15,108,84,0,14,90,108,14,107,84,0,15,108,96,0,110,14,0,0,14,90,90,0,0,0,0,0,0,0,0,0,0,84,14,15,0,90,109,0,14,0,109,90,15,88,15,0,0,14,0,0,0,0,84,0,15,0,0,0,0,0,0,0,0,0,0,0,0,0,0,0,0],"split_type":[0,0,0,0,0,0,0,0,0,0,0,0,0,0,0,0,0,0,0,0,0,0,0,0,0,0,0,0,0,0,0,0,0,0,0,0,0,0,0,0,0,0,0,0,0,0,0,0,0,0,0,0,0,0,0,0,0,0,0,0,0,0,0,0,0,0,0,0,0,0,0,0,0,0,0,0,0,0,0,0,0],"sum_hessian":[3.772113E2,2.834715E2,9.373981E1,1.09024704E2,1.744468E2,1.2261083E1,8.147872E1,7.9992676E1,2.9032028E1,1.02191E1,1.6422769E2,1.0402196E1,1.858886E0,6.778578E1,1.3692942E1,7.669442E1,3.298254E0,2.4857317E1,4.1747117E0,5.088049E0,5.131051E0,5.1510596E0,1.5907663E2,2.3363717E0,8.0658245E0,5.629593E1,1.1489849E1,3.3172464E0,1.0375695E1,5.144663E0,7.154976E1,1.8840516E0,1.4142023E0,2.3000607E1,1.8567102E0,1.4080874E0,2.7666242E0,1.4298902E0,3.701161E0,2.3403802E0,2.8106794E0,1.48184E2,1.0892616E1,6.1799765E0,1.885848E0,1.5778045E1,4.0517887E1,2.806656E0,7.56904E0,1.387095E0,3.7575676E0,5.3507854E1,1.8041904E1,8.47555E0,1.3970847E2,9.470179E0,1.422438E0,2.852789E0,3.3271878E0,1.420254E0,1.435779E1,1.8891332E0,3.8628754E1,2.3591151E0,5.2099247E0,2.3573477E0,1.4002199E0,4.7402004E1,6.1058483E0,3.2521775E0,1.4789727E1,6.608193E0,1.8673569E0,1.2741559E2,1.229287E1,1.4222596E0,1.4305292E0,2.387304E0,3.6241447E1,1.8918309E0,3.3180935E0],"tree_param":{"num_deleted":"0","num_feature":"115","num_nodes":"81","size_leaf_vector":"1"}},{"base_weights":[-1.6529188E-1,-2.0901886E-1,4.3163416E-1,-2.2279145E-1,8.0379754E-1,5.722658E-1,-3.13252E-1,-1.8775795E-1,-5.474775E-1,8.566219E-3,3.0734241E-2,2.6790994E-1,2.9794605E-2,-1.4309894E-2,1.4807917E-3,3.8923654E-1,-2.116881E-1,-5.755792E-1,1.4656577E-3,7.107909E-1,6.2074274E-2,6.498422E-1,-2.7792996E-1,-2.2763608E-1,4.6952462E-1,-2.943593E-1,-2.0111885E-2,1.1342937E-3,3.0343555E-2,-3.6047965E-1,3.855666E-1,-1.1855783E-2,8.823264E-1,-1.3382108E-2,1.3195588E-3,-2.9176189E-2,-2.7515903E-1,2.8994473E-2,-2.2649422E-1,-4.8693377E-1,1.4728756E-2,1.0053896E-3,-1.5383015E-2,6.0817724E-1,1.5755501E-3,3.140759E-2,1.4238086E-3,2.2836654E-3,-1.1860219E-2,-8.65941E-3,7.103198E-3,-1.1965692E-2,1.4037747E-3,-1.7979776E-2,1.4976166E-3,1.1639699E-3,2.7233668E-2],"categories":[],"categories_nodes":[],"categories_segments":[],"categories_sizes":[],"default_left":[0,0,0,0,0,0,0,0,0,0,0,0,0,0,0,0,0,0,0,0,0,0,0,0,0,0,0,0,0,0,0,0,0,0,0,0,0,0,0,0,0,0,0,0,0,0,0,0,0,0,0,0,0,0,0,0,0],"id":7,"left_children":[1,3,5,7,9,11,13,15,17,-1,-1,19,-1,-1,-1,21,23,25,-1,27,29,31,33,35,37,39,-1,-1,-1,41,43,-1,45,-1,-1,47,49,-1,51,53,-1,-1,-1,55,-1,-1,-1,-1,-1,-1,-1,-1,-1,-1,-1,-1,-1],"loss_changes":[8.818001E0,4.534359E0,2.604185E0,3.4100056E0,2.1135211E-1,2.2736363E0,2.8019854E-1,3.9521875E0,5.2339363E-1,0E0,0E0,1.129596E0,0E0,0E0,0E0,2.18236E0,3.037469E0,5.573349E-1,0E0,7.6900744E-1,1.4902902E0,2.4329174E0,2.3257697E-1,2.484272E0,2.4662623E0,1.5879406E0,0E0,0E0,0E0,3.0538487E-1,4.1900492E-1,0E0,9.5712423E-1,0E0,0E0,2.0416582E0,1.5396748E0,0E0,1.8431588E-1,4.9240196E-1,0E0,0E0,0E0,5.705676E-1,0E0,0E0,0E0,0E0,0E0,0E0,0E0,0E0,0E0,0E0,0E0,0E0,0E0],"parents":[2147483647,0,0,1,1,2,2,3,3,4,4,5,5,6,6,7,7,8,8,11,11,15,15,16,16,17,17,19,19,20,20,21,21,22,22,23,23,24,24,25,25,29,29,30,30,32,32,35,35,36,36,38,38,39,39,43,43],"right_children":[2,4,6,8,10,12,14,16,18,-1,-1,20,-1,-1,-1,22,24,26,-1,28,30,32,34,36,38,40,-1,-1,-1,42,44,-1,46,-1,-1,48,50,-1,52,54,-1,-1,-1,56,-1,-1,-1,-1,-1,-1,-1,-1,-1,-1,-1,-1,-1],"split_conditions":[8.359092E-1,5E-1,7.5E-1,1.1623535E0,6.2271374E-1,4.6E-1,8.7E-1,-7.5E0,8.7365335E-1,8.566219E-3,3.0734241E-2,4.6E-1,2.9794605E-2,-1.4309894E-2,1.4807917E-3,1.5165E3,1.515E3,5.400264E-1,1.4656577E-3,2E-2,5.6E-1,1.4775E3,1.26E0,-3.5E-1,4.740133E-1,5.185433E-1,-2.0111885E-2,1.1342937E-3,3.0343555E-2,1.9E-1,1.383068E-1,-1.1855783E-2,1.7E0,-1.3382108E-2,1.3195588E-3,1.36E0,2.01E0,2.8994473E-2,9.7E-1,2.09E0,1.4728756E-2,1.0053896E-3,-1.5383015E-2,7.5E-1,1.5755501E-3,3.140759E-2,1.4238086E-3,2.2836654E-3,-1.1860219E-2,-8.65941E-3,7.103198E-3,-1.1965692E-2,1.4037747E-3,-1.7979776E-2,1.4976166E-3,1.1639699E-3,2.7233668E-2],"split_indices":[85,109,15,88,85,15,15,2,84,0,0,14,0,0,0,1,0,84,0,16,16,0,14,16,84,84,0,0,0,16,84,0,15,0,0,14,15,0,14,15,0,0,0,16,0,0,0,0,0,0,0,0,0,0,0,0,0],"split_type":[0,0,0,0,0,0,0,0,0,0,0,0,0,0,0,0,0,0,0,0,0,0,0,0,0,0,0,0,0,0,0,0,0,0,0,0,0,0,0,0,0,0,0,0,0,0,0,0,0,0,0,0,0,0,0,0,0],"sum_hessian":[3.3337497E2,3.1122635E2,2.214861E1,3.0782056E2,3.4058127E0,1.8826063E1,3.3225474E0,2.792661E2,2.855443E1,1.7021854E0,1.7036273E0,1.187526E1,6.9508023E0,2.0716197E0,1.2509278E0,1.0513082E1,2.6875302E2,2.7302616E1,1.2518144E0,2.9895902E0,8.88567E0,7.5786924E0,2.934389E0,2.6325574E2,5.4972863E0,7.9192405E0,1.9383375E1,1.2708203E0,1.71877E0,3.803328E0,5.0823417E0,1.2518147E0,6.3268776E0,1.6742377E0,1.2601513E0,5.117183E1,2.1208392E2,2.9805708E0,2.5167155E0,6.6648493E0,1.2543913E0,1.2776852E0,2.5256429E0,2.55109E0,2.5312517E0,5.0727844E0,1.254093E0,4.035811E1,1.0813722E1,2.0706451E2,5.019415E0,1.2615654E0,1.2551501E0,5.4148645E0,1.2499847E0,1.2689986E0,1.2820915E0],"tree_param":{"num_deleted":"0","num_feature":"115","num_nodes":"57","size_leaf_vector":"1"}},{"base_weights":[-4.732095E-2,4.2821407E-1,-2.3291595E-1,6.51683E-1,2.8761994E-2,-8.888481E-2,-5.14871E-1,1.1943518E0,4.960637E-1,-5.229537E-1,1.8212096E-1,5.7714427E-1,-1.2112332E-1,-5.797747E-1,-1.8759558E-1,1.2580062E-2,3.734651E-2,1.6934083E-1,6.543458E-1,4.3990082E-4,-1.8755456E-2,7.0704406E-1,-1.1006006E-1,7.804095E-2,2.8422117E-2,5.589402E-1,-1.3566065E-1,-6.0048425E-1,-1.7248675E-1,1.3055538E-2,-2.7430665E-1,-1.0991531E-1,2.5218427E-2,9.444983E-1,3.7526855E-1,2.9616666E-1,8.671233E-1,2.5461525E-2,-2.243583E-1,1.3022288E-2,-6.1178305E-3,2.5537383E-2,5.768079E-4,-1.15827166E-1,-1.8450437E-2,-3.173341E-3,-6.1191535E-1,1.3375819E-2,-1.5716173E-2,-4.41787E-1,1.8059282E-2,3.9077472E-2,-1.6111953E-2,1.0994784E0,3.8150814E-1,8.1819385E-1,1.2258712E-1,2.1466851E-2,-1.2565967E-2,3.2657865E-2,5.00482E-1,2.2023866E-1,-3.9886892E-1,-1.327837E-1,2.219516E-2,-6.2359357E-1,-5.3856038E-3,-1.8186823E-2,-1.3340423E-1,4.2229265E-1,-1.515945E-2,1.5675843E-2,-7.6067E-3,3.5918433E-2,1.6334482E-2,2.1128682E-2,-3.8983703E-3,3.2322586E-3,3.4064475E-2,8.851073E-3,-1.5508509E-2,-3.6636763E-3,2.821057E-2,-6.180721E-3,1.5976582E-2,-1.6938578E-2,2.3385487E-4,-4.8115416E-3,4.5217676E-3,-2.0082856E-2,-1.4273615E-2,-1.5185376E-2,1.3024212E-2,-3.2301338E-3,2.6056433E-2],"categories":[],"categories_nodes":[],"categories_segments":[],"categories_sizes":[],"default_left":[0,0,0,0,0,0,0,0,0,0,0,0,0,0,0,0,0,0,0,0,0,0,0,0,0,0,0,0,0,0,0,0,0,0,0,0,0,0,0,0,0,0,0,0,0,0,0,0,0,0,0,0,0,0,0,0,0,0,0,0,0,0,0,0,0,0,0,0,0,0,0,0,0,0,0,0,0,0,0,0,0,0,0,0,0,0,0,0,0,0,0,0,0,0,0],"id":8,"left_children":[1,3,5,7,9,11,13,15,17,19,21,23,25,27,29,-1,-1,31,33,-1,-1,35,37,39,-1,41,43,45,47,-1,49,51,-1,53,55,57,59,-1,61,-1,-1,-1,-1,63,-1,-1,65,-1,-1,67,69,71,-1,73,75,77,79,-1,-1,-1,81,83,85,87,-1,89,-1,-1,91,93,-1,-1,-1,-1,-1,-1,-1,-1,-1,-1,-1,-1,-1,-1,-1,-1,-1,-1,-1,-1,-1,-1,-1,-1,-1],"loss_changes":[3.1636784E1,8.967041E0,1.0418223E1,4.8549747E0,3.2392619E0,3.7578168E0,1.7373695E0,1.3143539E-2,2.5700731E0,4.6756363E-1,4.6511016E0,1.4235396E0,1.703634E0,5.041523E-1,9.75945E-1,0E0,0E0,3.516726E0,2.445096E0,0E0,0E0,4.5334387E-1,2.384454E0,5.4439E-1,0E0,5.580945E-1,1.4690502E0,3.2072258E-1,1.2959176E0,0E0,7.197739E-1,8.982881E-1,0E0,1.0019531E0,2.0577254E0,1.6629547E0,4.398012E-2,0E0,1.5371249E0,0E0,0E0,0E0,0E0,2.3733633E0,0E0,0E0,2.2341347E-1,0E0,0E0,3.897996E-1,1.5367566E0,1.710243E0,0E0,1.2649536E-2,9.2486423E-1,1.4168239E0,1.6363248E0,0E0,0E0,0E0,1.3695946E0,8.964399E-1,9.325583E-1,1.234E0,0E0,1.1684799E-1,0E0,0E0,1.1739424E0,1.0570168E0,0E0,0E0,0E0,0E0,0E0,0E0,0E0,0E0,0E0,0E0,0E0,0E0,0E0,0E0,0E0,0E0,0E0,0E0,0E0,0E0,0E0,0E0,0E0,0E0,0E0],"parents":[2147483647,0,0,1,1,2,2,3,3,4,4,5,5,6,6,7,7,8,8,9,9,10,10,11,11,12,12,13,13,14,14,17,17,18,18,21,21,22,22,23,23,25,25,26,26,27,27,28,28,30,30,31,31,33,33,34,34,35,35,36,36,38,38,43,43,46,46,49,49,50,50,51,51,53,53,54,54,55,55,56,56,60,60,61,61,62,62,63,63,65,65,68,68,69,69],"right_children":[2,4,6,8,10,12,14,16,18,20,22,24,26,28,30,-1,-1,32,34,-1,-1,36,38,40,-1,42,44,46,48,-1,50,52,-1,54,56,58,60,-1,62,-1,-1,-1,-1,64,-1,-1,66,-1,-1,68,70,72,-1,74,76,78,80,-1,-1,-1,82,84,86,88,-1,90,-1,-1,92,94,-1,-1,-1,-1,-1,-1,-1,-1,-1,-1,-1,-1,-1,-1,-1,-1,-1,-1,-1,-1,-1,-1,-1,-1,-1],"split_conditions":[-2E-2,6.2271374E-1,7.5E-1,6.7E-1,7.5E-1,2.2222222E-1,1.21E0,3.959905E-1,5.4237914E-1,5.1E-1,1.02E0,1.4285715E-1,2.2222222E-1,1E0,2.5E0,1.2580062E-2,3.734651E-2,-2.3E-1,1.27E0,4.3990082E-4,-1.8755456E-2,5.1E-1,1.25E-1,4E0,2.8422117E-2,8.9E-1,2.2E0,1.4751783E-1,8.8E-1,1.3055538E-2,8.487013E-1,-4.8E-1,2.5218427E-2,1.1215475E0,1.9610363E-1,1.22688696E-1,-1.9E-1,2.5461525E-2,4.1E-1,1.3022288E-2,-6.1178305E-3,2.5537383E-2,5.768079E-4,2.12E0,-1.8450437E-2,-3.173341E-3,3.37E0,1.3375819E-2,-1.5716173E-2,2.1558407E-1,1.88E0,1.63E0,-1.6111953E-2,1.13E0,-1.87E0,1.66E0,1.69E0,2.1466851E-2,-1.2565967E-2,3.2657865E-2,-1.4E-1,3.3E-1,-4.3E-1,5.6E-1,2.219516E-2,8.2E-1,-5.3856038E-3,-1.8186823E-2,2.6E0,1.74E0,-1.515945E-2,1.5675843E-2,-7.6067E-3,3.5918433E-2,1.6334482E-2,2.1128682E-2,-3.8983703E-3,3.2322586E-3,3.4064475E-2,8.851073E-3,-1.5508509E-2,-3.6636763E-3,2.821057E-2,-6.180721E-3,1.5976582E-2,-1.6938578E-2,2.3385487E-4,-4.8115416E-3,4.5217676E-3,-2.0082856E-2,-1.4273615E-2,-1.5185376E-2,1.3024212E-2,-3.2301338E-3,2.6056433E-2],"split_indices":[16,85,16,78,15,109,15,84,84,15,15,109,107,68,78,0,0,16,78,0,0,78,109,110,0,78,78,84,16,0,84,16,0,88,85,84,16,0,78,0,0,0,0,78,0,0,16,0,0,85,15,15,0,78,16,78,78,0,0,0,16,78,16,16,0,15,0,0,78,15,0,0,0,0,0,0,0,0,0,0,0,0,0,0,0,0,0,0,0,0,0,0,0,0,0],"split_type":[0,0,0,0,0,0,0,0,0,0,0,0,0,0,0,0,0,0,0,0,0,0,0,0,0,0,0,0,0,0,0,0,0,0,0,0,0,0,0,0,0,0,0,0,0,0,0,0,0,0,0,0,0,0,0,0,0,0,0,0,0,0,0,0,0,0,0,0,0,0,0,0,0,0,0,0,0,0,0,0,0,0,0,0,0,0,0,0,0,0,0,0,0,0,0],"sum_hessian":[3.5633224E2,9.9664E1,2.5666824E2,6.350527E1,3.6158737E1,1.7075612E2,8.5912125E1,1.26651325E1,5.0840134E1,7.340601E0,2.8818134E1,7.1033206E0,1.636528E2,7.105027E1,1.4861855E1,1.3443924E0,1.1320741E1,1.7267258E1,3.3572876E1,1.3096628E0,6.0309386E0,9.797097E0,1.9021036E1,3.540953E0,3.5623677E0,2.6413314E0,1.6101147E2,6.716095E1,3.8893201E0,1.3251946E0,1.353666E1,1.27848835E1,4.4823747E0,1.5290847E1,1.828203E1,3.5459042E0,6.2511935E0,1.3416125E0,1.7679424E1,1.326528E0,2.214425E0,1.3389461E0,1.3023854E0,1.5580653E2,5.2049336E0,1.7483999E0,6.541255E1,1.311883E0,2.5774372E0,8.281545E0,5.255116E0,1.0152231E1,2.6326518E0,1.1242955E1,4.047891E0,5.8280296E0,1.24539995E1,2.234525E0,1.3113792E0,2.669538E0,3.5816555E0,4.9095173E0,1.2769907E1,1.5360736E2,2.1991816E0,6.3261772E1,2.1507761E0,4.771426E0,3.510118E0,3.074009E0,2.181107E0,3.531825E0,6.6204066E0,8.574632E0,2.6683235E0,2.250533E0,1.797358E0,2.2128139E0,3.615216E0,1.0233305E1,2.220695E0,1.7818884E0,1.799767E0,2.2199469E0,2.6895702E0,8.796262E0,3.9736457E0,1.403754E2,1.3231958E1,4.559395E1,1.7667826E1,2.183847E0,1.3262712E0,1.7520418E0,1.3219671E0],"tree_param":{"num_deleted":"0","num_feature":"115","num_nodes":"95","size_leaf_vector":"1"}},{"base_weights":[1.3348237E-1,-7.5113975E-2,5.292692E-1,-5.9493893E-1,1.6892398E-2,4.1014224E-1,9.22773E-1,1.5108301E-3,-6.3926655E-1,-2.582944E-1,1.5551382E-1,1.5529571E-1,6.9310534E-1,9.317484E-3,9.6515495E-1,-1.357277E-3,-1.9880474E-2,-2.9012787E-1,2.2985244E-2,2.5556639E-2,1.3991962E-1,-3.96512E-1,2.3192531E-1,9.1574347E-1,4.824464E-1,2.9666936E-2,9.654376E-3,-3.1695816E-1,1.01198545E-2,1.170896E-1,5.422094E-1,-1.934734E-2,1.0251084E-2,3.6340922E-1,-8.573567E-2,9.866657E-1,-2.0533667E-3,1.823166E-1,6.486069E-1,-5.37346E-1,-2.4728048E-1,8.7531164E-2,1.3108786E-2,2.099128E-2,-1.7791067E-3,4.154466E-1,-1.4791233E-2,-1.981979E-2,3.1590703E-1,1.0639106E0,4.414508E-3,3.8764492E-1,-1.5737006E-2,7.5368226E-1,2.953466E-4,-1.7510086E-2,-1.3123713E-3,-5.2842806E-4,-1.0981844E-2,4.0022056E-3,-2.3421012E-3,1.4107554E-2,-1.4296566E-2,7.6897984E-4,1.7890846E-2,3.3199172E-2,9.731603E-3,1.698149E-2,-5.5937576E-3,2.777757E-2,1.5984077E-2],"categories":[],"categories_nodes":[],"categories_segments":[],"categories_sizes":[],"default_left":[0,0,0,0,0,0,0,0,0,0,0,0,0,0,0,0,0,0,0,0,0,0,0,0,0,0,0,0,0,0,0,0,0,0,0,0,0,0,0,0,0,0,0,0,0,0,0,0,0,0,0,0,0,0,0,0,0,0,0,0,0,0,0,0,0,0,0,0,0,0,0],"id":9,"left_children":[1,3,5,7,9,11,13,-1,15,17,19,21,23,-1,25,-1,-1,27,-1,-1,29,31,33,35,37,-1,-1,39,-1,41,43,-1,-1,45,47,49,-1,51,53,55,57,59,-1,-1,-1,61,-1,-1,63,65,-1,67,-1,69,-1,-1,-1,-1,-1,-1,-1,-1,-1,-1,-1,-1,-1,-1,-1,-1,-1],"loss_changes":[3.1111942E1,1.1839598E1,5.716511E0,1.0969181E0,8.093608E0,7.2194138E0,4.634285E-1,0E0,4.5550156E-1,2.5409608E0,1.4121885E0,2.4069648E0,1.8027973E0,0E0,9.4724655E-2,0E0,0E0,1.2799792E0,0E0,0E0,1.2142954E0,1.5121928E0,2.0653527E0,1.6139164E0,1.2134786E0,0E0,0E0,9.0118504E-1,0E0,1.2185959E0,7.2323704E-1,0E0,0E0,1.7484913E0,3.6877925E0,1.187748E0,0E0,1.7864105E0,1.1199827E0,3.2483625E-1,1.4398153E0,9.443741E-1,0E0,0E0,0E0,1.846889E0,0E0,0E0,7.6188296E-1,2.3579597E-1,0E0,1.0301098E0,0E0,5.4923058E-2,0E0,0E0,0E0,0E0,0E0,0E0,0E0,0E0,0E0,0E0,0E0,0E0,0E0,0E0,0E0,0E0,0E0],"parents":[2147483647,0,0,1,1,2,2,3,3,4,4,5,5,6,6,8,8,9,9,10,10,11,11,12,12,14,14,17,17,20,20,21,21,22,22,23,23,24,24,27,27,29,29,30,30,33,33,34,34,35,35,37,37,38,38,39,39,40,40,41,41,45,45,48,48,49,49,51,51,53,53],"right_children":[2,4,6,8,10,12,14,-1,16,18,20,22,24,-1,26,-1,-1,28,-1,-1,30,32,34,36,38,-1,-1,40,-1,42,44,-1,-1,46,48,50,-1,52,54,56,58,60,-1,-1,-1,62,-1,-1,64,66,-1,68,-1,70,-1,-1,-1,-1,-1,-1,-1,-1,-1,-1,-1,-1,-1,-1,-1,-1,-1],"split_conditions":[1.42E0,5.15922E-1,1.1277553E0,1.5947519E-1,1E0,4.142884E-1,1.9E0,1.5108301E-3,3.3E-1,6.666667E-1,-1.5E1,3.3E-1,2.53E0,9.317484E-3,5.714286E-1,-1.357277E-3,-1.9880474E-2,1.5E0,2.2985244E-2,2.5556639E-2,7.987411E-1,2.31E0,4.28E0,1E0,1.73E0,2.9666936E-2,9.654376E-3,3.8E-1,1.01198545E-2,1.5E0,8.359092E-1,-1.934734E-2,1.0251084E-2,1.0754867E0,2.31E0,6.929117E-1,-2.0533667E-3,1.7E0,1E0,4E-1,6E-1,1.03E0,1.3108786E-2,2.099128E-2,-1.7791067E-3,3.968493E-1,-1.4791233E-2,-1.981979E-2,3.06E0,1.92E0,4.414508E-3,5.23462E-1,-1.5737006E-2,4.5997357E-1,2.953466E-4,-1.7510086E-2,-1.3123713E-3,-5.2842806E-4,-1.0981844E-2,4.0022056E-3,-2.3421012E-3,1.4107554E-2,-1.4296566E-2,7.6897984E-4,1.7890846E-2,3.3199172E-2,9.731603E-3,1.698149E-2,-5.5937576E-3,2.777757E-2,1.5984077E-2],"split_indices":[78,85,88,85,78,85,78,0,108,107,2,107,86,0,107,0,0,96,0,0,85,78,86,68,78,0,0,78,0,96,85,0,0,88,78,85,0,78,87,107,78,78,0,0,0,85,0,0,78,78,0,85,0,85,0,0,0,0,0,0,0,0,0,0,0,0,0,0,0,0,0],"split_type":[0,0,0,0,0,0,0,0,0,0,0,0,0,0,0,0,0,0,0,0,0,0,0,0,0,0,0,0,0,0,0,0,0,0,0,0,0,0,0,0,0,0,0,0,0,0,0,0,0,0,0,0,0,0,0,0,0,0,0,0,0,0,0,0,0,0,0,0,0,0,0],"sum_hessian":[3.7536023E2,2.4633928E2,1.2902097E2,3.6222153E1,2.1011711E2,1.0060631E2,2.8414661E1,2.319523E0,3.390263E1,7.009784E1,1.4001927E2,5.3747894E1,4.6858418E1,2.3790092E0,2.6035652E1,1.3969316E0,3.25057E1,6.868053E1,1.4173176E0,1.8922124E0,1.3812706E2,6.04483E0,4.7703064E1,2.1154219E1,2.5704199E1,2.4590982E1,1.44467E0,6.633871E1,2.3418174E0,1.3193102E2,6.1960535E0,4.6174955E0,1.4273342E0,3.3636482E1,1.4066583E1,1.972993E1,1.4242872E0,9.906916E0,1.5797282E1,1.4323173E1,5.2015533E1,1.2193677E2,9.9942465E0,4.780959E0,1.4150941E0,3.219524E1,1.4412419E0,5.520077E0,8.546506E0,1.7822744E1,1.907186E0,8.026945E0,1.8799713E0,1.34112425E1,2.3860397E0,1.2927477E1,1.3956957E0,1.8122837E1,3.3892696E1,9.563726E1,2.6299503E1,3.0777077E1,1.4181609E0,4.7360377E0,3.8104682E0,1.6379917E1,1.4428272E0,6.1346183E0,1.8923264E0,5.7418904E0,7.669352E0],"tree_param":{"num_deleted":"0","num_feature":"115","num_nodes":"71","size_leaf_vector":"1"}},{"base_weights":[-1.3408409E-1,-1.7948893E-1,4.2398748E-1,-9.058061E-2,-3.233942E-1,5.927969E-1,-3.7309217E-1,-6.317767E-2,-5.493179E-1,3.5743472E-1,-3.4626636E-1,2.743311E-1,3.0509545E-2,-1.5684864E-2,1.5526424E-3,-7.472379E-2,2.6754526E-2,-1.8947428E-2,1.3724851E-3,-2.3355484E-3,1.9751616E-2,-4.2845702E-1,-2.0973559E-1,5.828438E-1,-7.5426094E-2,-4.052963E-2,-5.606378E-1,-2.888406E-1,-1.7630013E-2,-5.15696E-1,-6.924907E-2,1.2179861E-3,6.8760026E-1,-3.511387E-1,3.1133777E-1,1.7472232E-2,-5.6371696E-2,1.6077958E-3,-1.9085683E-2,-4.0315995E-1,4.9088156E-1,6.739211E-2,-1.9357802E-2,4.8315167E-1,-1.7802665E-1,2.5611361E-2,9.3148695E-4,-1.5125892E-2,1.1591669E-3,1.3592213E-2,9.516938E-4,-9.164577E-3,-8.837616E-4,-1.7281594E-2,-3.9059927E-3,4.5001046E-3,2.7730152E-2,-1.1696644E-2,1.4744778E-2,2.1889476E-2,-1.9562286E-3,-8.8434955E-3,5.079979E-3],"categories":[],"categories_nodes":[],"categories_segments":[],"categories_sizes":[],"default_left":[0,0,0,0,0,0,0,0,0,0,0,0,0,0,0,0,0,0,0,0,0,0,0,0,0,0,0,0,0,0,0,0,0,0,0,0,0,0,0,0,0,0,0,0,0,0,0,0,0,0,0,0,0,0,0,0,0,0,0,0,0,0,0],"id":10,"left_children":[1,3,5,7,9,11,13,15,17,19,21,23,-1,-1,-1,25,-1,-1,-1,-1,-1,27,29,31,33,35,37,39,-1,41,43,-1,45,47,49,-1,51,-1,-1,53,55,57,-1,59,61,-1,-1,-1,-1,-1,-1,-1,-1,-1,-1,-1,-1,-1,-1,-1,-1,-1,-1],"loss_changes":[8.676333E0,3.9954472E0,3.6972308E0,2.4270236E0,1.9883833E0,2.6531377E0,3.5332435E-1,2.1166973E0,5.628958E-1,6.2555945E-1,1.2158461E0,1.5294709E0,0E0,0E0,0E0,3.044863E0,0E0,0E0,0E0,0E0,0E0,1.4234524E0,1.9279127E0,3.9409566E-1,8.9176965E-1,1.745656E0,5.937531E-1,3.7770638E0,0E0,1.1177986E0,2.0366778E0,0E0,6.4570856E-1,3.0308282E-1,1.2765935E-1,0E0,1.1318903E0,0E0,0E0,1.60356E0,6.866021E-1,8.686045E-1,0E0,8.0589104E-1,1.1795325E0,0E0,0E0,0E0,0E0,0E0,0E0,0E0,0E0,0E0,0E0,0E0,0E0,0E0,0E0,0E0,0E0,0E0,0E0],"parents":[2147483647,0,0,1,1,2,2,3,3,4,4,5,5,6,6,7,7,8,8,9,9,10,10,11,11,15,15,21,21,22,22,23,23,24,24,25,25,26,26,27,27,29,29,30,30,32,32,33,33,34,34,36,36,39,39,40,40,41,41,43,43,44,44],"right_children":[2,4,6,8,10,12,14,16,18,20,22,24,-1,-1,-1,26,-1,-1,-1,-1,-1,28,30,32,34,36,38,40,-1,42,44,-1,46,48,50,-1,52,-1,-1,54,56,58,-1,60,62,-1,-1,-1,-1,-1,-1,-1,-1,-1,-1,-1,-1,-1,-1,-1,-1,-1,-1],"split_conditions":[8.359092E-1,1.36E0,7.5E-1,1.1411515E0,-7.5E0,4.6E-1,1.383068E-1,3E1,8.405248E-1,7.3750293E-1,1.28E0,3E-1,3.0509545E-2,-1.5684864E-2,1.5526424E-3,1.5E0,2.6754526E-2,-1.8947428E-2,1.3724851E-3,-2.3355484E-3,1.9751616E-2,5.517195E-1,-2E-1,3.3E-1,4.1E-1,3.5E-1,9.8E-1,5.329267E-1,-1.7630013E-2,2.5E-1,0E0,1.2179861E-3,2.5E-1,8.1E-1,4.8E-1,1.7472232E-2,2.3487921E-1,1.6077958E-3,-1.9085683E-2,1.83E0,1.92E0,1.4285715E-1,-1.9357802E-2,1.63E0,1.17E0,2.5611361E-2,9.3148695E-4,-1.5125892E-2,1.1591669E-3,1.3592213E-2,9.516938E-4,-9.164577E-3,-8.837616E-4,-1.7281594E-2,-3.9059927E-3,4.5001046E-3,2.7730152E-2,-1.1696644E-2,1.4744778E-2,2.1889476E-2,-1.9562286E-3,-8.8434955E-3,5.079979E-3],"split_indices":[85,14,15,88,2,15,84,2,84,84,15,15,0,0,0,96,0,0,0,0,0,84,16,107,15,14,14,84,0,107,16,0,15,14,14,0,84,0,0,14,14,107,0,14,16,0,0,0,0,0,0,0,0,0,0,0,0,0,0,0,0,0,0],"split_type":[0,0,0,0,0,0,0,0,0,0,0,0,0,0,0,0,0,0,0,0,0,0,0,0,0,0,0,0,0,0,0,0,0,0,0,0,0,0,0,0,0,0,0,0,0,0,0,0,0,0,0,0,0,0,0,0,0,0,0,0,0,0,0],"sum_hessian":[3.3840494E2,3.135711E2,2.4833847E1,1.948298E2,1.1874131E2,2.0705107E1,4.1287403E0,1.8492114E2,9.908655E0,3.3839753E0,1.1535733E2,1.2766885E1,7.938222E0,2.8822627E0,1.2464777E0,1.8362285E2,1.2982888E0,8.651322E0,1.2573324E0,1.686296E0,1.6976792E0,7.067392E1,4.4683414E1,6.429313E0,6.337571E0,1.7256288E2,1.1059978E1,3.9153328E1,3.1520592E1,1.3220404E1,3.146301E1,1.2656374E0,5.163676E0,3.7537465E0,2.5838249E0,3.392699E0,1.6917018E2,1.2432303E0,9.816747E0,3.4568058E1,4.585268E0,2.4907832E0,1.072962E1,4.610097E0,2.6852915E1,3.881365E0,1.282311E0,2.4845612E0,1.2691853E0,1.302991E0,1.2808338E0,1.5485067E1,1.536851E2,2.0483437E1,1.4084621E1,3.3202379E0,1.2650303E0,1.2373254E0,1.2534578E0,2.952355E0,1.6577419E0,2.021087E1,6.6420436E0],"tree_param":{"num_deleted":"0","num_feature":"115","num_nodes":"63","size_leaf_vector":"1"}},{"base_weights":[-6.2476356E-2,4.4076982E-1,-2.782032E-1,-5.259627E-1,5.239803E-1,-1.3343963E-1,-5.845679E-1,-1.8737167E-2,5.7349785E-4,4.2269424E-1,3.2843914E-2,5.385928E-1,-1.6125737E-1,-6.358736E-1,-2.3527573E-1,5.5340177E-1,1.5386961E-1,3.0312296E-3,7.3015386E-1,-3.8898873E-1,-1.1729767E-1,4.6538535E-4,-6.491743E-1,1.2343767E-2,-4.359416E-1,3.6171433E-2,4.651612E-1,7.6155216E-1,-1.2293175E-1,1.7652859E-4,3.0740993E-2,-4.4242647E-1,3.6312328E-3,-8.972065E-2,-1.5722642E-2,-1.9849986E-2,-2.9145306E-1,2.111038E-2,-1.859362E-2,1.3805301E-1,6.395662E-1,2.880409E-2,3.1048453E-3,-1.6192447E-2,-3.0710565E-2,-9.188645E-2,-5.2910733E-1,-1.2629405E-1,3.0143705E-1,-1.3700386E-2,9.812341E-4,-1.2318993E-2,1.3147504E-2,-1.2191432E-3,2.0817237E-2,2.0702984E-2,-4.2026727E-3,1.8168509E-2,-4.1622873E-3,-1.4062406E-2,5.590553E-3,-1.9792363E-2,-9.436363E-3,-1.6576689E-2,-3.3031744E-3,1.34079E-3,2.445976E-2],"categories":[],"categories_nodes":[],"categories_segments":[],"categories_sizes":[],"default_left":[0,0,0,0,0,0,0,0,0,0,0,0,0,0,0,0,0,0,0,0,0,0,0,0,0,0,0,0,0,0,0,0,0,0,0,0,0,0,0,0,0,0,0,0,0,0,0,0,0,0,0,0,0,0,0,0,0,0,0,0,0,0,0,0,0,0,0],"id":11,"left_children":[1,3,5,7,9,11,13,-1,-1,15,-1,17,19,21,23,25,27,-1,29,31,33,-1,35,-1,37,-1,39,41,43,-1,-1,45,-1,47,-1,-1,49,51,-1,53,55,-1,-1,-1,57,59,61,63,65,-1,-1,-1,-1,-1,-1,-1,-1,-1,-1,-1,-1,-1,-1,-1,-1,-1,-1],"loss_changes":[3.7391964E1,8.5926895E0,1.0606138E1,4.7919536E-1,5.0701447E0,3.1694622E0,1.2304287E0,0E0,0E0,2.8279495E0,0E0,4.949013E-1,1.5472231E0,5.867195E-1,1.6653186E0,2.627884E0,4.888863E0,0E0,9.6636796E-1,7.4343514E-1,1.4651475E0,0E0,9.87339E-2,0E0,7.8816044E-1,0E0,2.7884283E0,1.0846696E0,7.694049E-1,0E0,0E0,6.5408516E-1,0E0,1.8613111E0,0E0,0E0,2.2858441E-1,8.3066356E-1,0E0,1.8966291E0,1.381628E0,0E0,0E0,0E0,1.3078912E0,6.950086E-1,3.0631113E-1,7.482611E-1,1.4402912E0,0E0,0E0,0E0,0E0,0E0,0E0,0E0,0E0,0E0,0E0,0E0,0E0,0E0,0E0,0E0,0E0,0E0,0E0],"parents":[2147483647,0,0,1,1,2,2,3,3,4,4,5,5,6,6,9,9,11,11,12,12,13,13,14,14,15,15,16,16,18,18,19,19,20,20,22,22,24,24,26,26,27,27,28,28,31,31,33,33,36,36,37,37,39,39,40,40,44,44,45,45,46,46,47,47,48,48],"right_children":[2,4,6,8,10,12,14,-1,-1,16,-1,18,20,22,24,26,28,-1,30,32,34,-1,36,-1,38,-1,40,42,44,-1,-1,46,-1,48,-1,-1,50,52,-1,54,56,-1,-1,-1,58,60,62,64,66,-1,-1,-1,-1,-1,-1,-1,-1,-1,-1,-1,-1,-1,-1,-1,-1,-1,-1],"split_conditions":[-2E-2,7.5E-1,8.4E-1,3.3333334E-1,1.1568049E0,2.2222222E-1,1.21E0,-1.8737167E-2,5.7349785E-4,6.2271374E-1,3.2843914E-2,4E-1,7.8E-1,1.4985107E-1,7.6189667E-1,4.250573E-1,1.03E0,3.0312296E-3,2.2222222E-1,3.75E-1,7.111667E-1,4.6538535E-4,3.37E0,1.2343767E-2,1.16E0,3.6171433E-2,5.49395E-1,1.0511737E0,1.1E0,1.7652859E-4,3.0740993E-2,1.09854884E-1,3.6312328E-3,5.4E-1,-1.5722642E-2,-1.9849986E-2,3E-1,1.6E0,-1.859362E-2,-2.3E-1,1.1323051E0,2.880409E-2,3.1048453E-3,-1.6192447E-2,1.14E0,2.8E-1,6.5E-1,-7.5E0,1.24E0,-1.3700386E-2,9.812341E-4,-1.2318993E-2,1.3147504E-2,-1.2191432E-3,2.0817237E-2,2.0702984E-2,-4.2026727E-3,1.8168509E-2,-4.1622873E-3,-1.4062406E-2,5.590553E-3,-1.9792363E-2,-9.436363E-3,-1.6576689E-2,-3.3031744E-3,1.34079E-3,2.445976E-2],"split_indices":[16,15,16,107,88,109,15,0,0,85,0,108,15,84,84,84,15,0,107,109,84,0,16,0,16,0,84,88,15,0,0,84,0,16,0,0,15,15,0,16,88,0,0,0,15,15,16,2,15,0,0,0,0,0,0,0,0,0,0,0,0,0,0,0,0,0,0],"split_type":[0,0,0,0,0,0,0,0,0,0,0,0,0,0,0,0,0,0,0,0,0,0,0,0,0,0,0,0,0,0,0,0,0,0,0,0,0,0,0,0,0,0,0,0,0,0,0,0,0,0,0,0,0,0,0,0,0,0,0,0,0,0,0,0,0,0,0],"sum_hessian":[3.4229468E2,1.0239203E2,2.3990265E2,7.693123E0,9.4698906E1,1.6389465E2,7.6007996E1,6.3910837E0,1.3020393E0,8.190597E1,1.2792939E1,5.784672E0,1.5810999E2,6.555805E1,1.0449947E1,5.4398033E1,2.750793E1,2.2264998E0,3.5581717E0,2.4312315E1,1.3379767E2,1.3085147E0,6.4249535E1,2.2258127E0,8.224134E0,4.972821E0,4.9425213E1,8.060613E0,1.9447319E1,1.3235714E0,2.2346003E0,2.212658E1,2.185737E0,1.2644622E2,7.3514495E0,6.1260593E1,2.9889395E0,2.6130648E0,5.61107E0,1.7811022E1,3.1614191E1,5.8393927E0,2.2212195E0,2.644063E0,1.6803255E1,4.7951007E0,1.7331478E1,1.1625359E2,1.019263E1,1.7090319E0,1.2799075E0,1.2917205E0,1.3213444E0,1.4179589E1,3.6314335E0,2.9797722E1,1.8164707E0,1.7702602E0,1.5032996E1,1.7458009E0,3.0493002E0,9.482882E0,7.8485956E0,3.0411828E0,1.1321241E2,7.521686E0,2.6709435E0],"tree_param":{"num_deleted":"0","num_feature":"115","num_nodes":"67","size_leaf_vector":"1"}},{"base_weights":[1.7442183E-1,-2.5512693E-2,5.1884955E-1,9.487667E-2,-5.223833E-1,7.693609E-1,1.9756971E-1,-1.515219E-1,1.650372E-1,-3.623855E-1,-6.8467575E-1,1.1969949E-1,8.239869E-1,3.1958598E-1,-5.790696E-1,5.0881463E-1,-2.3483698E-1,1.2542713E-1,1.9127853E-2,-2.1088816E-1,-2.0402055E-2,-4.5661866E-3,-2.1754324E-2,3.7735787E-1,-8.501675E-3,7.186389E-1,3.233181E-2,4.8297974E-1,6.834699E-2,-2.0235816E-2,-1.1984844E-3,2.2976376E-2,2.1036491E-1,-2.81432E-1,1.0752662E-2,1.3732739E-1,-1.5120184E-2,2.0062038E-1,-4.6425563E-1,2.3832709E-2,-5.3766207E-3,8.082067E-1,3.586266E-1,-5.4778275E-3,5.294431E-1,5.7699966E-1,-1.5416892E-1,-1.234043E-3,1.1211225E-2,-1.0756422E-1,-5.7833916E-1,1.031976E-1,5.2711254E-1,-4.419051E-2,2.3400743E-2,-1.9838344E-2,-1.6349024E-1,-2.816306E-3,8.4268856E-1,-1.6971816E-1,7.097201E-1,-1.5833552E-3,5.589356E-1,2.0595708E-1,2.309751E-2,-4.463712E-2,-1.7098894E-2,1.1921932E-2,-1.2508056E-2,-1.9117616E-2,-1.1334935E-3,-1.1115444E-2,3.5502077E-3,2.7010344E-2,9.579781E-3,-1.0639954E-2,1.0957546E-2,1.0486532E-2,-1.7199049E-2,2.624942E-2,3.8308534E-3,2.1701783E-2,-1.9048713E-2,9.77615E-3,2.454956E-2,1.4021643E-2,2.5571771E-2,2.3085084E-2,-1.3566901E-2,2.176118E-3,-1.5844205E-2],"categories":[],"categories_nodes":[],"categories_segments":[],"categories_sizes":[],"default_left":[0,0,0,0,0,0,0,0,0,0,0,0,0,0,0,0,0,0,0,0,0,0,0,0,0,0,0,0,0,0,0,0,0,0,0,0,0,0,0,0,0,0,0,0,0,0,0,0,0,0,0,0,0,0,0,0,0,0,0,0,0,0,0,0,0,0,0,0,0,0,0,0,0,0,0,0,0,0,0,0,0,0,0,0,0,0,0,0,0,0,0],"id":12,"left_children":[1,3,5,7,9,11,13,15,17,19,21,23,25,27,29,31,33,35,-1,37,-1,-1,-1,39,-1,41,-1,43,45,-1,-1,-1,47,49,-1,51,-1,53,55,-1,-1,57,59,-1,61,63,65,-1,-1,67,69,71,73,75,-1,-1,77,-1,79,81,83,-1,85,87,-1,89,-1,-1,-1,-1,-1,-1,-1,-1,-1,-1,-1,-1,-1,-1,-1,-1,-1,-1,-1,-1,-1,-1,-1,-1,-1],"loss_changes":[2.609523E1,1.4441532E1,1.1047836E1,3.3877115E0,9.743643E-1,2.6639214E0,6.0899096E0,2.5200071E0,2.763001E0,1.0998087E0,3.6902523E-1,8.5552263E-1,1.1404076E0,2.2040925E0,4.2675805E-1,2.381587E-1,1.1908004E0,1.128228E0,0E0,2.0678906E0,0E0,0E0,0E0,1.2626212E0,0E0,1.4391937E0,0E0,1.1127353E0,2.6514194E0,0E0,0E0,0E0,1.7094238E-1,1.8539069E0,0E0,1.8020089E0,0E0,1.1572909E0,6.0441566E-1,0E0,0E0,1.3899155E0,2.4355402E0,0E0,5.612631E-1,3.4971285E-1,7.277936E-1,0E0,0E0,4.014625E0,4.052148E-1,9.731686E-1,5.649123E-1,9.5723593E-1,0E0,0E0,1.4803146E0,0E0,8.277283E-1,2.8649127E0,5.3930044E-2,0E0,3.957796E-1,1.7553425E0,0E0,8.4141827E-1,0E0,0E0,0E0,0E0,0E0,0E0,0E0,0E0,0E0,0E0,0E0,0E0,0E0,0E0,0E0,0E0,0E0,0E0,0E0,0E0,0E0,0E0,0E0,0E0,0E0],"parents":[2147483647,0,0,1,1,2,2,3,3,4,4,5,5,6,6,7,7,8,8,9,9,10,10,11,11,12,12,13,13,14,14,15,15,16,16,17,17,19,19,23,23,25,25,27,27,28,28,32,32,33,33,35,35,37,37,38,38,41,41,42,42,44,44,45,45,46,46,49,49,50,50,51,51,52,52,53,53,56,56,58,58,59,59,60,60,62,62,63,63,65,65],"right_children":[2,4,6,8,10,12,14,16,18,20,22,24,26,28,30,32,34,36,-1,38,-1,-1,-1,40,-1,42,-1,44,46,-1,-1,-1,48,50,-1,52,-1,54,56,-1,-1,58,60,-1,62,64,66,-1,-1,68,70,72,74,76,-1,-1,78,-1,80,82,84,-1,86,88,-1,90,-1,-1,-1,-1,-1,-1,-1,-1,-1,-1,-1,-1,-1,-1,-1,-1,-1,-1,-1,-1,-1,-1,-1,-1,-1],"split_conditions":[1.36E0,1.45E0,1.15E0,9.1E-1,2.13E0,1.54E0,2.35E0,3.3E-1,1.5E0,1.03E0,1.5636513E-1,6.929117E-1,2.74E0,3.190016E-1,3.22E0,3.1E-1,1.39E0,8.616932E-1,1.9127853E-2,5.2851707E-1,-2.0402055E-2,-4.5661866E-3,-2.1754324E-2,6.8E-1,-8.501675E-3,9.1E-1,3.233181E-2,2.2222222E-1,1.48E0,-2.0235816E-2,-1.1984844E-3,2.2976376E-2,7E0,1.6E0,1.0752662E-2,7.703602E-1,-1.5120184E-2,4.9117804E-1,6.2271374E-1,2.3832709E-2,-5.3766207E-3,3.6345887E-1,1.03E0,-5.4778275E-3,-7.5E0,1.42E0,4.459632E-1,-1.234043E-3,1.1211225E-2,1.1921514E0,1.36E0,1E0,9.7E-1,2.05E0,2.3400743E-2,-1.9838344E-2,6.4423376E-1,-2.816306E-3,2.53E0,3.397399E-1,1.8E0,-1.5833552E-3,3E0,1.38E0,2.309751E-2,1.97E0,-1.7098894E-2,1.1921932E-2,-1.2508056E-2,-1.9117616E-2,-1.1334935E-3,-1.1115444E-2,3.5502077E-3,2.7010344E-2,9.579781E-3,-1.0639954E-2,1.0957546E-2,1.0486532E-2,-1.7199049E-2,2.624942E-2,3.8308534E-3,2.1701783E-2,-1.9048713E-2,9.77615E-3,2.454956E-2,1.4021643E-2,2.5571771E-2,2.3085084E-2,-1.3566901E-2,2.176118E-3,-1.5844205E-2],"split_indices":[14,15,15,14,15,14,15,108,96,14,85,85,14,85,15,14,15,85,0,85,0,0,0,15,0,15,0,107,14,0,0,0,110,86,0,85,0,85,85,0,0,85,15,0,2,14,85,0,0,88,15,14,14,15,0,0,85,0,14,85,14,0,14,14,0,14,0,0,0,0,0,0,0,0,0,0,0,0,0,0,0,0,0,0,0,0,0,0,0,0,0],"split_type":[0,0,0,0,0,0,0,0,0,0,0,0,0,0,0,0,0,0,0,0,0,0,0,0,0,0,0,0,0,0,0,0,0,0,0,0,0,0,0,0,0,0,0,0,0,0,0,0,0,0,0,0,0,0,0,0,0,0,0,0,0,0,0,0,0,0,0,0,0,0,0,0,0,0,0,0,0,0,0,0,0,0,0,0,0,0,0,0,0,0,0],"sum_hessian":[3.7775195E2,2.3959627E2,1.381557E2,1.9351706E2,4.6079205E1,7.684372E1,6.131198E1,4.2633106E1,1.5088396E2,2.4831606E1,2.1247597E1,6.207679E0,7.063604E1,5.3495853E1,7.816126E0,4.2042284E0,3.8428875E1,1.4038245E2,1.0501514E1,1.7940119E1,6.8914876E0,1.8370775E0,1.9410519E1,3.8259358E0,2.381743E0,5.2621002E1,1.8015038E1,3.185591E1,2.1639946E1,6.4269886E0,1.389137E0,1.4172833E0,2.7869449E0,3.6117775E1,2.3111005E0,1.3854489E2,1.8375496E0,6.9158597E0,1.1024259E1,1.9427923E0,1.8831434E0,4.1140636E1,1.1480364E1,1.8875433E0,2.9968365E1,6.100848E0,1.5539098E1,1.3919377E0,1.3950071E0,2.3637829E1,1.2479947E1,1.2855344E2,9.991451E0,5.511052E0,1.4048077E0,5.93667E0,5.087589E0,1.4512703E0,3.9689365E1,4.789485E0,6.690879E0,1.4067942E0,2.8561571E1,2.79423E0,3.306618E0,1.3175625E1,2.363473E0,8.872086E0,1.4765743E1,1.1092138E1,1.3878083E0,3.2550952E0,1.2529834E2,2.3812141E0,7.610237E0,3.2104177E0,2.3006341E0,2.3245444E0,2.7630446E0,3.7760197E1,1.9291707E0,1.4503636E0,3.3391213E0,2.3577983E0,4.333081E0,2.3746315E1,4.815257E0,1.4142293E0,1.3800006E0,1.1289621E1,1.886004E0],"tree_param":{"num_deleted":"0","num_feature":"115","num_nodes":"91","size_leaf_vector":"1"}},{"base_weights":[-1.768695E-1,-2.2509836E-1,4.5017385E-1,-2.3827706E-1,6.5711075E-1,-1.5749766E-2,6.0643274E-1,-2.5545913E-1,3.6088118E-1,4.359313E-3,3.0132286E-2,7.2486067E-1,-2.1389177E-1,-1.7784292E-1,-3.7679392E-1,3.1704295E-2,-3.727678E-1,9.544328E-1,1.4675336E-1,-1.1583967E-2,1.5643714E-3,-1.4464709E-1,-1.7415674E-2,-3.8928166E-1,8.916258E-3,-1.572271E-2,1.7128818E-3,4.4688532E-1,3.3425763E-2,-1.3512906E-2,4.4580618E-1,-1.7766663E-1,2.821656E-1,-3.3929908E-1,-1.96179E-2,2.9198628E-2,-4.9464004E-3,5.855791E-1,9.197021E-4,-5.6267297E-4,-7.325311E-3,-2.8937175E-3,1.6218575E-2,-1.1923011E-2,-1.7185542E-3,9.807266E-4,2.631177E-2],"categories":[],"categories_nodes":[],"categories_segments":[],"categories_sizes":[],"default_left":[0,0,0,0,0,0,0,0,0,0,0,0,0,0,0,0,0,0,0,0,0,0,0,0,0,0,0,0,0,0,0,0,0,0,0,0,0,0,0,0,0,0,0,0,0,0,0],"id":13,"left_children":[1,3,5,7,9,-1,11,13,15,-1,-1,17,19,21,23,-1,25,27,29,-1,-1,31,-1,33,-1,-1,-1,35,-1,-1,37,39,41,43,-1,-1,-1,45,-1,-1,-1,-1,-1,-1,-1,-1,-1],"loss_changes":[1.0247191E1,3.786315E0,4.020366E0,3.2664566E0,7.1811485E-1,0E0,2.2343736E0,2.7613373E0,4.994249E0,0E0,0E0,2.372427E0,1.7924431E-1,2.3897166E0,1.0943336E0,0E0,3.633253E-1,5.860777E-1,1.3728204E0,0E0,0E0,2.4782932E0,0E0,1.2938938E0,0E0,0E0,0E0,1.7288604E0,0E0,0E0,2.64952E-1,1.6921535E0,1.3006382E0,1.5915356E0,0E0,0E0,0E0,5.5022526E-1,0E0,0E0,0E0,0E0,0E0,0E0,0E0,0E0,0E0],"parents":[2147483647,0,0,1,1,2,2,3,3,4,4,6,6,7,7,8,8,11,11,12,12,13,13,14,14,16,16,17,17,18,18,21,21,23,23,27,27,30,30,31,31,32,32,33,33,37,37],"right_children":[2,4,6,8,10,-1,12,14,16,-1,-1,18,20,22,24,-1,26,28,30,-1,-1,32,-1,34,-1,-1,-1,36,-1,-1,38,40,42,44,-1,-1,-1,46,-1,-1,-1,-1,-1,-1,-1,-1,-1],"split_conditions":[8.359092E-1,5E-1,3.4E-1,1.5007764E3,6.2271374E-1,-1.5749766E-2,7.5E-1,1.36E0,1.5165E3,4.359313E-3,3.0132286E-2,4.2E-1,1.383068E-1,1E0,8E-1,3.1704295E-2,1.91E0,4.5E-1,6E-1,-1.1583967E-2,1.5643714E-3,1.26E0,-1.7415674E-2,2.14E0,8.916258E-3,-1.572271E-2,1.7128818E-3,4.6E-1,3.3425763E-2,-1.3512906E-2,1.383068E-1,-3.5E-1,1E0,7.775754E-1,-1.96179E-2,2.9198628E-2,-4.9464004E-3,1.6E-1,9.197021E-4,-5.6267297E-4,-7.325311E-3,-2.8937175E-3,1.6218575E-2,-1.1923011E-2,-1.7185542E-3,9.807266E-4,2.631177E-2],"split_indices":[85,109,109,1,85,0,15,78,1,0,0,16,84,110,107,0,15,15,16,0,0,78,0,16,0,0,0,78,0,0,84,16,87,84,0,0,0,15,0,0,0,0,0,0,0,0,0],"split_type":[0,0,0,0,0,0,0,0,0,0,0,0,0,0,0,0,0,0,0,0,0,0,0,0,0,0,0,0,0,0,0,0,0,0,0,0,0,0,0,0,0,0,0,0,0,0,0],"sum_hessian":[3.3449356E2,3.1119882E2,2.329475E1,3.0733762E2,3.8611948E0,2.8912904E0,2.040346E1,2.9932745E2,8.010179E0,2.134326E0,1.7268687E0,1.7931162E1,2.4722984E0,1.8405544E2,1.1527202E2,3.8847122E0,4.125466E0,1.2368534E1,5.5626273E0,1.2266856E0,1.2456126E0,1.7129366E2,1.2761777E1,1.1358989E2,1.6821294E0,2.8891973E0,1.2362688E0,3.8702352E0,8.498299E0,1.6872133E0,3.875414E0,1.5953525E2,1.1758402E1,9.746443E1,1.612546E1,1.7626169E0,2.1076183E0,2.5921576E0,1.2832563E0,4.7449028E1,1.1208622E2,5.024511E0,6.733891E0,8.04675E1,1.6996931E1,1.2787465E0,1.3134112E0],"tree_param":{"num_deleted":"0","num_feature":"115","num_nodes":"47","size_leaf_vector":"1"}},{"base_weights":[-3.8318805E-2,4.1558355E-1,-2.2778234E-1,-1.8564232E-2,4.8998097E-1,-8.670811E-2,-5.2986616E-1,8.3479416E-1,3.3641347E-1,5.0832134E-1,-1.1452747E-1,-5.615999E-1,1.9045214E-1,6.2230706E-1,1.1360354E0,3.8813088E-2,5.0827354E-1,6.1363506E-1,4.8540496E-5,1.8252825E-2,-1.2629756E-1,-5.818354E-1,-1.0640386E-1,2.5743812E-2,-1.3667724E-2,8.657497E-1,6.420509E-2,1.1866862E-2,3.6059245E-2,-3.8664125E-2,2.5099095E-2,5.46311E-1,-1.2298886E-2,7.055914E-3,2.12812E-2,-3.401749E-1,-7.17298E-2,7.721874E-4,-5.933688E-1,-1.3601483E-2,8.328112E-3,9.822953E-1,3.7548053E-1,-1.7230588E-1,1.1378772E-2,-1.2243104E-1,2.3829652E-2,6.0576427E-1,-1.0154118E-2,-3.8296854E-1,7.789565E-3,-3.183992E-2,-4.3549258E-1,-1.9604482E-2,-4.7256947E-1,1.5149853E-2,3.4957964E-2,-3.7975586E-3,2.4177393E-2,2.3193532E-3,-1.3339453E-2,1.0608551E-3,-1.5178872E-2,2.9336007E-2,1.4163623E-2,-8.235738E-3,1.21517135E-2,-1.1512027E-3,-1.3164889E-2,-2.4758694E-3,1.3073956E-2,5.0964183E-4,-1.4671913E-2,1.708464E-3,-1.685895E-2],"categories":[],"categories_nodes":[],"categories_segments":[],"categories_sizes":[],"default_left":[0,0,0,0,0,0,0,0,0,0,0,0,0,0,0,0,0,0,0,0,0,0,0,0,0,0,0,0,0,0,0,0,0,0,0,0,0,0,0,0,0,0,0,0,0,0,0,0,0,0,0,0,0,0,0,0,0,0,0,0,0,0,0,0,0,0,0,0,0,0,0,0,0,0,0],"id":14,"left_children":[1,3,5,-1,7,9,11,13,15,17,19,21,23,25,27,29,31,33,-1,-1,35,37,39,-1,-1,41,43,-1,-1,45,-1,47,-1,-1,-1,49,51,-1,53,-1,-1,55,57,59,-1,61,-1,63,65,67,-1,69,71,-1,73,-1,-1,-1,-1,-1,-1,-1,-1,-1,-1,-1,-1,-1,-1,-1,-1,-1,-1,-1,-1],"loss_changes":[2.9952377E1,8.198711E0,1.0420325E1,0E0,4.8169518E0,2.8492298E0,1.889595E0,1.1486473E0,3.472608E0,4.1068363E-1,1.4544258E0,6.284542E-1,2.132507E0,2.5544333E0,5.0854683E-2,1.6443987E0,1.7329273E0,6.447458E-2,0E0,0E0,1.8444133E0,5.1654625E-1,7.139672E-1,0E0,0E0,3.9086437E-1,5.8064E-1,0E0,0E0,1.8226054E0,0E0,1.3927851E0,0E0,0E0,0E0,9.280884E-1,1.8557305E0,0E0,2.0127678E-1,0E0,0E0,2.9563427E-1,1.0036857E0,3.4963498E-1,0E0,1.4300252E0,0E0,1.4222536E0,6.632607E-1,5.709753E-1,0E0,2.813878E0,3.15037E-1,0E0,1.3078547E0,0E0,0E0,0E0,0E0,0E0,0E0,0E0,0E0,0E0,0E0,0E0,0E0,0E0,0E0,0E0,0E0,0E0,0E0,0E0,0E0],"parents":[2147483647,0,0,1,1,2,2,4,4,5,5,6,6,7,7,8,8,9,9,10,10,11,11,12,12,13,13,14,14,15,15,16,16,17,17,20,20,21,21,22,22,25,25,26,26,29,29,31,31,35,35,36,36,38,38,41,41,42,42,43,43,45,45,47,47,48,48,49,49,51,51,52,52,54,54],"right_children":[2,4,6,-1,8,10,12,14,16,18,20,22,24,26,28,30,32,34,-1,-1,36,38,40,-1,-1,42,44,-1,-1,46,-1,48,-1,-1,-1,50,52,-1,54,-1,-1,56,58,60,-1,62,-1,64,66,68,-1,70,72,-1,74,-1,-1,-1,-1,-1,-1,-1,-1,-1,-1,-1,-1,-1,-1,-1,-1,-1,-1,-1,-1],"split_conditions":[-2E-2,7.5E-1,8.4E-1,-1.8564232E-2,-1.34E0,2.2222222E-1,1.74E0,1.1724522E0,-6.4E-1,5.714286E-1,2.2222222E-1,3.37E0,1.88E0,1.1168487E0,1.8E-1,5E-1,1.515E3,9E0,4.8540496E-5,1.8252825E-2,9.4E-1,2.2222222E-1,4.7E-1,2.5743812E-2,-1.3667724E-2,1.07E0,2.52E0,1.1866862E-2,3.6059245E-2,1.7E0,2.5099095E-2,5E-1,-1.2298886E-2,7.055914E-3,2.12812E-2,1.5E0,1.54E0,7.721874E-4,8.2E-1,-1.3601483E-2,8.328112E-3,2.13E0,1.41E0,1.1334555E0,1.1378772E-2,2.05E0,2.3829652E-2,-4.8E-1,-2.1E-1,7.847123E-2,7.789565E-3,4E-1,4E-2,-1.9604482E-2,8.7E-1,1.5149853E-2,3.4957964E-2,-3.7975586E-3,2.4177393E-2,2.3193532E-3,-1.3339453E-2,1.0608551E-3,-1.5178872E-2,2.9336007E-2,1.4163623E-2,-8.235738E-3,1.21517135E-2,-1.1512027E-3,-1.3164889E-2,-2.4758694E-3,1.3073956E-2,5.0964183E-4,-1.4671913E-2,1.708464E-3,-1.685895E-2],"split_indices":[16,15,16,0,16,109,15,88,16,107,107,16,15,88,14,107,0,110,0,0,15,107,15,0,0,14,15,0,0,14,0,107,0,0,0,96,15,0,15,0,0,15,14,88,0,15,0,16,16,84,0,16,16,0,15,0,0,0,0,0,0,0,0,0,0,0,0,0,0,0,0,0,0,0,0],"split_type":[0,0,0,0,0,0,0,0,0,0,0,0,0,0,0,0,0,0,0,0,0,0,0,0,0,0,0,0,0,0,0,0,0,0,0,0,0,0,0,0,0,0,0,0,0,0,0,0,0,0,0,0,0,0,0,0,0,0,0,0,0,0,0,0,0,0,0,0,0,0,0,0,0,0,0],"sum_hessian":[3.4619104E2,1.0159764E2,2.445934E2,6.3259954E0,9.527165E1,1.6760725E2,7.698615E1,2.798945E1,6.7282196E1,6.714669E0,1.6089258E2,7.394868E1,3.0374768E0,1.8210258E1,9.779193E0,2.5079422E1,4.2202774E1,5.384513E0,1.3301566E0,1.7653701E0,1.5912721E2,7.0534874E1,3.413804E0,1.3322922E0,1.7051845E0,1.2295675E1,5.9145823E0,1.3719237E0,8.4072695E0,2.3726831E1,1.3525918E0,4.0913017E1,1.2897573E0,1.7850733E0,3.5994394E0,3.12824E1,1.2784481E2,1.2910554E0,6.924382E1,1.6984602E0,1.7153437E0,9.12332E0,3.172356E0,3.637414E0,2.2771683E0,2.2333904E1,1.3929259E0,3.6883736E1,4.0292845E0,2.953669E1,1.7457093E0,1.1619095E2,1.1653861E1,4.3291065E1,2.5952753E1,3.5701444E0,5.553175E0,1.7901721E0,1.3821838E0,2.27154E0,1.365874E0,1.6466883E1,5.8670225E0,8.07727E0,2.8806465E1,2.6688342E0,1.3604504E0,4.355498E0,2.5181192E1,1.0557121E2,1.0619735E1,1.3059824E0,1.0347879E1,3.8010266E0,2.2151726E1],"tree_param":{"num_deleted":"0","num_feature":"115","num_nodes":"75","size_leaf_vector":"1"}},{"base_weights":[1.4778584E-1,-2.8502474E-2,7.1882856E-1,-3.4023932E-1,1.4710882E-1,7.9222715E-1,2.0233096E-1,-2.144742E-1,-6.375322E-1,-4.4181827E-1,1.8344165E-1,-5.293015E-3,8.1848174E-1,-1.0093422E-1,6.253843E-1,-2.7464026E-1,3.598359E-1,-4.0352535E-3,-6.642864E-1,-1.9864399E-2,-6.1400004E-2,5.870843E-1,1.5687695E-1,8.339539E-1,4.3096193E-3,-3.5817906E-1,1.4405384E-2,-2.3277472E-3,2.7106099E-2,-3.0756867E-1,2.2458844E-2,5.609169E-1,-5.0099255E-3,-2.0757072E-2,-7.205353E-3,2.226074E-2,-1.7033136E-2,6.943994E-1,-1.8068403E-3,-3.7404823E-1,1.9420865E-1,3.7179708E-1,8.538826E-1,-2.382758E-3,-1.7091105E-2,-3.475069E-2,-3.6637798E-1,-1.031914E-3,2.2778401E-2,2.5053792E-2,-1.4130803E-3,5.173564E-3,-1.5037714E-2,1.3889056E-1,3.9111292E-1,1.7087702E-2,-1.8551771E-3,8.685925E-1,3.8264036E-1,-5.272872E-3,1.5759692E-2,-1.2218192E-2,2.0075217E-3,5.292084E-3,-1.9991295E-2,7.589197E-3,2.4700638E-2,2.6285987E-2,9.312675E-3,-2.7720404E-3,2.0971235E-2],"categories":[],"categories_nodes":[],"categories_segments":[],"categories_sizes":[],"default_left":[0,0,0,0,0,0,0,0,0,0,0,0,0,0,0,0,0,0,0,0,0,0,0,0,0,0,0,0,0,0,0,0,0,0,0,0,0,0,0,0,0,0,0,0,0,0,0,0,0,0,0,0,0,0,0,0,0,0,0,0,0,0,0,0,0,0,0,0,0,0,0],"id":15,"left_children":[1,3,5,7,9,11,13,15,17,19,21,-1,23,25,27,29,31,-1,33,-1,35,37,39,41,-1,43,-1,-1,-1,45,-1,47,-1,-1,-1,-1,-1,49,-1,51,53,55,57,-1,-1,59,61,-1,-1,-1,-1,-1,-1,63,65,-1,-1,67,69,-1,-1,-1,-1,-1,-1,-1,-1,-1,-1,-1,-1],"loss_changes":[3.8134766E1,1.5940393E1,3.2269554E0,3.7852154E0,4.0688376E0,2.1252708E0,1.661759E0,2.6979613E0,3.2348537E-1,8.91634E-1,1.7977142E0,0E0,6.7383575E-1,1.38565E0,1.1145835E0,2.5435176E0,8.951616E-1,0E0,1.7198467E-1,0E0,2.529346E0,7.7248645E-1,3.3772273E0,3.6499023E-1,0E0,3.2034242E-1,0E0,0E0,0E0,1.0657978E0,0E0,6.99836E-1,0E0,0E0,0E0,0E0,0E0,9.891505E-1,0E0,8.716612E-1,1.6495924E0,4.4986826E-1,1.5470886E-1,0E0,0E0,1.1210607E0,1.0053177E0,0E0,0E0,0E0,0E0,0E0,0E0,3.8534026E0,1.8074188E0,0E0,0E0,1.398468E-2,6.529301E-1,0E0,0E0,0E0,0E0,0E0,0E0,0E0,0E0,0E0,0E0,0E0,0E0],"parents":[2147483647,0,0,1,1,2,2,3,3,4,4,5,5,6,6,7,7,8,8,9,9,10,10,12,12,13,13,14,14,15,15,16,16,18,18,20,20,21,21,22,22,23,23,25,25,29,29,31,31,37,37,39,39,40,40,41,41,42,42,45,45,46,46,53,53,54,54,57,57,58,58],"right_children":[2,4,6,8,10,12,14,16,18,20,22,-1,24,26,28,30,32,-1,34,-1,36,38,40,42,-1,44,-1,-1,-1,46,-1,48,-1,-1,-1,-1,-1,50,-1,52,54,56,58,-1,-1,60,62,-1,-1,-1,-1,-1,-1,64,66,-1,-1,68,70,-1,-1,-1,-1,-1,-1,-1,-1,-1,-1,-1,-1],"split_conditions":[8E-1,-2E-2,1.25E0,2.15E0,1.4985107E-1,1.6409083E-1,1.0511737E0,4E-1,1.4992236E3,3.4E-1,2.296398E-1,-5.293015E-3,3.75E-1,1.88E0,1.3E0,1.72E0,-4.1E-1,-4.0352535E-3,3.3333334E-1,-1.9864399E-2,3.9E-1,5.9E-1,3.124982E-1,8.4E-1,4.3096193E-3,2.8E0,1.4405384E-2,-2.3277472E-3,2.7106099E-2,2.089186E-1,2.2458844E-2,-9.7E-1,-5.0099255E-3,-2.0757072E-2,-7.205353E-3,2.226074E-2,-1.7033136E-2,1.1114249E0,-1.8068403E-3,9E-2,2.5E-1,7.5E-1,5.714286E-1,-2.382758E-3,-1.7091105E-2,9.8E-1,2.05E0,-1.031914E-3,2.2778401E-2,2.5053792E-2,-1.4130803E-3,5.173564E-3,-1.5037714E-2,2.1E-1,1.54E0,1.7087702E-2,-1.8551771E-3,1.52625E3,4.8907542E-1,-5.272872E-3,1.5759692E-2,-1.2218192E-2,2.0075217E-3,5.292084E-3,-1.9991295E-2,7.589197E-3,2.4700638E-2,2.6285987E-2,9.312675E-3,-2.7720404E-3,2.0971235E-2],"split_indices":[16,16,15,15,84,84,88,107,0,15,84,0,109,15,15,78,16,0,107,0,15,16,84,16,0,78,0,0,0,84,0,16,0,0,0,0,0,88,0,16,16,15,107,0,0,15,15,0,0,0,0,0,0,16,15,0,0,0,84,0,0,0,0,0,0,0,0,0,0,0,0],"split_type":[0,0,0,0,0,0,0,0,0,0,0,0,0,0,0,0,0,0,0,0,0,0,0,0,0,0,0,0,0,0,0,0,0,0,0,0,0,0,0,0,0,0,0,0,0,0,0,0,0,0,0,0,0,0,0,0,0,0,0,0,0,0,0,0,0,0,0,0,0,0,0],"sum_hessian":[3.77613E2,2.8926364E2,8.834936E1,1.03895615E2,1.8536803E2,7.688896E1,1.14604025E1,7.42196E1,2.9676018E1,1.0122927E1,1.752451E2,1.8780601E0,7.5010895E1,7.11875E0,4.341652E0,6.765382E1,6.5657797E0,1.8030578E0,2.787296E1,5.941303E0,4.1816235E0,9.518234E0,1.6572687E2,7.3099106E1,1.911789E0,5.200326E0,1.9184241E0,1.4352882E0,2.9063637E0,6.622224E1,1.4315828E0,4.705208E0,1.8605716E0,2.5576126E1,2.296834E0,1.4367125E0,2.7449112E0,8.102254E0,1.4159807E0,1.0294905E1,1.5543196E2,3.8343735E0,6.926474E1,2.837054E0,2.3632722E0,1.2025681E1,5.4196556E1,1.3825597E0,3.322648E0,6.703717E0,1.3985369E0,1.876715E0,8.41819E0,1.22673546E2,3.2758415E1,2.4179585E0,1.416415E0,6.635041E1,2.9143283E0,1.0155081E1,1.8706E0,4.9577415E1,4.6191406E0,1.179595E2,4.7140384E0,2.602604E1,6.7323766E0,6.489619E1,1.4542192E0,1.4481095E0,1.466219E0],"tree_param":{"num_deleted":"0","num_feature":"115","num_nodes":"71","size_leaf_vector":"1"}},{"base_weights":[-1.422132E-1,5.410115E-1,-1.9256619E-1,6.9093376E-1,-1.4763889E-2,-9.343291E-2,-3.6845335E-1,3.3083054E-1,9.121528E-1,-1.14842415E-1,4.650322E-1,-3.9661804E-1,4.7356704E-1,5.723377E-1,-2.232701E-1,3.0740542E-2,2.8086072E-4,-8.610457E-2,-5.4762495E-1,-1.1820475E-2,7.0505005E-1,-4.2399392E-1,2.6534438E-1,-1.173474E-2,3.0370248E-2,6.9582295E-1,9.138516E-4,-1.16636725E-2,1.139617E-3,-4.353972E-2,-3.7053555E-1,-1.8770825E-2,1.5888207E-3,2.8961373E-2,4.443225E-3,-4.3901986E-1,8.683165E-3,-4.685965E-3,1.9389901E-2,2.9784855E-1,2.8890321E-2,-8.564963E-2,5.0646436E-1,-4.6117398E-1,7.5226635E-2,-5.271099E-1,-2.746537E-1,2.5748678E-2,-1.2187091E-2,-3.0617835E-3,1.7708054E-2,-9.267595E-3,2.6610954E-2,-7.5816545E-3,-1.6877055E-2,-1.1475338E-2,1.0270225E-2,-1.2240985E-2,-2.0000758E-2,-1.0660307E-2,4.0958584E-3],"categories":[],"categories_nodes":[],"categories_segments":[],"categories_sizes":[],"default_left":[0,0,0,0,0,0,0,0,0,0,0,0,0,0,0,0,0,0,0,0,0,0,0,0,0,0,0,0,0,0,0,0,0,0,0,0,0,0,0,0,0,0,0,0,0,0,0,0,0,0,0,0,0,0,0,0,0,0,0,0,0],"id":16,"left_children":[1,3,5,7,-1,9,11,13,15,17,19,21,23,25,27,-1,-1,29,31,-1,33,35,37,-1,-1,39,-1,-1,-1,41,43,-1,-1,-1,-1,45,-1,-1,-1,47,-1,49,51,53,55,57,59,-1,-1,-1,-1,-1,-1,-1,-1,-1,-1,-1,-1,-1,-1],"loss_changes":[1.1201207E1,3.8101254E0,5.216716E0,1.2899065E0,0E0,2.3723078E0,2.754202E0,1.3552481E0,1.1900024E0,2.285908E0,1.7950672E0,2.0199718E0,2.2401495E0,4.2504072E-1,1.662797E-1,0E0,0E0,2.1278868E0,5.72062E-1,0E0,7.429247E-1,1.2147503E0,8.710773E-1,0E0,0E0,2.8581667E-1,0E0,0E0,0E0,3.6373012E0,9.6068954E-1,0E0,0E0,0E0,0E0,1.2997608E0,0E0,0E0,0E0,1.7735716E0,0E0,1.6684668E0,3.743363E0,2.6334953E-1,7.0958203E-1,7.895088E-1,1.2727897E0,0E0,0E0,0E0,0E0,0E0,0E0,0E0,0E0,0E0,0E0,0E0,0E0,0E0,0E0],"parents":[2147483647,0,0,1,1,2,2,3,3,5,5,6,6,7,7,8,8,9,9,10,10,11,11,12,12,13,13,14,14,17,17,18,18,20,20,21,21,22,22,25,25,29,29,30,30,35,35,39,39,41,41,42,42,43,43,44,44,45,45,46,46],"right_children":[2,4,6,8,-1,10,12,14,16,18,20,22,24,26,28,-1,-1,30,32,-1,34,36,38,-1,-1,40,-1,-1,-1,42,44,-1,-1,-1,-1,46,-1,-1,-1,48,-1,50,52,54,56,58,60,-1,-1,-1,-1,-1,-1,-1,-1,-1,-1,-1,-1,-1,-1],"split_conditions":[1.35E0,7.5E-1,1.42E0,3.9E-1,-1.4763889E-2,7.764279E-1,3.75E-1,3E-1,1.5278002E0,1.5E0,9.9E-1,1.5007764E3,2.92E0,1E0,5.9E-1,3.0740542E-2,2.8086072E-4,2.85E0,1.24E0,-1.1820475E-2,1.19E0,8E-1,3.84E0,-1.173474E-2,3.0370248E-2,7.8E-1,9.138516E-4,-1.16636725E-2,1.139617E-3,2.68E0,4.07E0,-1.8770825E-2,1.5888207E-3,2.8961373E-2,4.443225E-3,1.28E0,8.683165E-3,-4.685965E-3,1.9389901E-2,3.8E-1,2.8890321E-2,5E-1,7.5E-1,3.15E0,8.1E-1,2.89E0,1.21E0,2.5748678E-2,-1.2187091E-2,-3.0617835E-3,1.7708054E-2,-9.267595E-3,2.6610954E-2,-7.5816545E-3,-1.6877055E-2,-1.1475338E-2,1.0270225E-2,-1.2240985E-2,-2.0000758E-2,-1.0660307E-2,4.0958584E-3],"split_indices":[86,15,14,15,0,2,109,15,88,96,14,1,86,14,14,0,0,86,15,0,14,107,86,0,0,14,0,0,0,86,86,0,0,0,0,15,0,0,0,14,0,109,14,86,14,86,16,0,0,0,0,0,0,0,0,0,0,0,0,0,0],"split_type":[0,0,0,0,0,0,0,0,0,0,0,0,0,0,0,0,0,0,0,0,0,0,0,0,0,0,0,0,0,0,0,0,0,0,0,0,0,0,0,0,0,0,0,0,0,0,0,0,0,0,0,0,0,0,0,0,0,0,0,0,0],"sum_hessian":[3.2156543E2,2.140349E1,3.0016196E2,1.8980415E1,2.423076E0,1.929455E2,1.0721645E2,8.172539E0,1.0807876E1,1.8658679E2,6.3586946E0,1.042581E2,2.9583519E0,5.6688385E0,2.5037005E0,9.489944E0,1.3179315E0,1.7609276E2,1.0494043E1,1.248517E0,5.1101775E0,1.0046288E2,3.7952185E0,1.2408278E0,1.717524E0,4.385378E0,1.2834606E0,1.233851E0,1.2698495E0,1.5417384E2,2.1918907E1,9.249861E0,1.2441818E0,2.9826543E0,2.1275234E0,9.8767334E1,1.6955465E0,2.0818076E0,1.7134109E0,2.6110258E0,1.7743521E0,1.4399356E2,1.0180291E1,1.8186422E1,3.7324843E0,6.2867386E1,3.589995E1,1.3318666E0,1.2791592E0,1.4140945E2,2.5841076E0,3.2994103E0,6.880881E0,7.0942197E0,1.1092203E1,1.2162516E0,2.5162327E0,3.60427E1,2.6824688E1,3.0124216E1,5.775734E0],"tree_param":{"num_deleted":"0","num_feature":"115","num_nodes":"61","size_leaf_vector":"1"}},{"base_weights":[-1.9330714E-2,4.209289E-1,-2.0485048E-1,-1.7775914E-2,4.789887E-1,-5.7337098E-2,-5.1372796E-1,3.516348E-1,8.321674E-1,6.662695E-1,-9.450681E-2,-5.776511E-1,-1.7598064E-1,2.1778676E-1,7.421698E-1,1.043409E0,4.6921065E-1,6.9235098E-3,7.5167733E-1,-7.376093E-2,-1.8054035E-2,-5.902724E-1,9.4182167E-4,1.4463653E-1,-3.3731654E-1,3.3295965E-1,-1.7306103E-1,8.58931E-1,-1.2833896E-2,5.5875194E-1,3.391519E-2,-2.5720015E-1,3.0163031E-2,6.730162E-3,2.7249642E-2,-9.224194E-2,2.893476E-2,8.3801145E-4,-6.033431E-1,-5.9319325E-2,1.3131472E-2,-4.9119237E-1,3.8507087E-3,1.9781785E-1,6.172179E-1,-2.7243936E-1,1.2299005E-2,9.1942066E-1,6.7289136E-3,2.5658488E-2,-1.0502589E-3,1.2164194E-2,-1.7201371E-2,-7.139681E-2,-4.2256305E-1,-1.9569423E-2,-4.1974095E-1,1.3004974E-2,-1.3787751E-2,-3.3133784E-3,-1.770556E-2,1.0028983E-2,-7.872183E-3,-1.4275218E-2,2.4608525E-2,-1.4845581E-3,-1.4071104E-2,1.1722098E-2,2.944596E-2,-2.5630014E-3,9.007072E-3,-1.4639072E-2,-2.9633965E-3,-1.15355615E-4,-1.7017141E-2],"categories":[],"categories_nodes":[],"categories_segments":[],"categories_sizes":[],"default_left":[0,0,0,0,0,0,0,0,0,0,0,0,0,0,0,0,0,0,0,0,0,0,0,0,0,0,0,0,0,0,0,0,0,0,0,0,0,0,0,0,0,0,0,0,0,0,0,0,0,0,0,0,0,0,0,0,0,0,0,0,0,0,0,0,0,0,0,0,0,0,0,0,0,0,0],"id":17,"left_children":[1,3,5,-1,7,9,11,13,15,17,19,21,23,25,27,29,31,-1,33,35,-1,37,-1,39,41,43,45,47,-1,49,-1,51,-1,-1,-1,53,-1,-1,55,57,-1,59,-1,61,63,65,-1,67,-1,-1,-1,-1,-1,69,71,-1,73,-1,-1,-1,-1,-1,-1,-1,-1,-1,-1,-1,-1,-1,-1,-1,-1,-1,-1],"loss_changes":[2.8262154E1,6.320774E0,1.1059394E1,0E0,4.096897E0,4.523304E0,1.5939274E0,3.6782227E0,1.4373684E0,1.3250136E-1,1.6248481E0,5.22789E-1,7.6968765E-1,2.5840366E0,2.8721151E0,4.4384003E-3,4.567896E0,0E0,3.2775593E-1,3.034639E0,0E0,5.365715E-1,0E0,3.4667298E-1,7.488929E-1,1.5563273E0,8.899485E-1,4.465227E-1,0E0,7.822515E-1,0E0,1.3837497E0,0E0,0E0,0E0,1.0146804E0,0E0,0E0,2.9291725E-1,9.9701595E-1,0E0,2.137816E-1,0E0,2.0402195E0,3.4105682E0,5.061386E-1,0E0,1.1564922E-1,0E0,0E0,0E0,0E0,0E0,7.765067E-1,1.3824809E-1,0E0,9.8401237E-1,0E0,0E0,0E0,0E0,0E0,0E0,0E0,0E0,0E0,0E0,0E0,0E0,0E0,0E0,0E0,0E0,0E0,0E0],"parents":[2147483647,0,0,1,1,2,2,4,4,5,5,6,6,7,7,8,8,9,9,10,10,11,11,12,12,13,13,14,14,15,15,16,16,18,18,19,19,21,21,23,23,24,24,25,25,26,26,27,27,29,29,31,31,35,35,38,38,39,39,41,41,43,43,44,44,45,45,47,47,53,53,54,54,56,56],"right_children":[2,4,6,-1,8,10,12,14,16,18,20,22,24,26,28,30,32,-1,34,36,-1,38,-1,40,42,44,46,48,-1,50,-1,52,-1,-1,-1,54,-1,-1,56,58,-1,60,-1,62,64,66,-1,68,-1,-1,-1,-1,-1,70,72,-1,74,-1,-1,-1,-1,-1,-1,-1,-1,-1,-1,-1,-1,-1,-1,-1,-1,-1,-1],"split_conditions":[-2E-2,7.4E-1,8.4E-1,-1.7775914E-2,2.2E0,2.2222222E-1,1.2E0,-2.5E-1,1.07E0,1E-1,2.2E0,3.75E-1,1.21E0,-4.5E-1,1.72E0,6.095635E-1,1.42E0,6.9235098E-3,1.01E0,2.12E0,-1.8054035E-2,1.15E0,9.4182167E-4,2.87E0,1.98E0,-6.5E-1,3.3333334E-1,1.58E0,-1.2833896E-2,4.5E-1,3.391519E-2,3.3333334E-1,3.0163031E-2,6.730162E-3,2.7249642E-2,1.33E0,2.893476E-2,8.3801145E-4,8.2E-1,1.32E0,1.3131472E-2,2.67E0,3.8507087E-3,-7.9E-1,3.3E-1,8.9E-1,1.2299005E-2,6.7E-1,6.7289136E-3,2.5658488E-2,-1.0502589E-3,1.2164194E-2,-1.7201371E-2,1.73E0,1.78E0,-1.9569423E-2,8.7E-1,1.3004974E-2,-1.3787751E-2,-3.3133784E-3,-1.770556E-2,1.0028983E-2,-7.872183E-3,-1.4275218E-2,2.4608525E-2,-1.4845581E-3,-1.4071104E-2,1.1722098E-2,2.944596E-2,-2.5630014E-3,9.007072E-3,-1.4639072E-2,-2.9633965E-3,-1.15355615E-4,-1.7017141E-2],"split_indices":[16,15,16,0,15,109,15,16,14,109,14,109,16,16,14,84,14,0,14,14,0,14,0,14,16,16,108,14,0,14,0,109,0,0,0,15,0,0,15,15,0,14,0,16,108,14,0,14,0,0,0,0,0,14,15,0,15,0,0,0,0,0,0,0,0,0,0,0,0,0,0,0,0,0,0],"split_type":[0,0,0,0,0,0,0,0,0,0,0,0,0,0,0,0,0,0,0,0,0,0,0,0,0,0,0,0,0,0,0,0,0,0,0,0,0,0,0,0,0,0,0,0,0,0,0,0,0,0,0,0,0,0,0,0,0,0,0,0,0,0,0,0,0,0,0,0,0,0,0,0,0,0,0],"sum_hessian":[3.439683E2,1.0159732E2,2.4237097E2,5.0062113E0,9.659111E1,1.6483492E2,7.753605E1,7.245863E1,2.4132479E1,7.226522E0,1.576084E2,6.459945E1,1.29366E1,5.512374E1,1.7334892E1,1.4069343E1,1.0063136E1,1.7919078E0,5.434614E0,1.525166E2,5.09179E0,6.3318127E1,1.2813241E0,4.365233E0,8.571367E0,4.2691692E1,1.2432048E1,1.6003603E1,1.3312896E0,3.2728238E0,1.0796519E1,4.4946623E0,5.568474E0,1.8016286E0,3.6329856E0,1.5074449E2,1.7721124E0,1.2874738E0,6.2030655E1,3.04429E0,1.3209429E0,6.4013295E0,2.1700373E0,3.008474E1,1.2606953E1,1.10767145E1,1.3553327E0,1.4201278E1,1.8023263E0,1.8889894E0,1.3838345E0,1.3605968E0,3.1340654E0,1.4294029E2,7.8041983E0,4.6954056E1,1.5076599E1,1.3272092E0,1.7170808E0,1.7574652E0,4.643864E0,2.3414637E1,6.6701035E0,1.7647009E0,1.0842252E1,5.7769704E0,5.2997446E0,2.2595103E0,1.1941767E1,1.3848001E2,4.4602785E0,6.0707808E0,1.7334177E0,4.2157025E0,1.0860896E1],"tree_param":{"num_deleted":"0","num_feature":"115","num_nodes":"75","size_leaf_vector":"1"}},{"base_weights":[1.4641167E-1,-3.8385775E-2,7.112942E-1,-3.5571042E-1,1.412226E-1,5.862097E-1,9.135294E-1,4.8053464E-1,-3.9573258E-1,-4.579906E-1,1.812904E-1,7.9440045E-1,3.4280342E-1,4.8192003E-1,9.451631E-1,2.428488E-2,1.3874265E-3,-2.8895426E-1,-6.557881E-1,-8.204782E-4,-5.113389E-1,1.2642345E-1,4.0584588E-1,4.189147E-1,9.251147E-1,-1.4970009E-1,4.3303025E-1,-3.2645212E-3,2.444163E-2,8.719554E-3,2.9034361E-2,-3.244737E-1,1.3141219E-2,-6.849722E-1,-4.430271E-3,-1.8911036E-2,-3.1704396E-1,5.418952E-1,9.399722E-2,-8.041303E-3,4.645775E-1,6.216995E-1,-1.4491687E-2,3.186283E-2,6.0884607E-1,1.2987898E-2,-1.8258119E-2,4.9203387E-1,-5.918349E-3,-1.9002257E-1,-4.8911768E-1,-6.4454423E-3,-2.1572841E-2,5.125361E-3,-1.7344704E-2,6.4413375E-1,-1.5692221E-3,1.17174126E-1,-3.6903796E-1,7.900238E-1,3.1775033E-1,-1.8446405E-3,2.2873241E-2,2.8860217E-1,2.6921757E-2,5.319636E-1,-2.2813964E-3,-1.1772928E-2,-2.8985539E-3,-1.05635235E-2,-2.0859605E-2,2.4694124E-2,8.321813E-3,2.2401199E-2,3.1229497E-3,-1.7220743E-2,-2.1155484E-3,2.8710132E-2,-2.0391843E-3,-1.7865533E-2,1.4154059E-2,1.3133997E-2,-2.97795E-3,4.5148088E-3,1.8109571E-2],"categories":[],"categories_nodes":[],"categories_segments":[],"categories_sizes":[],"default_left":[0,0,0,0,0,0,0,0,0,0,0,0,0,0,0,0,0,0,0,0,0,0,0,0,0,0,0,0,0,0,0,0,0,0,0,0,0,0,0,0,0,0,0,0,0,0,0,0,0,0,0,0,0,0,0,0,0,0,0,0,0,0,0,0,0,0,0,0,0,0,0,0,0,0,0,0,0,0,0,0,0,0,0,0,0],"id":18,"left_children":[1,3,5,7,9,11,13,15,17,19,21,23,25,27,29,-1,-1,31,33,-1,35,37,39,41,43,45,47,-1,-1,-1,-1,49,-1,51,-1,-1,53,55,57,-1,59,61,-1,-1,63,-1,-1,65,-1,67,69,-1,-1,-1,-1,71,-1,73,75,77,79,-1,-1,81,-1,83,-1,-1,-1,-1,-1,-1,-1,-1,-1,-1,-1,-1,-1,-1,-1,-1,-1,-1,-1],"loss_changes":[4.011318E1,1.659542E1,1.8602905E0,3.7112665E0,4.5508738E0,2.8344193E0,1.420784E-2,7.1356595E-1,2.6137228E0,2.6048446E-1,2.1065612E0,1.1970406E0,1.3989286E0,9.516307E-1,1.7843628E-1,0E0,0E0,2.0362945E0,3.2290554E-1,0E0,4.4678688E-2,1.8648615E0,1.4677539E0,2.1594427E0,3.5498238E-1,1.7050421E0,1.0502868E0,0E0,0E0,0E0,0E0,1.4679241E0,0E0,2.7492523E-1,0E0,0E0,8.6679554E-1,6.4637303E-1,1.4718359E0,0E0,1.2581601E0,8.868654E-1,0E0,0E0,6.0321665E-1,0E0,0E0,5.785694E-1,0E0,7.268158E-1,6.326361E-1,0E0,0E0,0E0,0E0,3.4147596E-1,0E0,9.7206867E-1,3.6256838E-1,1.3754277E0,3.5783398E0,0E0,0E0,3.8468271E-1,0E0,5.187249E-1,0E0,0E0,0E0,0E0,0E0,0E0,0E0,0E0,0E0,0E0,0E0,0E0,0E0,0E0,0E0,0E0,0E0,0E0,0E0],"parents":[2147483647,0,0,1,1,2,2,3,3,4,4,5,5,6,6,7,7,8,8,9,9,10,10,11,11,12,12,13,13,14,14,17,17,18,18,20,20,21,21,22,22,23,23,24,24,25,25,26,26,31,31,33,33,36,36,37,37,38,38,40,40,41,41,44,44,47,47,49,49,50,50,55,55,57,57,58,58,59,59,60,60,63,63,65,65],"right_children":[2,4,6,8,10,12,14,16,18,20,22,24,26,28,30,-1,-1,32,34,-1,36,38,40,42,44,46,48,-1,-1,-1,-1,50,-1,52,-1,-1,54,56,58,-1,60,62,-1,-1,64,-1,-1,66,-1,68,70,-1,-1,-1,-1,72,-1,74,76,78,80,-1,-1,82,-1,84,-1,-1,-1,-1,-1,-1,-1,-1,-1,-1,-1,-1,-1,-1,-1,-1,-1,-1,-1],"split_conditions":[8E-1,-2E-2,1.1277553E0,3E-1,1.4985107E-1,1.9E0,1.9E0,2E-1,2.15E0,1.4E-1,1.09E0,3.070883E-1,5.185433E-1,1E0,1.25E-1,2.428488E-2,1.3874265E-3,6.791528E-1,3.3333334E-1,-8.204782E-4,3.5E-1,2.296398E-1,2E-2,1E0,1.79E0,4.6385893E-1,3.69E0,-3.2645212E-3,2.444163E-2,8.719554E-3,2.9034361E-2,7.7E-1,1.3141219E-2,1.4992236E3,-4.430271E-3,-1.8911036E-2,4.2E-1,1.1114249E0,7.225749E-1,-8.041303E-3,1.9E-1,1.6409083E-1,-1.4491687E-2,3.186283E-2,1.86E0,1.2987898E-2,-1.8258119E-2,3.75E-1,-5.918349E-3,3.8E-1,-2.5E-1,-6.4454423E-3,-2.1572841E-2,5.125361E-3,-1.7344704E-2,9.7E-1,-1.5692221E-3,-1.5E1,6.4E-1,1.77E0,2.5E-1,-1.8446405E-3,2.2873241E-2,8E-1,2.6921757E-2,9.7E-1,-2.2813964E-3,-1.1772928E-2,-2.8985539E-3,-1.05635235E-2,-2.0859605E-2,2.4694124E-2,8.321813E-3,2.2401199E-2,3.1229497E-3,-1.7220743E-2,-2.1155484E-3,2.8710132E-2,-2.0391843E-3,-1.7865533E-2,1.4154059E-2,1.3133997E-2,-2.97795E-3,4.5148088E-3,1.8109571E-2],"split_indices":[16,16,88,108,84,14,14,109,15,15,15,84,84,110,109,0,0,84,107,0,15,84,16,110,14,84,14,0,0,0,0,14,0,0,0,0,15,88,85,0,16,84,0,0,14,0,0,109,0,14,16,0,0,0,0,14,0,2,15,15,16,0,0,15,0,16,0,0,0,0,0,0,0,0,0,0,0,0,0,0,0,0,0,0,0],"split_type":[0,0,0,0,0,0,0,0,0,0,0,0,0,0,0,0,0,0,0,0,0,0,0,0,0,0,0,0,0,0,0,0,0,0,0,0,0,0,0,0,0,0,0,0,0,0,0,0,0,0,0,0,0,0,0,0,0,0,0,0,0,0,0,0,0,0,0,0,0,0,0,0,0,0,0,0,0,0,0,0,0,0,0,0,0],"sum_hessian":[3.8300537E2,2.8929617E2,9.370921E1,1.0420702E2,1.8508914E2,6.030724E1,3.340197E1,4.2567806E0,9.995024E1,1.0946976E1,1.7414217E2,3.1284903E1,2.9022339E1,3.3895414E0,3.001243E1,1.930506E0,2.3262744E0,7.235326E1,2.7596989E1,1.3733763E0,9.5736E0,1.4120396E2,3.2938198E1,9.164386E0,2.2120516E1,4.391604E0,2.4630735E1,1.4639633E0,1.9255781E0,1.4664949E0,2.8545935E1,6.951078E1,2.842473E0,2.5768848E1,1.8281403E0,4.544909E0,5.0286903E0,9.085203E0,1.3211877E2,2.3548355E0,3.0583363E1,7.735901E0,1.4284848E0,1.3789791E1,8.330725E0,1.9598958E0,2.431708E0,2.2722996E1,1.9077392E0,3.944965E1,3.0061129E1,2.237534E0,2.3531313E1,1.8735904E0,3.1551E0,7.679788E0,1.4054152E0,1.2653223E2,5.586541E0,8.146279E0,2.2437082E1,1.4176207E0,6.31828E0,4.896509E0,3.434216E0,2.1290115E1,1.4328802E0,1.1445538E1,2.8004112E1,1.9688072E1,1.0373057E1,4.324535E0,3.3552532E0,1.4330333E0,1.2509919E2,2.7649837E0,2.8215578E0,6.722561E0,1.4237182E0,2.8248358E0,1.9612247E1,3.4432755E0,1.4532335E0,3.8583503E0,1.7431765E1],"tree_param":{"num_deleted":"0","num_feature":"115","num_nodes":"85","size_leaf_vector":"1"}},{"base_weights":[-1.3567545E-1,4.2436635E-1,-1.7703156E-1,5.332728E-1,-2.5495592E-1,-9.7951815E-2,-3.8142717E-1,1.1752484E-1,8.077521E-1,-1.2803034E-2,1.7963256E-3,-4.6281344E-1,-6.1495904E-2,-4.368568E-1,-4.9011227E-2,3.447418E-1,-2.738457E-1,2.7314065E-2,-8.222329E-5,-5.389119E-1,-6.2567573E-3,-3.7742544E-2,-4.571095E-1,-1.053259E-1,-4.689751E-1,-4.0102568E-1,1.978432E-1,3.1586666E-2,2.5550129E-2,-1.3047079E-2,9.727993E-4,-1.749758E-2,-4.228133E-3,1.5026445E-2,-1.3052589E-2,-1.8741438E-2,-4.813968E-1,1.4301606E-2,-1.8630859E-2,-3.7633583E-1,3.1416565E-1,-1.9557785E-2,-3.916433E-1,-1.580845E-2,-1.335604E-3,6.747208E-1,-3.361798E-1,-1.198014E-2,2.918649E-1,4.0738982E-1,-3.9229266E-2,1.8800262E-3,-1.773266E-2,1.4293324E-3,-1.5752861E-2,-1.20471995E-2,2.6444493E-2,-1.797501E-2,-2.456434E-1,5.1040826E-3,2.9888222E-2,-1.4781432E-2,1.5756398E-3,1.2735241E-2,8.586029E-4,-4.284134E-3,2.5888646E-2,-1.6209729E-3,1.6461443E-2,-9.864592E-3,2.8499102E-2],"categories":[],"categories_nodes":[],"categories_segments":[],"categories_sizes":[],"default_left":[0,0,0,0,0,0,0,0,0,0,0,0,0,0,0,0,0,0,0,0,0,0,0,0,0,0,0,0,0,0,0,0,0,0,0,0,0,0,0,0,0,0,0,0,0,0,0,0,0,0,0,0,0,0,0,0,0,0,0,0,0,0,0,0,0,0,0,0,0,0,0],"id":19,"left_children":[1,3,5,7,9,11,13,15,17,-1,-1,19,21,23,25,27,29,-1,-1,31,33,35,37,39,41,43,45,47,-1,-1,-1,-1,-1,-1,-1,49,51,-1,-1,53,55,-1,57,-1,-1,59,61,-1,63,65,67,-1,-1,-1,-1,-1,-1,-1,69,-1,-1,-1,-1,-1,-1,-1,-1,-1,-1,-1,-1],"loss_changes":[7.6813517E0,1.8285079E0,4.917202E0,2.1919374E0,2.3313005E-1,2.9292562E0,1.5478086E0,9.0714973E-1,9.93238E-1,0E0,0E0,6.931009E-1,1.893337E0,7.265072E-1,1.2348734E0,9.6132445E-1,2.0718941E-1,0E0,0E0,2.2079802E-1,1.0607938E0,1.6170235E0,2.0450652E0,9.9650466E-1,6.8044186E-1,2.374419E-1,2.3879263E0,6.646291E-1,0E0,0E0,0E0,0E0,0E0,0E0,0E0,1.6399283E0,5.074004E-1,0E0,0E0,3.4972686E-1,1.8064682E0,0E0,1.3372941E0,0E0,0E0,6.1180973E-1,3.1006366E-1,0E0,1.1439958E-1,2.283988E0,1.5822338E0,0E0,0E0,0E0,0E0,0E0,0E0,0E0,3.3410916E0,0E0,0E0,0E0,0E0,0E0,0E0,0E0,0E0,0E0,0E0,0E0,0E0],"parents":[2147483647,0,0,1,1,2,2,3,3,4,4,5,5,6,6,7,7,8,8,11,11,12,12,13,13,14,14,15,15,16,16,19,19,20,20,21,21,22,22,23,23,24,24,25,25,26,26,27,27,35,35,36,36,39,39,40,40,42,42,45,45,46,46,48,48,49,49,50,50,58,58],"right_children":[2,4,6,8,10,12,14,16,18,-1,-1,20,22,24,26,28,30,-1,-1,32,34,36,38,40,42,44,46,48,-1,-1,-1,-1,-1,-1,-1,50,52,-1,-1,54,56,-1,58,-1,-1,60,62,-1,64,66,68,-1,-1,-1,-1,-1,-1,-1,70,-1,-1,-1,-1,-1,-1,-1,-1,-1,-1,-1,-1],"split_conditions":[1.545527E-1,7.5E-1,6.4E-1,3.9E-1,8E-1,3.4E-1,1.27E0,3E-1,9.554098E-1,-1.2803034E-2,1.7963256E-3,7.437811E-1,1.5E0,1.34E0,1.07E0,1.9E-1,5.9E-1,2.7314065E-2,-8.222329E-5,1.62E0,8.207194E-1,2.88E0,8.5E-1,4.5E-1,1.03E0,1.6E0,8.487013E-1,3.3E-1,2.5550129E-2,-1.3047079E-2,9.727993E-4,-1.749758E-2,-4.228133E-3,1.5026445E-2,-1.3052589E-2,-7.5E0,-3.67E0,1.4301606E-2,-1.8630859E-2,2.1E-1,7E-1,-1.9557785E-2,3.397399E-1,-1.580845E-2,-1.335604E-3,1.45E0,1.89E0,-1.198014E-2,8.3E-1,1.26E0,5E-1,1.8800262E-3,-1.773266E-2,1.4293324E-3,-1.5752861E-2,-1.20471995E-2,2.6444493E-2,-1.797501E-2,9E-1,5.1040826E-3,2.9888222E-2,-1.4781432E-2,1.5756398E-3,1.2735241E-2,8.586029E-4,-4.284134E-3,2.5888646E-2,-1.6209729E-3,1.6461443E-2,-9.864592E-3,2.8499102E-2],"split_indices":[84,15,16,15,15,109,15,15,85,0,0,84,96,14,16,15,14,0,0,14,84,15,14,15,16,15,84,107,0,0,0,0,0,0,0,2,16,0,0,15,16,0,85,0,0,15,15,0,14,15,109,0,0,0,0,0,0,0,15,0,0,0,0,0,0,0,0,0,0,0,0],"split_type":[0,0,0,0,0,0,0,0,0,0,0,0,0,0,0,0,0,0,0,0,0,0,0,0,0,0,0,0,0,0,0,0,0,0,0,0,0,0,0,0,0,0,0,0,0,0,0,0,0,0,0,0,0,0,0,0,0,0,0,0,0,0,0,0,0,0,0,0,0,0,0],"sum_hessian":[3.2740445E2,2.1877638E1,3.0552682E2,1.9040178E1,2.8374586E0,2.2136205E2,8.4164764E1,8.139549E0,1.090063E1,1.6056714E0,1.2317872E0,1.9046259E1,2.023158E2,7.186693E1,1.2297838E1,5.2251434E0,2.9144053E0,9.565062E0,1.3355683E0,1.6170576E1,2.8756812E0,1.9188979E2,1.042601E1,6.725402E0,6.5141525E1,4.811745E0,7.4860926E0,3.8865438E0,1.3385997E0,1.6347605E0,1.279645E0,1.413064E1,2.039937E0,1.240561E0,1.6351202E0,1.8500838E2,6.8814116E0,1.2718949E0,9.154115E0,4.148297E0,2.5771053E0,1.7146412E1,4.7995113E1,3.202489E0,1.6092563E0,3.8154569E0,3.6706355E0,1.2623254E0,2.6242182E0,7.6206274E0,1.7738774E2,1.2265419E0,5.6548696E0,1.2539972E0,2.8942995E0,1.2686744E0,1.3084308E0,1.8539398E1,2.9455715E1,2.080236E0,1.7352209E0,2.426046E0,1.2445897E0,1.3376226E0,1.2865956E0,3.7627811E0,3.8578463E0,1.7391699E2,3.470755E0,2.821765E1,1.2380654E0],"tree_param":{"num_deleted":"0","num_feature":"115","num_nodes":"71","size_leaf_vector":"1"}},{"base_weights":[-4.780819E-2,3.6743137E-1,-2.263421E-1,-4.0181097E-1,4.5613664E-1,-1.0522753E-1,-5.1039344E-1,-1.9284887E-2,1.7760985E-2,7.816401E-1,3.2418394E-1,6.9262844E-1,-1.3934201E-1,3.8494177E-3,-5.3145283E-1,8.7511605E-1,2.625529E-1,3.59747E-1,-3.3208665E-1,7.6063084E-3,2.6789881E-2,-1.1188796E-1,-1.9102884E-2,-1.9114198E-2,-3.829223E-1,3.4688336E-1,1.043015E0,-2.8053895E-1,2.6019024E-2,2.585795E-1,6.3097566E-1,2.5295014E-5,-1.4709575E-2,-1.2502068E-1,2.4757778E-2,1.3080511E-2,-5.157714E-1,1.9993488E-2,4.4249143E-2,3.2501142E-2,1.069938E-2,-4.2054444E-4,-1.2872368E-2,3.6591622E-1,-1.1264431E-1,2.2302333E-2,-1.2754666E-2,-1.3695142E-1,1.8028652E-2,-2.4499542E-1,2.6345318E-2,1.277961E-2,-5.8915365E-1,-1.3062916E-2,1.1208E-2,2.3443515E-3,1.4110165E-2,-9.128171E-3,2.3792338E-2,-1.1898896E-2,-3.1303198E-3,1.3916444E-2,-1.3696469E-2,-1.8642616E-2,-8.216177E-3],"categories":[],"categories_nodes":[],"categories_segments":[],"categories_sizes":[],"default_left":[0,0,0,0,0,0,0,0,0,0,0,0,0,0,0,0,0,0,0,0,0,0,0,0,0,0,0,0,0,0,0,0,0,0,0,0,0,0,0,0,0,0,0,0,0,0,0,0,0,0,0,0,0,0,0,0,0,0,0,0,0,0,0,0,0],"id":20,"left_children":[1,3,5,7,9,11,13,-1,-1,15,17,19,21,-1,23,25,27,29,31,-1,-1,33,-1,-1,35,37,39,41,-1,43,45,-1,-1,47,-1,49,51,-1,53,-1,-1,-1,-1,55,57,-1,-1,59,-1,61,-1,-1,63,-1,-1,-1,-1,-1,-1,-1,-1,-1,-1,